MTP
version = 1.1.0
potential_name = MTP1m
scaling = 4.097567646393594e-02
species_count = 1
potential_tag = 
radial_basis_type = RBChebyshev
	min_dist = 2.129138396368846e+00
	max_dist = 5.000000000000000e+00
	radial_basis_size = 8
	radial_funcs_count = 4
	radial_coeffs
		0-0
			{7.598135846667039e-01, -2.024443951734049e-01, 6.831525258838640e-02, -2.892548698948046e-01, -5.188899871560813e-01, -1.356237733470992e-01, -7.542731918624308e-02, 5.858496169293841e-03}
			{1.173349594951884e-01, 8.839338778109138e-01, -1.140238663448425e-01, 8.645766630640868e-02, -1.142711726370199e-01, -3.644973625488887e-01, -1.881344115979337e-01, -5.573375055394770e-02}
			{4.763779537286162e-01, 2.160184790586402e-01, 5.479867707208169e-01, 2.877483990035678e-01, 4.094892710421394e-01, 4.149747319374472e-01, 5.089613213182117e-02, 2.890521719731257e-02}
			{1.760717519371467e-01, 1.254500080344872e-01, -5.795626506435556e-01, 3.437027712053050e-01, -2.447112498208038e-01, 4.367032742622111e-01, 4.961024666507894e-01, 5.025503896672612e-02}
alpha_moments_count = 350
alpha_index_basic_count = 130
alpha_index_basic = {{0, 0, 0, 0}, {0, 1, 0, 0}, {0, 0, 1, 0}, {0, 0, 0, 1}, {0, 2, 0, 0}, {0, 1, 1, 0}, {0, 1, 0, 1}, {0, 0, 2, 0}, {0, 0, 1, 1}, {0, 0, 0, 2}, {0, 3, 0, 0}, {0, 2, 1, 0}, {0, 2, 0, 1}, {0, 1, 2, 0}, {0, 1, 1, 1}, {0, 1, 0, 2}, {0, 0, 3, 0}, {0, 0, 2, 1}, {0, 0, 1, 2}, {0, 0, 0, 3}, {0, 4, 0, 0}, {0, 3, 1, 0}, {0, 3, 0, 1}, {0, 2, 2, 0}, {0, 2, 1, 1}, {0, 2, 0, 2}, {0, 1, 3, 0}, {0, 1, 2, 1}, {0, 1, 1, 2}, {0, 1, 0, 3}, {0, 0, 4, 0}, {0, 0, 3, 1}, {0, 0, 2, 2}, {0, 0, 1, 3}, {0, 0, 0, 4}, {0, 5, 0, 0}, {0, 4, 1, 0}, {0, 4, 0, 1}, {0, 3, 2, 0}, {0, 3, 1, 1}, {0, 3, 0, 2}, {0, 2, 3, 0}, {0, 2, 2, 1}, {0, 2, 1, 2}, {0, 2, 0, 3}, {0, 1, 4, 0}, {0, 1, 3, 1}, {0, 1, 2, 2}, {0, 1, 1, 3}, {0, 1, 0, 4}, {0, 0, 5, 0}, {0, 0, 4, 1}, {0, 0, 3, 2}, {0, 0, 2, 3}, {0, 0, 1, 4}, {0, 0, 0, 5}, {0, 6, 0, 0}, {0, 5, 1, 0}, {0, 5, 0, 1}, {0, 4, 2, 0}, {0, 4, 1, 1}, {0, 4, 0, 2}, {0, 3, 3, 0}, {0, 3, 2, 1}, {0, 3, 1, 2}, {0, 3, 0, 3}, {0, 2, 4, 0}, {0, 2, 3, 1}, {0, 2, 2, 2}, {0, 2, 1, 3}, {0, 2, 0, 4}, {0, 1, 5, 0}, {0, 1, 4, 1}, {0, 1, 3, 2}, {0, 1, 2, 3}, {0, 1, 1, 4}, {0, 1, 0, 5}, {0, 0, 6, 0}, {0, 0, 5, 1}, {0, 0, 4, 2}, {0, 0, 3, 3}, {0, 0, 2, 4}, {0, 0, 1, 5}, {0, 0, 0, 6}, {1, 0, 0, 0}, {1, 1, 0, 0}, {1, 0, 1, 0}, {1, 0, 0, 1}, {1, 2, 0, 0}, {1, 1, 1, 0}, {1, 1, 0, 1}, {1, 0, 2, 0}, {1, 0, 1, 1}, {1, 0, 0, 2}, {1, 3, 0, 0}, {1, 2, 1, 0}, {1, 2, 0, 1}, {1, 1, 2, 0}, {1, 1, 1, 1}, {1, 1, 0, 2}, {1, 0, 3, 0}, {1, 0, 2, 1}, {1, 0, 1, 2}, {1, 0, 0, 3}, {1, 4, 0, 0}, {1, 3, 1, 0}, {1, 3, 0, 1}, {1, 2, 2, 0}, {1, 2, 1, 1}, {1, 2, 0, 2}, {1, 1, 3, 0}, {1, 1, 2, 1}, {1, 1, 1, 2}, {1, 1, 0, 3}, {1, 0, 4, 0}, {1, 0, 3, 1}, {1, 0, 2, 2}, {1, 0, 1, 3}, {1, 0, 0, 4}, {2, 0, 0, 0}, {2, 1, 0, 0}, {2, 0, 1, 0}, {2, 0, 0, 1}, {2, 2, 0, 0}, {2, 1, 1, 0}, {2, 1, 0, 1}, {2, 0, 2, 0}, {2, 0, 1, 1}, {2, 0, 0, 2}, {3, 0, 0, 0}}
alpha_index_times_count = 969
alpha_index_times = {{0, 0, 1, 130}, {1, 1, 1, 131}, {2, 2, 1, 131}, {3, 3, 1, 131}, {1, 4, 1, 132}, {2, 5, 1, 132}, {3, 6, 1, 132}, {1, 5, 1, 133}, {2, 7, 1, 133}, {3, 8, 1, 133}, {1, 6, 1, 134}, {2, 8, 1, 134}, {3, 9, 1, 134}, {1, 10, 1, 135}, {2, 11, 1, 135}, {3, 12, 1, 135}, {1, 11, 1, 136}, {2, 13, 1, 136}, {3, 14, 1, 136}, {1, 12, 1, 137}, {2, 14, 1, 137}, {3, 15, 1, 137}, {1, 13, 1, 138}, {2, 16, 1, 138}, {3, 17, 1, 138}, {1, 14, 1, 139}, {2, 17, 1, 139}, {3, 18, 1, 139}, {1, 15, 1, 140}, {2, 18, 1, 140}, {3, 19, 1, 140}, {4, 4, 1, 141}, {5, 5, 1, 141}, {6, 6, 1, 141}, {4, 5, 1, 142}, {5, 7, 1, 142}, {6, 8, 1, 142}, {4, 6, 1, 143}, {5, 8, 1, 143}, {6, 9, 1, 143}, {5, 5, 1, 144}, {7, 7, 1, 144}, {8, 8, 1, 144}, {5, 6, 1, 145}, {7, 8, 1, 145}, {8, 9, 1, 145}, {6, 6, 1, 146}, {8, 8, 1, 146}, {9, 9, 1, 146}, {4, 10, 1, 147}, {5, 11, 1, 147}, {6, 12, 1, 147}, {4, 11, 1, 148}, {5, 13, 1, 148}, {6, 14, 1, 148}, {4, 12, 1, 149}, {5, 14, 1, 149}, {6, 15, 1, 149}, {4, 13, 1, 150}, {5, 16, 1, 150}, {6, 17, 1, 150}, {4, 14, 1, 151}, {5, 17, 1, 151}, {6, 18, 1, 151}, {4, 15, 1, 152}, {5, 18, 1, 152}, {6, 19, 1, 152}, {5, 10, 1, 153}, {7, 11, 1, 153}, {8, 12, 1, 153}, {5, 11, 1, 154}, {7, 13, 1, 154}, {8, 14, 1, 154}, {5, 12, 1, 155}, {7, 14, 1, 155}, {8, 15, 1, 155}, {5, 13, 1, 156}, {7, 16, 1, 156}, {8, 17, 1, 156}, {5, 14, 1, 157}, {7, 17, 1, 157}, {8, 18, 1, 157}, {5, 15, 1, 158}, {7, 18, 1, 158}, {8, 19, 1, 158}, {6, 10, 1, 159}, {8, 11, 1, 159}, {9, 12, 1, 159}, {6, 11, 1, 160}, {8, 13, 1, 160}, {9, 14, 1, 160}, {6, 12, 1, 161}, {8, 14, 1, 161}, {9, 15, 1, 161}, {6, 13, 1, 162}, {8, 16, 1, 162}, {9, 17, 1, 162}, {6, 14, 1, 163}, {8, 17, 1, 163}, {9, 18, 1, 163}, {6, 15, 1, 164}, {8, 18, 1, 164}, {9, 19, 1, 164}, {4, 4, 1, 165}, {5, 5, 2, 165}, {6, 6, 2, 165}, {7, 7, 1, 165}, {8, 8, 2, 165}, {9, 9, 1, 165}, {4, 10, 1, 166}, {5, 11, 2, 166}, {6, 12, 2, 166}, {7, 13, 1, 166}, {8, 14, 2, 166}, {9, 15, 1, 166}, {4, 11, 1, 167}, {5, 13, 2, 167}, {6, 14, 2, 167}, {7, 16, 1, 167}, {8, 17, 2, 167}, {9, 18, 1, 167}, {4, 12, 1, 168}, {5, 14, 2, 168}, {6, 15, 2, 168}, {7, 17, 1, 168}, {8, 18, 2, 168}, {9, 19, 1, 168}, {4, 20, 1, 169}, {5, 21, 2, 169}, {6, 22, 2, 169}, {7, 23, 1, 169}, {8, 24, 2, 169}, {9, 25, 1, 169}, {4, 21, 1, 170}, {5, 23, 2, 170}, {6, 24, 2, 170}, {7, 26, 1, 170}, {8, 27, 2, 170}, {9, 28, 1, 170}, {4, 22, 1, 171}, {5, 24, 2, 171}, {6, 25, 2, 171}, {7, 27, 1, 171}, {8, 28, 2, 171}, {9, 29, 1, 171}, {4, 23, 1, 172}, {5, 26, 2, 172}, {6, 27, 2, 172}, {7, 30, 1, 172}, {8, 31, 2, 172}, {9, 32, 1, 172}, {4, 24, 1, 173}, {5, 27, 2, 173}, {6, 28, 2, 173}, {7, 31, 1, 173}, {8, 32, 2, 173}, {9, 33, 1, 173}, {4, 25, 1, 174}, {5, 28, 2, 174}, {6, 29, 2, 174}, {7, 32, 1, 174}, {8, 33, 2, 174}, {9, 34, 1, 174}, {10, 10, 1, 175}, {11, 11, 2, 175}, {12, 12, 2, 175}, {13, 13, 1, 175}, {14, 14, 2, 175}, {15, 15, 1, 175}, {10, 11, 1, 176}, {11, 13, 2, 176}, {12, 14, 2, 176}, {13, 16, 1, 176}, {14, 17, 2, 176}, {15, 18, 1, 176}, {10, 12, 1, 177}, {11, 14, 2, 177}, {12, 15, 2, 177}, {13, 17, 1, 177}, {14, 18, 2, 177}, {15, 19, 1, 177}, {11, 11, 1, 178}, {13, 13, 2, 178}, {14, 14, 2, 178}, {16, 16, 1, 178}, {17, 17, 2, 178}, {18, 18, 1, 178}, {11, 12, 1, 179}, {13, 14, 2, 179}, {14, 15, 2, 179}, {16, 17, 1, 179}, {17, 18, 2, 179}, {18, 19, 1, 179}, {12, 12, 1, 180}, {14, 14, 2, 180}, {15, 15, 2, 180}, {17, 17, 1, 180}, {18, 18, 2, 180}, {19, 19, 1, 180}, {10, 20, 1, 181}, {11, 21, 2, 181}, {12, 22, 2, 181}, {13, 23, 1, 181}, {14, 24, 2, 181}, {15, 25, 1, 181}, {10, 21, 1, 182}, {11, 23, 2, 182}, {12, 24, 2, 182}, {13, 26, 1, 182}, {14, 27, 2, 182}, {15, 28, 1, 182}, {10, 22, 1, 183}, {11, 24, 2, 183}, {12, 25, 2, 183}, {13, 27, 1, 183}, {14, 28, 2, 183}, {15, 29, 1, 183}, {10, 23, 1, 184}, {11, 26, 2, 184}, {12, 27, 2, 184}, {13, 30, 1, 184}, {14, 31, 2, 184}, {15, 32, 1, 184}, {10, 24, 1, 185}, {11, 27, 2, 185}, {12, 28, 2, 185}, {13, 31, 1, 185}, {14, 32, 2, 185}, {15, 33, 1, 185}, {10, 25, 1, 186}, {11, 28, 2, 186}, {12, 29, 2, 186}, {13, 32, 1, 186}, {14, 33, 2, 186}, {15, 34, 1, 186}, {11, 20, 1, 187}, {13, 21, 2, 187}, {14, 22, 2, 187}, {16, 23, 1, 187}, {17, 24, 2, 187}, {18, 25, 1, 187}, {11, 21, 1, 188}, {13, 23, 2, 188}, {14, 24, 2, 188}, {16, 26, 1, 188}, {17, 27, 2, 188}, {18, 28, 1, 188}, {11, 22, 1, 189}, {13, 24, 2, 189}, {14, 25, 2, 189}, {16, 27, 1, 189}, {17, 28, 2, 189}, {18, 29, 1, 189}, {11, 23, 1, 190}, {13, 26, 2, 190}, {14, 27, 2, 190}, {16, 30, 1, 190}, {17, 31, 2, 190}, {18, 32, 1, 190}, {11, 24, 1, 191}, {13, 27, 2, 191}, {14, 28, 2, 191}, {16, 31, 1, 191}, {17, 32, 2, 191}, {18, 33, 1, 191}, {11, 25, 1, 192}, {13, 28, 2, 192}, {14, 29, 2, 192}, {16, 32, 1, 192}, {17, 33, 2, 192}, {18, 34, 1, 192}, {12, 20, 1, 193}, {14, 21, 2, 193}, {15, 22, 2, 193}, {17, 23, 1, 193}, {18, 24, 2, 193}, {19, 25, 1, 193}, {12, 21, 1, 194}, {14, 23, 2, 194}, {15, 24, 2, 194}, {17, 26, 1, 194}, {18, 27, 2, 194}, {19, 28, 1, 194}, {12, 22, 1, 195}, {14, 24, 2, 195}, {15, 25, 2, 195}, {17, 27, 1, 195}, {18, 28, 2, 195}, {19, 29, 1, 195}, {12, 23, 1, 196}, {14, 26, 2, 196}, {15, 27, 2, 196}, {17, 30, 1, 196}, {18, 31, 2, 196}, {19, 32, 1, 196}, {12, 24, 1, 197}, {14, 27, 2, 197}, {15, 28, 2, 197}, {17, 31, 1, 197}, {18, 32, 2, 197}, {19, 33, 1, 197}, {12, 25, 1, 198}, {14, 28, 2, 198}, {15, 29, 2, 198}, {17, 32, 1, 198}, {18, 33, 2, 198}, {19, 34, 1, 198}, {10, 10, 1, 199}, {11, 11, 3, 199}, {12, 12, 3, 199}, {13, 13, 3, 199}, {14, 14, 6, 199}, {15, 15, 3, 199}, {16, 16, 1, 199}, {17, 17, 3, 199}, {18, 18, 3, 199}, {19, 19, 1, 199}, {10, 20, 1, 200}, {11, 21, 3, 200}, {12, 22, 3, 200}, {13, 23, 3, 200}, {14, 24, 6, 200}, {15, 25, 3, 200}, {16, 26, 1, 200}, {17, 27, 3, 200}, {18, 28, 3, 200}, {19, 29, 1, 200}, {10, 21, 1, 201}, {11, 23, 3, 201}, {12, 24, 3, 201}, {13, 26, 3, 201}, {14, 27, 6, 201}, {15, 28, 3, 201}, {16, 30, 1, 201}, {17, 31, 3, 201}, {18, 32, 3, 201}, {19, 33, 1, 201}, {10, 22, 1, 202}, {11, 24, 3, 202}, {12, 25, 3, 202}, {13, 27, 3, 202}, {14, 28, 6, 202}, {15, 29, 3, 202}, {16, 31, 1, 202}, {17, 32, 3, 202}, {18, 33, 3, 202}, {19, 34, 1, 202}, {10, 35, 1, 203}, {11, 36, 3, 203}, {12, 37, 3, 203}, {13, 38, 3, 203}, {14, 39, 6, 203}, {15, 40, 3, 203}, {16, 41, 1, 203}, {17, 42, 3, 203}, {18, 43, 3, 203}, {19, 44, 1, 203}, {10, 36, 1, 204}, {11, 38, 3, 204}, {12, 39, 3, 204}, {13, 41, 3, 204}, {14, 42, 6, 204}, {15, 43, 3, 204}, {16, 45, 1, 204}, {17, 46, 3, 204}, {18, 47, 3, 204}, {19, 48, 1, 204}, {10, 37, 1, 205}, {11, 39, 3, 205}, {12, 40, 3, 205}, {13, 42, 3, 205}, {14, 43, 6, 205}, {15, 44, 3, 205}, {16, 46, 1, 205}, {17, 47, 3, 205}, {18, 48, 3, 205}, {19, 49, 1, 205}, {10, 38, 1, 206}, {11, 41, 3, 206}, {12, 42, 3, 206}, {13, 45, 3, 206}, {14, 46, 6, 206}, {15, 47, 3, 206}, {16, 50, 1, 206}, {17, 51, 3, 206}, {18, 52, 3, 206}, {19, 53, 1, 206}, {10, 39, 1, 207}, {11, 42, 3, 207}, {12, 43, 3, 207}, {13, 46, 3, 207}, {14, 47, 6, 207}, {15, 48, 3, 207}, {16, 51, 1, 207}, {17, 52, 3, 207}, {18, 53, 3, 207}, {19, 54, 1, 207}, {10, 40, 1, 208}, {11, 43, 3, 208}, {12, 44, 3, 208}, {13, 47, 3, 208}, {14, 48, 6, 208}, {15, 49, 3, 208}, {16, 52, 1, 208}, {17, 53, 3, 208}, {18, 54, 3, 208}, {19, 55, 1, 208}, {20, 20, 1, 209}, {21, 21, 3, 209}, {22, 22, 3, 209}, {23, 23, 3, 209}, {24, 24, 6, 209}, {25, 25, 3, 209}, {26, 26, 1, 209}, {27, 27, 3, 209}, {28, 28, 3, 209}, {29, 29, 1, 209}, {20, 21, 1, 210}, {21, 23, 3, 210}, {22, 24, 3, 210}, {23, 26, 3, 210}, {24, 27, 6, 210}, {25, 28, 3, 210}, {26, 30, 1, 210}, {27, 31, 3, 210}, {28, 32, 3, 210}, {29, 33, 1, 210}, {20, 22, 1, 211}, {21, 24, 3, 211}, {22, 25, 3, 211}, {23, 27, 3, 211}, {24, 28, 6, 211}, {25, 29, 3, 211}, {26, 31, 1, 211}, {27, 32, 3, 211}, {28, 33, 3, 211}, {29, 34, 1, 211}, {21, 21, 1, 212}, {23, 23, 3, 212}, {24, 24, 3, 212}, {26, 26, 3, 212}, {27, 27, 6, 212}, {28, 28, 3, 212}, {30, 30, 1, 212}, {31, 31, 3, 212}, {32, 32, 3, 212}, {33, 33, 1, 212}, {21, 22, 1, 213}, {23, 24, 3, 213}, {24, 25, 3, 213}, {26, 27, 3, 213}, {27, 28, 6, 213}, {28, 29, 3, 213}, {30, 31, 1, 213}, {31, 32, 3, 213}, {32, 33, 3, 213}, {33, 34, 1, 213}, {22, 22, 1, 214}, {24, 24, 3, 214}, {25, 25, 3, 214}, {27, 27, 3, 214}, {28, 28, 6, 214}, {29, 29, 3, 214}, {31, 31, 1, 214}, {32, 32, 3, 214}, {33, 33, 3, 214}, {34, 34, 1, 214}, {20, 20, 1, 215}, {21, 21, 4, 215}, {22, 22, 4, 215}, {23, 23, 6, 215}, {24, 24, 12, 215}, {25, 25, 6, 215}, {26, 26, 4, 215}, {27, 27, 12, 215}, {28, 28, 12, 215}, {29, 29, 4, 215}, {30, 30, 1, 215}, {31, 31, 4, 215}, {32, 32, 6, 215}, {33, 33, 4, 215}, {34, 34, 1, 215}, {20, 35, 1, 216}, {21, 36, 4, 216}, {22, 37, 4, 216}, {23, 38, 6, 216}, {24, 39, 12, 216}, {25, 40, 6, 216}, {26, 41, 4, 216}, {27, 42, 12, 216}, {28, 43, 12, 216}, {29, 44, 4, 216}, {30, 45, 1, 216}, {31, 46, 4, 216}, {32, 47, 6, 216}, {33, 48, 4, 216}, {34, 49, 1, 216}, {20, 36, 1, 217}, {21, 38, 4, 217}, {22, 39, 4, 217}, {23, 41, 6, 217}, {24, 42, 12, 217}, {25, 43, 6, 217}, {26, 45, 4, 217}, {27, 46, 12, 217}, {28, 47, 12, 217}, {29, 48, 4, 217}, {30, 50, 1, 217}, {31, 51, 4, 217}, {32, 52, 6, 217}, {33, 53, 4, 217}, {34, 54, 1, 217}, {20, 37, 1, 218}, {21, 39, 4, 218}, {22, 40, 4, 218}, {23, 42, 6, 218}, {24, 43, 12, 218}, {25, 44, 6, 218}, {26, 46, 4, 218}, {27, 47, 12, 218}, {28, 48, 12, 218}, {29, 49, 4, 218}, {30, 51, 1, 218}, {31, 52, 4, 218}, {32, 53, 6, 218}, {33, 54, 4, 218}, {34, 55, 1, 218}, {35, 35, 1, 219}, {36, 36, 5, 219}, {37, 37, 5, 219}, {38, 38, 10, 219}, {39, 39, 20, 219}, {40, 40, 10, 219}, {41, 41, 10, 219}, {42, 42, 30, 219}, {43, 43, 30, 219}, {44, 44, 10, 219}, {45, 45, 5, 219}, {46, 46, 20, 219}, {47, 47, 30, 219}, {48, 48, 20, 219}, {49, 49, 5, 219}, {50, 50, 1, 219}, {51, 51, 5, 219}, {52, 52, 10, 219}, {53, 53, 10, 219}, {54, 54, 5, 219}, {55, 55, 1, 219}, {56, 56, 1, 220}, {57, 57, 6, 220}, {58, 58, 6, 220}, {59, 59, 15, 220}, {60, 60, 30, 220}, {61, 61, 15, 220}, {62, 62, 20, 220}, {63, 63, 60, 220}, {64, 64, 60, 220}, {65, 65, 20, 220}, {66, 66, 15, 220}, {67, 67, 60, 220}, {68, 68, 90, 220}, {69, 69, 60, 220}, {70, 70, 15, 220}, {71, 71, 6, 220}, {72, 72, 30, 220}, {73, 73, 60, 220}, {74, 74, 60, 220}, {75, 75, 30, 220}, {76, 76, 6, 220}, {77, 77, 1, 220}, {78, 78, 6, 220}, {79, 79, 15, 220}, {80, 80, 20, 220}, {81, 81, 15, 220}, {82, 82, 6, 220}, {83, 83, 1, 220}, {0, 84, 1, 221}, {1, 85, 1, 222}, {2, 86, 1, 222}, {3, 87, 1, 222}, {1, 88, 1, 223}, {2, 89, 1, 223}, {3, 90, 1, 223}, {1, 89, 1, 224}, {2, 91, 1, 224}, {3, 92, 1, 224}, {1, 90, 1, 225}, {2, 92, 1, 225}, {3, 93, 1, 225}, {4, 85, 1, 226}, {5, 86, 1, 226}, {6, 87, 1, 226}, {5, 85, 1, 227}, {7, 86, 1, 227}, {8, 87, 1, 227}, {6, 85, 1, 228}, {8, 86, 1, 228}, {9, 87, 1, 228}, {4, 88, 1, 229}, {5, 89, 1, 229}, {6, 90, 1, 229}, {4, 89, 1, 230}, {5, 91, 1, 230}, {6, 92, 1, 230}, {4, 90, 1, 231}, {5, 92, 1, 231}, {6, 93, 1, 231}, {5, 88, 1, 232}, {7, 89, 1, 232}, {8, 90, 1, 232}, {5, 89, 1, 233}, {7, 91, 1, 233}, {8, 92, 1, 233}, {5, 90, 1, 234}, {7, 92, 1, 234}, {8, 93, 1, 234}, {6, 88, 1, 235}, {8, 89, 1, 235}, {9, 90, 1, 235}, {6, 89, 1, 236}, {8, 91, 1, 236}, {9, 92, 1, 236}, {6, 90, 1, 237}, {8, 92, 1, 237}, {9, 93, 1, 237}, {4, 88, 1, 238}, {5, 89, 2, 238}, {6, 90, 2, 238}, {7, 91, 1, 238}, {8, 92, 2, 238}, {9, 93, 1, 238}, {4, 94, 1, 239}, {5, 95, 2, 239}, {6, 96, 2, 239}, {7, 97, 1, 239}, {8, 98, 2, 239}, {9, 99, 1, 239}, {4, 95, 1, 240}, {5, 97, 2, 240}, {6, 98, 2, 240}, {7, 100, 1, 240}, {8, 101, 2, 240}, {9, 102, 1, 240}, {4, 96, 1, 241}, {5, 98, 2, 241}, {6, 99, 2, 241}, {7, 101, 1, 241}, {8, 102, 2, 241}, {9, 103, 1, 241}, {10, 88, 1, 242}, {11, 89, 2, 242}, {12, 90, 2, 242}, {13, 91, 1, 242}, {14, 92, 2, 242}, {15, 93, 1, 242}, {11, 88, 1, 243}, {13, 89, 2, 243}, {14, 90, 2, 243}, {16, 91, 1, 243}, {17, 92, 2, 243}, {18, 93, 1, 243}, {12, 88, 1, 244}, {14, 89, 2, 244}, {15, 90, 2, 244}, {17, 91, 1, 244}, {18, 92, 2, 244}, {19, 93, 1, 244}, {10, 94, 1, 245}, {11, 95, 3, 245}, {12, 96, 3, 245}, {13, 97, 3, 245}, {14, 98, 6, 245}, {15, 99, 3, 245}, {16, 100, 1, 245}, {17, 101, 3, 245}, {18, 102, 3, 245}, {19, 103, 1, 245}, {20, 104, 1, 246}, {21, 105, 4, 246}, {22, 106, 4, 246}, {23, 107, 6, 246}, {24, 108, 12, 246}, {25, 109, 6, 246}, {26, 110, 4, 246}, {27, 111, 12, 246}, {28, 112, 12, 246}, {29, 113, 4, 246}, {30, 114, 1, 246}, {31, 115, 4, 246}, {32, 116, 6, 246}, {33, 117, 4, 246}, {34, 118, 1, 246}, {0, 119, 1, 247}, {1, 120, 1, 248}, {2, 121, 1, 248}, {3, 122, 1, 248}, {4, 123, 1, 249}, {5, 124, 2, 249}, {6, 125, 2, 249}, {7, 126, 1, 249}, {8, 127, 2, 249}, {9, 128, 1, 249}, {0, 129, 1, 250}, {84, 84, 1, 251}, {85, 85, 1, 252}, {86, 86, 1, 252}, {87, 87, 1, 252}, {88, 88, 1, 253}, {89, 89, 2, 253}, {90, 90, 2, 253}, {91, 91, 1, 253}, {92, 92, 2, 253}, {93, 93, 1, 253}, {84, 119, 1, 254}, {0, 130, 1, 255}, {0, 131, 1, 256}, {0, 165, 1, 257}, {0, 199, 1, 258}, {0, 215, 1, 259}, {0, 219, 1, 260}, {1, 132, 1, 261}, {2, 133, 1, 261}, {3, 134, 1, 261}, {1, 135, 1, 262}, {2, 136, 1, 262}, {3, 137, 1, 262}, {1, 136, 1, 263}, {2, 138, 1, 263}, {3, 139, 1, 263}, {1, 137, 1, 264}, {2, 139, 1, 264}, {3, 140, 1, 264}, {1, 141, 1, 265}, {2, 142, 1, 265}, {3, 143, 1, 265}, {1, 142, 1, 266}, {2, 144, 1, 266}, {3, 145, 1, 266}, {1, 143, 1, 267}, {2, 145, 1, 267}, {3, 146, 1, 267}, {1, 166, 1, 268}, {2, 167, 1, 268}, {3, 168, 1, 268}, {1, 169, 1, 269}, {2, 170, 1, 269}, {3, 171, 1, 269}, {1, 170, 1, 270}, {2, 172, 1, 270}, {3, 173, 1, 270}, {1, 171, 1, 271}, {2, 173, 1, 271}, {3, 174, 1, 271}, {1, 175, 1, 272}, {2, 176, 1, 272}, {3, 177, 1, 272}, {1, 176, 1, 273}, {2, 178, 1, 273}, {3, 179, 1, 273}, {1, 177, 1, 274}, {2, 179, 1, 274}, {3, 180, 1, 274}, {1, 200, 1, 275}, {2, 201, 1, 275}, {3, 202, 1, 275}, {1, 216, 1, 276}, {2, 217, 1, 276}, {3, 218, 1, 276}, {4, 141, 1, 277}, {5, 142, 1, 277}, {6, 143, 1, 277}, {4, 142, 1, 278}, {5, 144, 1, 278}, {6, 145, 1, 278}, {4, 143, 1, 279}, {5, 145, 1, 279}, {6, 146, 1, 279}, {5, 141, 1, 280}, {7, 142, 1, 280}, {8, 143, 1, 280}, {5, 142, 1, 281}, {7, 144, 1, 281}, {8, 145, 1, 281}, {5, 143, 1, 282}, {7, 145, 1, 282}, {8, 146, 1, 282}, {6, 141, 1, 283}, {8, 142, 1, 283}, {9, 143, 1, 283}, {6, 142, 1, 284}, {8, 144, 1, 284}, {9, 145, 1, 284}, {6, 143, 1, 285}, {8, 145, 1, 285}, {9, 146, 1, 285}, {4, 166, 1, 286}, {5, 167, 1, 286}, {6, 168, 1, 286}, {5, 166, 1, 287}, {7, 167, 1, 287}, {8, 168, 1, 287}, {6, 166, 1, 288}, {8, 167, 1, 288}, {9, 168, 1, 288}, {4, 169, 1, 289}, {5, 170, 2, 289}, {6, 171, 2, 289}, {7, 172, 1, 289}, {8, 173, 2, 289}, {9, 174, 1, 289}, {4, 203, 1, 290}, {5, 204, 2, 290}, {6, 205, 2, 290}, {7, 206, 1, 290}, {8, 207, 2, 290}, {9, 208, 1, 290}, {4, 141, 1, 291}, {5, 142, 2, 291}, {6, 143, 2, 291}, {7, 144, 1, 291}, {8, 145, 2, 291}, {9, 146, 1, 291}, {4, 147, 1, 292}, {5, 148, 1, 292}, {5, 153, 1, 292}, {6, 149, 1, 292}, {6, 159, 1, 292}, {7, 154, 1, 292}, {8, 155, 1, 292}, {8, 160, 1, 292}, {9, 161, 1, 292}, {4, 148, 1, 293}, {5, 150, 1, 293}, {5, 154, 1, 293}, {6, 151, 1, 293}, {6, 160, 1, 293}, {7, 156, 1, 293}, {8, 157, 1, 293}, {8, 162, 1, 293}, {9, 163, 1, 293}, {4, 149, 1, 294}, {5, 151, 1, 294}, {5, 155, 1, 294}, {6, 152, 1, 294}, {6, 161, 1, 294}, {7, 157, 1, 294}, {8, 158, 1, 294}, {8, 163, 1, 294}, {9, 164, 1, 294}, {4, 175, 1, 295}, {5, 176, 2, 295}, {6, 177, 2, 295}, {7, 178, 1, 295}, {8, 179, 2, 295}, {9, 180, 1, 295}, {4, 209, 1, 296}, {5, 210, 2, 296}, {6, 211, 2, 296}, {7, 212, 1, 296}, {8, 213, 2, 296}, {9, 214, 1, 296}, {10, 181, 1, 297}, {11, 182, 2, 297}, {11, 187, 1, 297}, {12, 183, 2, 297}, {12, 193, 1, 297}, {13, 184, 1, 297}, {13, 188, 2, 297}, {14, 185, 2, 297}, {14, 189, 2, 297}, {14, 194, 2, 297}, {15, 186, 1, 297}, {15, 195, 2, 297}, {16, 190, 1, 297}, {17, 191, 2, 297}, {17, 196, 1, 297}, {18, 192, 1, 297}, {18, 197, 2, 297}, {19, 198, 1, 297}, {0, 221, 1, 298}, {0, 222, 1, 299}, {0, 238, 1, 300}, {0, 245, 1, 301}, {1, 223, 1, 302}, {2, 224, 1, 302}, {3, 225, 1, 302}, {1, 239, 1, 303}, {2, 240, 1, 303}, {3, 241, 1, 303}, {84, 131, 1, 304}, {1, 226, 1, 305}, {2, 227, 1, 305}, {3, 228, 1, 305}, {1, 242, 1, 306}, {2, 243, 1, 306}, {3, 244, 1, 306}, {4, 229, 1, 307}, {5, 230, 1, 307}, {5, 232, 1, 307}, {6, 231, 1, 307}, {6, 235, 1, 307}, {7, 233, 1, 307}, {8, 234, 1, 307}, {8, 236, 1, 307}, {9, 237, 1, 307}, {84, 165, 1, 308}, {85, 166, 1, 309}, {86, 167, 1, 309}, {87, 168, 1, 309}, {84, 199, 1, 310}, {0, 247, 1, 311}, {0, 248, 1, 312}, {119, 131, 1, 313}, {0, 251, 1, 314}, {0, 252, 1, 315}, {84, 222, 1, 316}, {131, 131, 1, 317}, {131, 165, 1, 318}, {131, 199, 1, 319}, {165, 165, 1, 320}, {131, 222, 1, 321}, {0, 255, 1, 322}, {0, 256, 1, 323}, {0, 257, 1, 324}, {0, 258, 1, 325}, {0, 259, 1, 326}, {0, 261, 1, 327}, {0, 268, 1, 328}, {0, 275, 1, 329}, {0, 289, 1, 330}, {0, 291, 1, 331}, {0, 295, 1, 332}, {1, 262, 1, 333}, {2, 263, 1, 333}, {3, 264, 1, 333}, {1, 269, 1, 334}, {2, 270, 1, 334}, {3, 271, 1, 334}, {1, 265, 1, 335}, {2, 266, 1, 335}, {3, 267, 1, 335}, {1, 272, 1, 336}, {2, 273, 1, 336}, {3, 274, 1, 336}, {1, 292, 1, 337}, {2, 293, 1, 337}, {3, 294, 1, 337}, {1, 286, 1, 338}, {2, 287, 1, 338}, {3, 288, 1, 338}, {4, 277, 1, 339}, {5, 278, 1, 339}, {5, 280, 1, 339}, {6, 279, 1, 339}, {6, 283, 1, 339}, {7, 281, 1, 339}, {8, 282, 1, 339}, {8, 284, 1, 339}, {9, 285, 1, 339}, {0, 298, 1, 340}, {0, 299, 1, 341}, {0, 300, 1, 342}, {0, 302, 1, 343}, {0, 304, 1, 344}, {0, 305, 1, 345}, {0, 308, 1, 346}, {84, 261, 1, 347}, {0, 311, 1, 348}, {0, 314, 1, 349}}
alpha_scalar_moments = 92
alpha_moment_mapping = {0, 84, 119, 129, 130, 131, 165, 199, 215, 219, 220, 221, 222, 238, 245, 246, 247, 248, 249, 250, 251, 252, 253, 254, 255, 256, 257, 258, 259, 260, 261, 268, 275, 276, 289, 290, 291, 295, 296, 297, 298, 299, 300, 301, 302, 303, 304, 305, 306, 307, 308, 309, 310, 311, 312, 313, 314, 315, 316, 322, 323, 324, 325, 326, 327, 328, 329, 330, 331, 332, 333, 334, 317, 335, 336, 337, 318, 338, 319, 320, 339, 340, 341, 342, 343, 344, 345, 346, 321, 347, 348, 349}
species_coeffs = {-7.685171892643924e+00}
moment_coeffs = {-4.910633978727732e+00, -8.784595233247648e+00, 1.294626680167892e+01, 1.609089337056585e-01, 3.455495165630365e+00, 2.216837391178360e+00, -7.116166578358067e-01, -1.559809486454446e+00, 8.584617736663031e+00, 3.620135577229844e+00, -9.291266721737973e+00, 1.839313043834446e+00, 1.738039243305901e+01, -8.239917630298857e-02, 5.099741559775838e-01, 1.360800313317123e+01, -2.077192544572906e+01, 7.878339485213869e+00, 5.347804920779184e-01, -1.071665061964920e+00, 1.097762558733708e+01, 7.761103355347227e+00, -9.257902694688357e-01, -2.785123240876828e+00, 9.509399862451914e-01, 8.046765491372797e+00, -3.257465598923585e+00, -4.259108071471159e+00, -7.851658575482464e-01, -6.659706780801439e+00, 9.687239480268532e+00, -3.052532126884624e+00, -2.914473946723109e+01, -1.559979522921372e+01, -4.216803043427765e-01, 7.942472204315815e-01, -9.027509664178089e+00, 6.728737377431785e+00, 1.241116803902523e+01, 2.656759199566280e+01, -9.767450990219743e-01, -9.879064740037094e+00, -1.487427752007764e+01, 3.534488007546525e+00, -1.731029245328226e+00, 4.089413868514348e+00, 3.409515078539399e+00, -5.877764461533425e+00, 1.440629802768524e+01, 1.905433228101700e+00, 1.624821479728704e+01, 3.041752481928714e+00, 2.782923840864867e+00, 1.070934441086975e+01, -8.836562476481096e-01, -7.300574146782803e-01, -8.830697413365503e+00, -5.338581790644588e+00, -2.975123947648433e+00, -2.062852315608629e-01, -6.616052836787971e+00, 4.557953588718195e-01, 2.552597612632163e+00, -1.611994802967592e+00, -9.156468927613165e+00, 1.116697433087172e+01, 6.022300707397735e+00, -2.602101638789169e+00, 4.254602920405556e+00, -2.857918583623795e+00, 4.437762156045551e-01, -2.410862712829395e+00, -2.071389296610703e+00, 2.198618219774376e+00, 5.031702893461795e+00, -6.703536057415961e+00, 5.017267401333424e+00, 9.613739815390369e+00, 2.558227963347646e+00, 1.860045448628004e+00, -5.123450709897637e-01, -3.475342274487653e-01, -9.426675488935975e-01, 4.602562934212483e+00, -2.456580735672305e-01, -3.518130660756673e+00, 1.482408804392607e+00, -4.742070768160649e+00, 9.296501906956863e-01, -2.117178695117842e+00, -1.821486010176945e+00, 1.220563397117872e+00}
#MVS_v1.1
energy_weight 0.0000000000000000e+00
force_weight 0.0000000000000000e+00
stress_weight 0.0000000000000000e+00
site_en_weight 1.0000000000000000e+00
weight_scaling 2
#Fw?(NN{ϕ?\ߩM"?ҽ(_? 	%"A?5F?yT~}K?H]m@v=ۛԿP(@m]H	~K1f]\@XMQy߿Ke?q)ky7c?@EP?Dh?'uuQ@ɱ&HL@l
DX?ArMt?62dN z2      ?N3(R @]lAKѿh$U?<?	%@ S`?Z:u~?c?0sX?|?}>?]؂+r骿S@]ѿٲZ]ౠϿP0?;o?T1Ȕ?QD@"E?[&d?Sr"b? D;1e!@J(Fd`?CGe[	@]5qh?l	 @gK?b" ?L2V?"`=D?rJ9?Tv?ǹ[?.'?.ti?Mp'?%>!?.S1S򿂁_1ְܻ+OܚOɿ~</Y?mzn>~Su.Z9tWɁ`{ls[?пVZ-ڿG=UNqק7?z?h?U+?{)?h?j`2@`|Gi?@@cﭴ?I(1脄@^4?3z)?:B9L?^E@O\Q?@J݇?`/-a?ŔH?cn&.*i?$pz\F?HRb?!Sa?Y?~ ?c+Mm?@TX?+(|Ek)~̿hkP*G~¦f	eO$k泿{&1뿌~FWgk'#hAh
@Z=\?UX8xOڿ& ?\6V`s(ɿAv`H	@1R??T{xK`:?8C@M%.؄?}0+<@Dr=^v~?i 7M@sooFdnW,@U	7??$?y!>*;	@aNCU@HydIgl1@%E?bUe+<?      ?(@nTh)?k @K&@w?pÞ?
H?&Ĺ)9?ܨPQ?sz{M?M_{$$+-= jHl6zuH׿ْ.T?Г;?a }?t&(@k9i?ŲJ?73?vGEҿvf1+@:-?>@MiQN?W8"@fh?|i2?h	+? \·	?>cQd7?@H? t?>/תS?N??v\`?@s?au;qj
ڈ r8KTByz.
ğG%+x["\OmR޿bzH쉹08;u"rwB@6u3Z?:A_? ?q>i?*a?x9@@zc?~ۊ&@2?:y@jSҹ?k:06?-}j?|@9%]N@F2H?紐S?-1?/"k??Y?\bPT?8Cep$'?yF?4p{bAl?u#Q@?Ńz?jc8"+W3RӿcTt⏿:lܲߩ|r&%L`C4i>45'LS@f%8?`tM򼿴XB1 @9@Ck?Ӈ@et0Y
OF?D;^5!?=_N5?=T@K8԰x忁@w'w9>ῸĞ%T(@3~`z&IԿTM8?r(ZٯZ4h?w,?4ʩ޿gS0Cg3 @xLmv? z'm?:M?'~߶ Ŵ      ?[9@ћ?B??Kz9T?]z|@FNd,%?5j?P*?<iQny?=ûO?;Au?+zjۿIR3L ԿdP?j맵?ʥ3kd?j		@9	_o?Dbdΐ?[p?9%6ӿc)|%@e 4+?[ @ALw?I|pl@&??H0?!|!?(K@ð?r-?h:wf?`njŹ??D]m?E?v?U(Jrvrӿ?t
nBҿ-x,<1j	~z C4SXt0o0տ:̎E*<[
skN@@?%NW?QF?
$?32ز?6mn8@Ml?G{ @Nk6?7iu@bu?A)?r&\?7qo@b*@[C?>G?M+Lt?1{??-H?X?".?t]*l?Pe#?Gw?X}@ l?g)YZ|t濆 |]Š>oBſxʿ}vmax4G	~tJ;@?DY俶@ȝ-c_|?: 
<?ꞄN `).п@67Be؂?/M/@~~C:	tcW@`ԇ
#u~
@0A<"?t!?#^]ɐ]-̐?$(H=N?sԯ8hQ's8׻@{VF,?!DgE?%?މZ1kM&?      ?tz @ֶIaۿU?D?!jC@Ie?d	h?Y0 ?R?}PS?ӝY?B`bɿ&oVӿW¿4*G+3Ϳp|Eˇ?2f?{7ђc?©D	@,Tm?,V?,?Ⓑ0˿%V"@MtB?	m	@7N?/O7 @#+,Ҋ?O?:X ?Q?l?,q&?>=-?UKC?"%r癶?$?7{~?$Z+#ڿzO0cӿYkyB@DԲ8Qqk	`Efc7H̿
-eI\qr%cE?@O;|?iڵ?^
x/?Xx?r(u?3@Rb'*?i@L5(z?#e#@Fi3@?|5%s? ?V@G!!@e 4?@.㧵?tt?UKgG?xoD?>q
T?+"rW?^ɀNP7?WMڊ?_R{??fhR?q@Fu.?-;*Y\A#Gܭէ\a>ÿ;hѿzMնE	#ud*呮꨿ @B|,?|<? `b?SoӆJqJ?'{Ɗ4?/D$Ы?0_0 E4@fed0.@*%r?A@fអ񿚪  XF
V?'6?pq/},}CzM<?7ȗS@Ŀ>G7 jj?*+N6 @DMh0 3@¿/r?s("W!}      ?yh*?2}Z?j}?đN1?nX޵?!ySZ?{??jvD~?"ޏL?I,?'?Ѫ?|@ N?9k2QhT:n?:c?Xʻ[*?G @ ?%Ns$?Ax?ӂJX?gF@e!jb?Jg?\(o?eK?R樛?gO?#SNX@?߇<?%? Wۨ?.p?Öw?0ؐVNh?ޓK?
KqT?0mJm?oF9o?$Ƶ;=qFET2B#<6?vl13/K[0?<a?f2?oB$yu`1Z?F<d?[9cb1?@oBlů?֊9ݬU,?l4aQ
y@&>2i?S;?y6?c/"M?R@{V?qiPF?aӲVC?ed?LVA?pUJp?.Q>5	)A?&_>?P?C?>_湯[&?aٛ`R?14?PmYk>4+?z		?KpS$L?&kkOݏo?8_3&t-??A^;(>?dt(*?u,>?0iQ?	[WwFȡ@[k8T:4`RîƳ@zW_呓?
@QѲ?Z!@ .dտt5i@cEwE`O@d^I _6 qAVsr?,5--?p{?(^fkOY@lu@hfd@A_/@Ĕ?6'Uj4&?      ?2<@k/wݿ ?Q??X@	?<?[[.?c?2Xp?Ņzɻ??kͽ5}	!Oֿ}z=э EѿSkÍ?"@O?k?<@3@RC?'6<?19B2?PՙFϿW&@3z?8e@T[Ҟ?*<^@ይ?|u?{/?	7?Q?`2?^;wY?ZY9?,F  H?̽G?@ l8?	ӑ$ڃ{ҿdR鿋ߒ8Ͽ8ۖ4θ[C;6)BMDmqѿP }P
ḿDN{@G~it?3?y?*9?kKe?_Pͯ?rO68@? @
%?@g;u?!G?m)?`i@@BkR?E_6~?
IHm?4- ?R?,>&?3]?9k?8V?ő?困=Q@}FE?}
षe"N5i4oPguZhUÿ*˶"οVl
^͓,,7_&@HK?ąڿt3<t?QAs&1p_8t@b :8ֿ@]d@ Yn3X?ma@r{N'?\Ĩ.@,	\ʿ_	@ne	Y탪3	wuW @.q-xr?3\?'L}e/lJY-@ve@Fr\O@VxE=?"'*CRg?      ?4Ae@|d<ؿr_r?h"@8v@2?镢?qim?B^3w?L¼?+4i?ސ&뿦({ohޭӿ(csxK̿{*=?ty?25`?q@$t?Dŀ?W:}K?@Nÿ%@BD?D\2o@9AmT?q=@$?\F}-y?IO?j?.%?J'@?!};[?&?#z%m?ɜ|?[Dհ?ü+tMQgTпu*(忘VJ<ɿ9˝OKO ).-@ZGO盿{Be}ϿXyGiV͸)2򦿰%W?_V#?í?Hŵ?6w<i?2Qħ?"F8@xӥ\?}Qw @b?|@(Mw?E>N?ZV!?xcfiy@}{j@rt?Յ?r⳾?9eo?B쪺?Y#?*97gG?7:~F?91c㾹?{߁5?hw`X@o?HϧJvO4K0ֻIdv˦1uMI̿R
$ {ӑ\n5{d@9"?*Qj࿀bୂN?5Lg~oȿ
͎J[@n
=Z?dO ?t3@]o@VjFP6qm4!L@|C-?00CH)??BSCb}?a|οx(ֿsXWe @ Z
@,* uu0^?Kb?+ka<ZC      ?{4 @Gu?盨ta?^2=@ ?*lwc?d??ꘫ?>MMu?_8|ѿ7%[(&{bvt_k	31#!sȭ}?&j$F?hİ?Y(@Dy?t?MH??ej\ @L;E?@n@\D?_LG?!$?:Xg%Z?\7?"3?ck?8;Ks?\Aӳ?X?F5Q??Ir?unA0aϿWRVѿG^ƿq7QFw߶y_4a~Udc'{ LIL1)5`ȿEC`ͥÎG9}?ڌwo?df?g&*?	^ޤ?_Ź^?oN|0@qyj?(P'@Ÿ? <@}=?14+?1Kl??% @-'x?t9$?~'?/wTޖ?7hm?x)ׯ??m+??&k	}?Rm7T?A[?yX?߿

Nulއmv\b~Kɿz=(ٿA}{Ɉ @1d3?8$Ɏrڔ?0XLpSwp?F׿r?s=w$%ByEh@@i@\c 2< @bD{o@wUe$ῶ 3,Rd?7^<?e>ܿ#?J%?;H)Qֿ/Ib?(3S?(}@?UWc?o%@yz}b		TD?      ?FI?~z??e[狙?@i6@wybl?hK?e?dvj?h b'?di?w&)?hk?SZ/Z[ פ?h8P^)FX?maxMs;R>z'?v+`Zl5@?q?V[!
yM?AY?us;&h@x6Zz?4һ\@dS_4+x? .P?Mkشw?z0'1a?wa?3LT?
]wT?
?	P
`?B
ϫ?>d_?x4˯?+bT?A\w+?Lei%"YY?d=o$ll2)1[?*j?MPx̟.?ЯexP_(?w?r;t?ˢ-Pk䏈+?ƣweb5?bZbR?? &A][?9b@Ut'@JzWw?@4hp?S]s*@v<Co?07p?c?ŴG'?rۺ(?"9@m?RG>RN U?Em.>(:OT?Pn>ߖ	WU?gc~Qp?/+U?ِ3>낦N&?ݕU@?E?gw2JT?J'?N˗xL;?g֔^̅D?DcDؾH?8/"?bҀBҐߕOَ?eO)CJW}?}?(5fL<.@gb.
[ԉٿ.z@3r{J^sr@Ss~@6j
pHG?e:K@#}Q{%D{׿,x@.tjAO zd@0G .,?Ϸ[?6:9@3>((C@{Zy@$ENZ8>@eKH{W4/e?      ?@ľ`iHC߿b޻Ą?j&՗@r,@-ŧy߼?#_4L?c+v? "?;ye?x/9s?eN_<,wBMٿ##x,(mԿGcE?M_W]w?h3za?+AyO@I?ꞹZcUq?"@?	Y#пbKZThh)@ûI?NA@Bx?l@	^!?xg. |?>yw?.y	o?¡}ip?^z?&O?Ca/?)V?=?ގ!ϊ?cF71IX͋'vEP։@VC}2\f%pg)Zp|s&Ή:DGmԿT'>Vpv\]){@IwB?{Gq?Ի?Ax8?ў!|Hg?0ʄ=@P2AȦ?w#@m}ö?@xU?Dc?pʩ?K
@vdq&@'۫?R0SCp>|vv?+t?Qnow?rs?2gp?0WMԦ?a^v/s?`n20?]1
@:W|?:*U7<	86rpyEvǲ DT-[kϦe>;@ǨC?!ۿKW?9I A{P0l(Ie@e{r+?6 <@}t~bJ@X %W@iq}N(E?%Sp@"-
DOz׻'iۤ	@ Mns6g,3wݿh^?T,dr"~?p@]?%un9J+@;B@::^@7t
?hT͏.k?      ?w@]Ygٿꦕ??
 @w@]B?x?V\ɭ^?vv'?X?I3?Es$Uh(`տ{溿<~οY?s?]	?'F2C*1@?7 1?c֐?ef[zſY]=(@RV?";W@ν?kߠ@p}C@?a[?'#?"a;?bq?]?XkC$m?Z+?Bِ>P?e?^l?:X8AgѿqX鿂8)ϿǀGvP@H|5M$3o;ҿP]snOf{ ki4@@,?j?A%?w1?w?+E7?{2[<@9?Fc6y#@JM7?Ύ$\@D<?؋z?0w?}ϱ~
@
9E
@CV?o`h?҃?pP?
?A?:}?wZ?I>۸?&d`?#4T
@a2N}?=Z3f cXDӞ瑞@Rʿ3F*ҡޢ	ި@ߝ?^í㿆]z8 @ww
Hŀ?]Sו?Zf@jwIH快W?nA S3?Dcۇ@d(?at !xn@TrT2㘧WQՏqg?Bk{в!;?XԿ
IҿT%(??S?(`ک	q8ٛBf6?p?!3D%ѿ8YW&?{}!u5IGȿ      ?=2f?-l
)Ϳt?@S ?Fs@ʯ 8?v?g`?g.?ٰ|<?"T/?<ٿ vRٝÿkm". {`?0K?`S?ex?V&C?S)0?Xq?mXMi|@wõ?],?n?'zk?<G[x?'w®?rD-m?49<]?Ʈ0?SX?S5e?iю#?!:r2?Ng?֥bgY?^^|\6F˿Rm-ѿ?oϿĠ#)40VVlusM%dNFMq]οbtaIpDP;}8}?ӽ?)a}?Z36F?c8k?7:!?
	|"@V_Y6?Z'	@Iݚl?Tm @)7?$ѦɅ?W3u?lIn?yu?b? 6`	;{?6G*?p4c?G#?IE9|?\ť?Cza?YU-	?,
?!UX?dx?2+feVؿaL޿(}0W>k&M߶ڿ;/`PdvrE1@3A]a?(TVݿb @1ذ?xGd6	@Dgk0He@ڈw?8`z-xB?1J(@(!dk89@Mzk!2{@ڱ<~vpϿW}?a@%p?jԿlۿ5B`@t@61	l٩x@"1#Si?M_Wx?      ?`'k@vg5߿*`?6?<3@ueNɶ?O??5y?,MC?.zEH?ȐNPCƿ"ۿDxbKԿaZ5?D	??/"KS@'v?P%J?Z4 h?6\hѿX@ch(@7i?@.:?ay@M!?Y0P?	j?X-}?Lw_?#<?F+׷?%?#??H?I([?iޱ?DR?ѧhڿx)/[Zѿ`O2>%I¿<	Giÿ]&$ ᡿`?-ؿrZcGjcX¿'6C@@ߎJ*?lgEoӷ?;L??땿?{3<@0X?ok#@؎&s?{;.&@V}pw?֙9?m9 
?+@>ޚbO@$?x&;?Pۖ%?ngw??"?~Umsؼ?hNP?Bnz?"QO?|(F
@?$R?qM3fbaptoMT軿aRȿyuMֿZm4] t1D"P
)R@?:?>⿰WE8@~ @[{?la
@KXHt! ?É?_`iA#C>g?V@C8JU<Pwf퀩N@27L*E+z@<츁d/<"p?)5wӪ?L*~T?³:6⿝"d?RP@j&Q9?-ni ? Wcd??	      ?Iͤz@AGkn"s?g4?LJ@쿧Z"?t?gc?
s?6np:?6jM?쎁j]{9̿xvݿ
Aÿ2nX׿C.i?9?v~?mt.@=5?:Ѥ
pg?}t?@/H;ٿqW,$@Tu?2@9T?Yh$6@i`?,͜? G?_?c[M??.XE?_u+?))?H)?E+?_v|l޿FfY9MŭԿ[牪ZlPĿ"C,ſ2kD·~/{hٿCzE
ſ^5].
@Zs؅?6
$?J?+LR?eҸ?IVT6@hE?aA Ŷ@%?[@Fp?9q?bՎ?zjm@LC@߷?ۮ[?X?&-܎`?u?S??*v?{<?0/e>?V#?Q=R@LD%?zqI\ZLNPCxҿ"|xG׿vPoTP Tʰ0{lSD@px?
4kq@H:
Cn[Z@X>oq

B0O]h?@1?WjX/NDx4?P)@4HA$)
![	@ג?7c\5dW??|=M?Q.?;8+.UG[?e?F@V	QO)1G	.?ڟQw?>;][	?*㺿FJ?gͿ      ?$l?.˿Z"C?Pv?Rf@rد?"?W?$7E?u˧?QJ?'%ܹ_׿~rmʿe|xEſ)-Z?I.? &ю?f @K[^?N}`qK?/p1?c=4UzdfW@=j?ʄՕ?9E?o:`J?AL?o>?4?o?LP?t?o
mI?JpnV?;[?^?GfbW?ܖқ俰$Ӌ׿( Lο's$ҿc91>>I5xq%eB|Pi˿	qI-?̥Z?{Vj>?%M)ڳ?#2?QHǦ?lU	~!@f?
@NF?(WQt?M&e"h?
Re?a??h?G?
 ?BY?y71?`1/9?1y_?<icG?MOlk?3;U?+B?1^?a.4E?&?GK'S$ڿƎ b3al¼16'ȿJK׿^4U25B@ߘ?P`AZQT}?vῒ^}}R@W	GeIgN1ɬ7@"LR!]&Y@K?@YU2,T?]y*7@pa+U-@27?4鿨̓㿩#x\?*'tWeo?!1? q?f59?xߵE@iY)})Vb?S=?tWlfg6+@      ?̙r?74_̿FA?$[@D?@R?{????)z?VS?+c>{+ܿ]PHgTÿ9}硿H}
e?6'??ܟ2?C:@3'?'e?2:?Lk:R@it?@0̎Y?y?g0?\.Zk[?Jy:~?]x?DJ}?V?J?}j-?us?0?UG?#= Vk=($1ӿN3DƱ2<akw{lօ:w\gW7rJҿTg^%E?ߓ?,u?Ż-?"%`9?7^fC~?8 /@A?E8H?3f@$4)?Khs
@A"?CD?:v?Ҡj?|핪?l	}۰?zsjR?vx~?^Mb?﬐	?7;rbS?'?"@?z3?vmd?_(?s^?p"W5"㿯E0q[-lay̬[)⿗uFZXI{U%z&@2R?i88df?fQ-8?NQ]6<m@ƣ/b3@@Xd!J @9͂)[.??&c@ry[ɐ=k?_Myޞ?v|`@䞾- `WgY@|Ҭ1&]t6C?mNmB,yMpeR?9 Q?3=24r`~jw!?t"?/mo?LM?      ?q?~9ο[Pc?n,&?s0N?r̮7?vE㔘?Gkj?wG?,х?MB?rNWr`ӿP,P!xH鴿VoUTδ?ot?mۚﷳ?ų? DKs?vNS?o"5?k%":[ @ss?Eݏ?]3g?[?	a ̎/?Y9?Cײ?~	p'??M;u?~Y9<?b:?H?Ȣ5c?lv?ϝ?ؿNk,?~;Ϻ4߂ٮ(I6x96gZ= =K!6kØQ}'dg?	_;?"
?ިM?]Ä?;/?T͟@D_?ˆ?u)lr?KN?Ezx?=;r?zU?@b?i?TB.?	9|?@n?1W&?xV8#?̅h?s"<Ŵ?ǯl?ܖEk?ۿ?*5vY?
"?)Ë߿h1ƿ.E*(HſXǈpǳoH{fKNJX6؀OſDf
..?8@w?.F7`nD@z^	E2s?;dB&@Q5`m=A@MEҿ"<H^ZK?Fj.7@P :6B( kY5@A~WDL<	$l@# Q?ꕊ?(#3-5-[<0?k򼊅HPw?ؤI
}U@}?RO "Z?І@_1ɿL?{qt      ?ERcu @`ݿrn?'5T?Y#@vKFd?:3?rً?z'/?bo?Q8:?64ƿտxM˿<пߏ1'?JS`?
3?:*X@P,?u=B?ĭT~?ԿYj!@h=?sbb@P?
?)4I?]͎a?]?#ò?ގVQI?X?2.?ʺ/?6?Xo?燪C"ѷ?ަpv׿݌R&n`iܿ|礕9g۔Hecş2Hο6Iksu|/mI=r@QZ??4#Q?tLn8?`Ts?51@ W?l)	>@v̳?(gk@,63#?;+i?}M? aȂ @S| @wmɗ?"):?)[n?}cj??tV8DV?@Nٲ?e?&
?a[Y?hyKh @W#1?>rGlTH过MJYCtR6ſu.̿Cn+0#Y}RitP]ߗj@0W?5k-Gb78@>7jnH 
K<@&mQ	{տkr^q@a'72S?Ѯ@
iw,迊/@9  xN?J@^օ6x1i'{'͋E?~XC{]1b~?,i?soe _A4}?宓I?}zv;?<,Wv:L a?      ?b?ֹֿQry?==M?Se@)4?y.ͺ?R?\;&
?vk?l6|?lr}sƿMRͿ9lPa>¿d;FſrR5?Ok{?A0-?% @J*?+ˆI,??IMAſXF>,@"u'?a_߈K@ÚY t?q"?uW~?$j&q?BI`?b?f	E?}?J	+?\$?uA?odD?|'"A?)q?%ɞտN&tUܿGN|ѿkKyp*YԼ>k?Ƕa6R'; 7,fÿ9'ܿ$eu">+Ĝ?=C?4\?H?H?r?J +@f~ip?w_1@2go?G@w}?dYӇ?c"?(1?6}?$p,.?	'ԑ?0U	?Fꗯ?J?HbZ̜?(C>?cN p?<5V>Y?mq(?t@?덧x?k;˸ś(T_@eſFc
Ϳ꿭0@{|h
@^?H`3M ȿ_Y?1 P{"OM-vG@L D
B2ӿ5@-c!IF@{@V
,ʚ?z38Ǻ@1-,Lryª``?;<ڿ)Eɿ+Ɂ?G`7d#?m`?
`⿵RV&Z?oq@ooMh?#ȵm?-m.K?      ?`?n%Y#T	oX?TSY%?jJG@JN{?j ?Ko?BȊ[?ۧ?&ϲ!?Yeп[xr%&Hŏ]`q`
h?5?Zs?>U@=NwZ?ЀX(?)?G蔦ܠJ[@,m~ⱂ?_)x@"P?%]?oS9IY?}?j<;:?Jvp?f'?L	?d(?!sRZg?٣6?kwu|?)1I?@޿%kzP#~п$i0p{d-C?!$9O=@p93M8e8];Ӟ$YBS|(ſOFwԏ~)]?iC&0?ΔB뽄?_#4?Ư\bѲ?Rr?'Ei(@!?1桨[@SlY?bH@-? ܜ?w?d?fba?y\?A?&҆?s>EN?_OU&?ƂrL?Oɬ8?X0o??Wu[?rCc?\A?l;쿕,Oo|#޿ckR?P2"Yӿ-nQ1=bDfB]@d,X ?<	W?^Jnu5'@t-K?I}@TU q?
@ ڮ$>S̿UKo@c{2zxvW~Kj@v%!&FP鿐U7@5>uf?p?8W1>
@IbDt}?@ح;o@Z;ӿ֗XIg[@      ?~z@$Ҭ?#o@p	@xj	?q5U @oh?(aԶd?
	?=LS?!#51E$oeELm
``-տ?"P?'QK	?]2? @z?*҉?p2?[Y4vӿt׀v-@#T?(@r~V%?J@p5a?%dV?6-P?y^m~?7E:J?I6lF3o?1д?Y?Tm*?nE?H?S96 Կ󿩦 ˿?şʔZe>"Z(%:!mpTNj2qܿBW.󿏸)kӋp7֭b@m?Ԧb귳?[SW
?/!?)Ϣ?oB@6+?oo(@UG?ǋS@D?9֓?d)7|R?9-@*^;@#1Ra?ǑOi݅?4-7!y?x?+j?q?¢?Oo?2=?eD:?~I@p?'Y;.SL!M鿥pKqӃA|U{e˿	Cpοi`6V*;=1Do@#^ @^bHdn|@K,o
p6F?6
@϶b?U:,?C'H?O|@㞀|<koLK:@ IΟvfZǍ2%
@	BMW^Yο_le?C+W7Ic?yWAտeV톛㿹zD`@SU1?+j{M?5,#?LQFƿ)͛ف      ?v-xJ @Zs_ڿ/NQ?MG91?Q+4@_\?7?n+M?<Uׄu??E2p?8?!Yz5Aȫ¿6ֿ%B^?.vzѿ\;_?egf?2yF?&@b+?Pr?<ٞ?h]ϿT!@	wkq?@M ?:ڣO @{O&:?\?0[w?te?Nʦ?Lݡ?W	(ȳ?\?0"?=[-?qXq?K[~skZT\ӿ0['o~.SοH',Тka>hݵ٘-}⶿Tҿ'㿌8DKy<B{@>o?RKO?0??Of=?BƮ?Iֿ2@,[?9m@G	?jv`@ɇ&?M3rU?R0ν?j!7H@oq@c%H?)v+`?x ?qz?!n?
D.}?, H?'(?ּ?Od?L}A$b@?ggeh<^풱7ɿ`<srBSĩ-nF6@UWa_?Q[YEw뿢*?H^<j*7w@Yp6ͭȿ1n]@	Ch?l,>t@ҽzITul@gZ{WŹd@O	"Cg^N?EA+|-W@ÿQ|zf㭖c%@( 4CS@9fGQ @qW&?	KfLkaM=?      ?9rxa@*_9Bֿ[YOv?}'ɣ?<ø@.^ҭ,?p#i?9?r~jp?T7?|pF?5;Οɿѿ7w0&q8V˿:Cu? ?Z?,#q@*|?-rϢ??ſ[$@3?懦@>?ؔ$A@pL\k?*YP0?SϨ?-$$ӻ?زKu?ު?_U?Oö١?h_?7w?!޼? ϟPHPTKܿC*l܂G/ӿ0ɓ"{t&{ÿ /Ď0/Ŀ3'Wy@M̿)3]Jiÿ_Dt,c@	nUx?Z [޹?_z]6=?ė+?̪⁲?m	'8H6@54?Aj0@U߶d?e@OR?C \q?<u:?^c@4^'@(9?+j(h?Gn?s?F5/;???)e޿?lɹ?5?jՠ?-t@9 m?]MrZ]Bm	2"2΂80ſvֿ6cCp/奿8ilEگ%@@u?y@~0OS࿋@!)U?#ôn@kM?FW@OIU5Qœ
@9eX?.T6
@P0( ο]*'?.Et]w? c`?:ʘ&hY@j68s?zS.I"B?"߿ű;?:h      ?@[KX @5]Կܿ,?3?A*?OW~@rj|?(7~?ּd?כ?dMm)?{2?%+{^4. R!7Կ&(Ŀ{o9ѿja?"?SФ?#'@N1?I:?N˄?">㰔ӿi=!@GU?x}ՁW@,v!l?W{)?q)UQ?(@B?xo?q_@?Ҍ_E?ln?R,?/4jaA?A2ƵR? W3?.	?B@{ YG;ѿl;`bQԿRpXR
YgM/m"k7x̿v)F5hE$ 4rY`~ @xDxY?j?4ӹ?񲜺b?yl?%%/N?'l1@So1V?)$y@"b?yJ@zzl?xKQ?ZWM?YD?Q}?3/!?2.Aߐ?N5"?qx0?$qDի??tYЮ?iQe?@Lc"?/B?}:?LF?M-mb+ꅦcbC1ޑĿIˤjM/e=夿׾ŝ@3V?                                                                                                                                                                                                ư>                                                                                                                                                                                                                                                                                                                                                                                                                                                                                                                                                                                                                                                                                                                                                                                                                                                                                                                                                                                                                                        ư>                                                                                                                                                                                                                                                                                                                                                                                                                                                                                                                                                                                                                                                                                                                                                                                                                                                                                                                                                                                                                                                                                                                                                                                                                                                        ư>                                                                                                                                                                                                                                                                                                                                                                                                                                                                                                                                                                                                                                                                                                                                                                                                                                ư>                                                                                                                                                                                                                                                                                                                                                                                                                                                                                                                                                                                                                                                                                                                                                                                                ؎Iwȿ}?l8g4?V83?JACT;5ꂆ?B]m~'?imk@?BтiQ@OWe?.#Y@Jm_pX nm?4۳:gCٿH,Mo?%(;%俭>ꪠgQ@ 
!`~?*xjPW?gę?O#Xuf8?      ??hn @$aKۿNP?l??_
@hX8j?Ib?+N(`?Y#?$?VI:?D涾|]%|ؿUΜAQ>ynҿoAc??Gqɏ?0i?#	@oH?Aʯ?^8?К*>ɿx4P"@z|r?t\~a
@Oi?ne @'w?@?+X^l?69?m?%¹?w?J?X5?<ȳ?쮿ϴ?ބH?&0p@nY.5ͨ*9ZĬ_sɕ32di0kj.{4dZ5^տ	FO-2'waW @g@Ƞ?Y?:H/m?%HN?0{:Ɇ?b3@X%?4@NǸ?쭏Ώ@ќ2j?eo?:w4Wg?
%Y@-G@5?CAW?'gX(?ky$3U?tI?$`?mbtS?T?/@q?(ug?zUˀ@gfl?RNGx ɽ;MӸuur}h9֠l	o+Nc	)~Fk@^?F#ܿb>[p?q[r?lK?xpٝ?  ,ￛ_iO?sݧ!L>`7?@'ADb@ud%n?koP@j-`68FvY?@|;t,P(?Rc?!w8?oS.?|c+#+/:ѿ|Z	9 Ψ2?|~[ @+? @K6].      ?at#;?[[<B3?c120{c?~8I @MN>Ft g?$?2&?T6G?栽?UA?!]gѾNT-?u*~A
?sV}K洕d#>#C󮈿hT@}?4u%S>8߁?%{ОĪ~@k>Re?ƻ?!"?N Ʊ?U
>>rg>yfw>]>&0RB?IT?p	??㮓TȚ?LYj}?YPHk(?z8"?EپzX?twڄ3$>T0pCL>¾E>g}i?Z eF?"ekO"?ΐeqF,>Xxx^ٺ?Z,!rK>gxn赲n@yb|h>$eAy?8C]?(-?s1u>=ԡ+>o!{]>/i?W ?ɠq?j=мU%>=TkD>%IۢQ>|Mݺ>\`X>6Y|>~[]>Tz?"E@?:UT?|oyYh?>Q>XR~J>QQʾn?:GhE>HI@I@t~?܃{`ϰ@Ln7XH?Wj@Ut0'*mI?SvnΧ?~]"JQ\?rV@g6wWlS`,?!_ @BbQæ`? -lҧ@4	H%2Wgt3C?X)k8XpU?2?^߿N?2d{(G@#h[?\B M?/D?"HXGGy$?      ?-^<@Sjr'Q?IfR/?+$@X?CBo?C/?nEQ?D??D>zP氿@?ܿ"Y%ԿPq?y*?s+mgh?unm@d?#oqo?FQi?ӿL.&@?#?{nF@^^0^?a@
'?P\*?Bt'?'F3*?#H?1?n^b?MA?np?_uj?J)?1 c?;"^ E.)¿RX;ǿu9I3]D[՟ T	?FVؿ\ZVi(_3T	@UI?$薸?3a<?,XdKp?$>Jס?x7:8@ky25?Y!@XZ]g?3@TE0?g ?nLƹ?K:v@+-P@WSN?ْ$S?Aà?&{Wq?Y1?8+`?ߜ/w?b4?	(?WBx?eC@A_?>Nkտ mYm"摿s|HX\7I n& Nq](f VYB@'HD,?0d52ʂO @#lSfu^@`',5@Do?wc?&@˧{9~?dB@SЦQuϿ}\@v髃y[1t@Rt* dW`&e?G?^lsuoN/cks}@.Ҁ[ @ _	q?[(R|?/~BuA?      ?)L@"Yݿt? 09{?O@#?X?+X?v~?U*.?_i@i?R?eOnDa燌ٿ[nӿ5'3?Q:a?o? +$@UR?Qvb?V+y?B67Sп9$@0S ?ƠB.;@Y܉?5@aFP?ۜ?)36?%3?dX?j^%?vl?Ɖ罆?3;?<	?yZQ?"YFdg;˽{Ji}%f@==ǃcq*b3ֿȿJ迶Q!ȎcM3@r(pʢ?n9!7?:
?&>Y?a?텾5@x`?yo@cj	I?n)Jk@x@m?.[{̐?vIQS?@p@ڧ^1@@@_?̐[q?A? )~cw? +?]jp?0N+J?V T?#f?͞7x?e  aM@CCQ?|!lпmxD*;]uqu҈\><'DVhp#6}.@6I1?d9a4Y⿖WL?hHLs
T/DE)?<8@Bo@{?,~w?
h;*ӡb?oe@U>f,pUS@=	ѢݿXg=7@`6턒5
4W
?gqK-?c1?i@뿿̆2:Ԯ:Z@;( @u_&(@uvoƬ?hv ?      ?UO@ R'޿>`
?jmNǛ?QW.H@B?APY?,#?uo?->?6'B?˕/{4ɿ$؂Ѝؿ¿3"Zѿ"??V?3z?ꕺѬ?Pj;@ZAk?U}(
?XT?ߪ̿5N&@T	??,@=?@F?Pd?U
Շ?X/?M0|L?,_u?V8?1y?Zc5?ݝO?X%	
?	A]/ܿc#EfԿؒdbϖ;ĿQ`޺?94hĿg	};ԿZm4ĿVfj+"$k@)]:?NRK?v`ߵq?w#"?<@?"E9@*c?C_`!@{-?$"@5?DZd^?:Pх?V[)@p@g3~@?V"?̐?]f?ʄ6?q;ݚڔ? __W?CI?_t2?WQ?h8i@]vtL?L@z2+ c}J )u {@οJHֿ˺`⦼æ:y3U%@P4?[Ǭ/⿘|S?j5}d5AT
@f;YQ?N?v)؉=?qR~h	@b+?q?: @
+C?&{f@5](5,d'4	@
o^W'S?o@,M(3UWh7"	@C@>eP- :^t@vy.?ZM	
Q@      ?7@fhzm3?܄_j@c@@QW?6?`x?B??bR0? 3?wUY L奔#ܿG&'b~~ӿ#U?/ދ?Ttl?o@BX?5 ?l慾?׼2;_˿ 6J+@ %u?"b(@?2ޑ@aTik?Y?\?SG챮?f]<{?pg?aO?7?f?E@Lt?f6?Gf%?,c~m&j!A31kIh3-:
rTs0uzN,Lٿ(^2	a< u@5
@?.i?OrX16??ܘ?rDB@@N~?J&@VkR?@9?>(o?"΍?dN3P@f[@Ea|?xF s?֑]J?~ynx?r:C?3@>r?~vK?%c?6润? Tu?݋s-@km?w`nՑҿ@b#(hުe!\Otn4.t])pNnb#Lc@F?95YP?KhȽ`?m]9׎YU9@䞨*Iԋ`@@مN}v?@ʕoKO@?h#d
?}qtͿEj׿b(?(c

/,ֿ[T)?-C雿`RXK?xO@V|?;?8YBc@B?      ?g?s9{>I?6x@~'j
@dl??6Xܞ?Η{?.*)?7ڇN?+03ÿUi}?9[屿?Lbo|EkͰI$]wW?<SGe?A@")}?
ɲ?쿋~?ވ|bg>@4~?~@zuѫ?~9?e]h?R~p?2|Nb?8JV?[R?gO~?oH{̌?:c&?f|#?iL~1?kEKSjMt?j]ѿF"#ې?6B^bQ9pqSF5?ܻ%w?ÊrmGMVfl?MJ?Zai~Ϧi	P?V%S`?l5,dl?<$GGa	!L?5&0l?9 ̌?b֫BId %@?+@ zzF?`s%՜@mV\~?ZHq?@d?\uA?vF͸?w?(Å&?
Jb?,{?lZ?" 8j2?|S;#|k?`qeM?I4?J?k4U?yj}-5_?Ϳ4SC? kZdpKz?R9ƿӅ&/?Ųu68t?O?Z?5aZ29?ӣye«Z<Y迒?	@!u?	\^?8iL@0l9C?:@~XXܚT,/X
@j{H@ںGFî@FǌMKx4忩&d@3_="I?O?A<zt%:8@'Φ) @b%X2X%@j^Qby'Hڀ6?      ?@s@*9j{[߿;\W?9wcC?j㪀@k=?S?JT&?|Aq?g=z?Lj~J?n1rafðsM`q[ۿ0ؔtv&Eҿ/?Ys?t!7B? d@>D?SsNr?6{K?]Vп`1&@[ ?v@%?"eh@֗8?L㦼?ϐ?B
~?i(?xLZ5?PgϽ?1Vm?/` ?r,@?DL=)?Y"iQ^#ҿyum7McпBGYӿ3[_/^bng0}pfؿ$Fg츿*{
K<@a/,˹	?W0;?ϡp?وv?6hF?L,T8@ۢN?!fy%!@P6`?_bw@PԷ?޻@ݏ?]m)Z?8d@c@^ ?5]:?)j?布|| ?},M1?_T?*Ӣ?)?\I?QM?m\)@o$r?ݙcf/保L7ިG<ƿ^ȿ, 4]-Z	?@;?R'	׿yw?S,~T[?ٮ$?h	4^dD?@?LZ] @1Uy@BqUy󿍓.:@SRGlsv?tֿ@n?}#g߿IPῄ	)?rsԿGͯ?Xw/'?>Zg[?RKw]*d`\?x%?ڥ俬̧^      ?]?1	Ů?[T?A@dX?`?閜?=ڤ?"ߺ?s7c?(M|'jsLbLŪb{3w+J6 &?
I$?K|?H5!' @(6E?ZmUE?Eˠ?IM%	f}d?W@(tQy?  [?.?;Y?X0?Fo?G8	W?X(lg?5Ma伤?xX>?jxfR??.?R?]?Oe?l&6ÿ9qaqER,ÿZ*ԳvrA
H(ZSa[H﮿ uÀ 9^pDr]bȈ$?8Ӹ?_mĘ?ָ> Q?}8?6oc?RW/@ 팜?*@@Mx?x	? p??m{Ѣ?K¼?a\?szr{?tѧy?*%iv?)}_?ȧgL>~?ꮢ?о%Ew?Fo?k?1PB?\ |?cao?C?@A{?r<jvϿDr~w:Gl_jھ󪀿 UFC?INXæ[?                                                                                                                                                                                                                                                                                                        ư>                                                                                                                                                                                                                                                                                                                                                                                                                                                                                                                                                                                                                                                                                                                        \Xphks?qJN?s,űO鿰?Ă?~Cȡ?udy_+M5@eAZ@RNῊtC@ё9GG-Pb2?lŊb?@0.FdIdYD"@?D(w[u׿F,Dsq+?_si @lp7ga?W@XƮ]Slwća{      ?/*-?j?[ԗ$IV??n,EEq? A?gu?9G?t[|?jЌo?D,t?E#]dx01?N4VdAO?l_4Ġ&e~@UsI8@{͸?3E[^?J,?Vytz	9ŵK@͓Nx?pS?C
k~?d<1?I?WqY]?Lmz^?2{,S?uP?4 ?Vc?0?H&-h&c?޳(?ņrV?>h?2l\+f?vEl2nsB?sʵQn2)-S?dP7)Q`z@?t _k?j}ܙ?b;=-R?h}W?PVJfQw.6GgW(fP?R e?_F[\{I`@Gl?V>?p2?RXD?%BLd?8i(e?%!\?ڐS?{i?(j?k7,X>^LJ?FTa>tAH?yf A>*J?<?ϯf?)JI?L9z>^uL?>?ZˇvH???_Bk*tR,?ckwI?g ,[Z?ҨUtX^C?.]FvdJ@?Љ(9<qX?Ik],iI?MƷ) =,MWKg
@%ccQDws@QYa xpN @4@DATf#gZu\_@
$ЈE?l`-TmOŰ?֥ۊ?d^+5$Uj?A92?Bd3Z6Lؽme.?e @!~uDfCj:cj?
0龂?W}G;翪~Zg}?      ?ZLí?B}＿ bf?Rj6?@a?]%m?޺?̑?UzS?oF?*`=zȿp
7ſӵ
NTaN$ر0cn?L1?R\/?E!+r@1]*?v1?1?9V7)ܿ(^@X<4	?4ZD?ɫ?&'?{	Y?/Cc?GKü??ިh9?0?Tţ*L?ޡ`?P=`p?R+:?ǟ?ŁԿ\RѿAb5_ƿ:U@Z"9L:|XZɡ<}b:ɇi(;໿Oи/.찶?3<?k9k0?\#!?TR?Ko/?#\b @[i?c@I~?-?k4]?\T?AF?s_V?w-R?2?ٰb?Jh!?T?x?ׂs?\3Ѱ?>
?->?.l?γ?ږ츘?Unѽ{h4֭]޿%?ɿs-Kſlotǿ};2{kT?`z|渢? ñlG^C?-?ԥڼ˿#5@=r!)d81?
wَ-@5 =m`@J7m@|BYN@3j%+DQ0F?3?j$q?3JN#+5UY?HVE#BБOj9?)9W@5l	ĢFm? YI=?KspIR      ?-?h?N	:,?[@bRS?L9?/Mrٻ?gc?T?m7O?(Ͽfkr`qZq+{
Si 9[C?+?(oeh?$!@Kd^\?Kv,?mPP?Ƣ=@%=m?i+=@\K?@Hp?i^?_^u?ߑŲ?gJ?R?P&_?l"?=&nڳ?]Lu?;e~?O?p-?N
޿Λ,ʿ)^]ͿMgȿ̵Pu<+=|)KG4Y>y\ſ>,ƌH
?JJg\?8M?{fz?$g??Rj?aB0+@ūw?R;@=7(?RU@l6|??,?:u
?#[!?ܑ`^??ox?4-!?[Qa
?*vr?pR;z?d6,eث?ka\?.=?r,be
?Pε?C0D?i#|ĵٿ?Τ'SܿߧpO=7ݘI¿Կn	BR셿A
&l*@Aɯ?ڨ=@G!(L?>kF?P[߈rD@*TjT՜,
@2wa (D?j_M?j?H1:U?	%$Rlhf$6G?HE@m4FDQؔoA@&hH%Z_п2+!c?EU/bRuM?޸4 ?`_k7?v?[9otd?      ?g)A?	Flп:֐?/`B?Jj;W @JY<?p7d?g0?Y5?^d?!N?CTy׿Pͱ֜/\fcN??CuT?r@@f17ܰ?<9Č?Ј_?)Z 8%ISҥZ@0Ո?ɂy ??^r~9t?:?S2?[X?,Ӟ[?o}J?|J?k;Q7??L?Xo?V?WO~!?QmW0pRAƿLWVIg݅9UsM!ԶrcG93]ɟwB	uƿՈJ㟿(1^?hz\۵?ꎬA?;S??*F?ިlR@Q>?P ߑ?aY?+s?J?I?M?Q?acה?ib?'S?V[<?g ?aRѭ?z1?FP?c? ˚W?a?ErW?SdOV?)ŝF.¿7|Uп02PnU9	xf]mп@P|6뜮l?Vӝ8?xq濫3?b?{
 @3@>R׿?>*#J?w5@/~SPkp p@7>IH֤?Űv?LbI$2|?6,(?VS_<?z܎^?0^_b?)Zu?M A!T?&?}tE࿇?      ?6?k<ƿ8\|??Q-@Hp?;:X? ;Y:?(?3?k`?SSYh)ԿBP'?ƿBqylb׭5t$c?g1y?e?;j@*X?K?tm}+#?_O񔴿Tgz@i0\?˺m?VS4?Ke?-z?kaR?mpi?m.?d@?ǵd?4KQ?ߣ ?~[G?Xm?@$6?/UD?[1tМӿ.hM˿RͿ*F?$"}ԺGFhJ%sgW"*ȿ3G$\z 霿,?a?2PJ?)G?\/yѬ?Ӌ?.hb̟?:ofT#@bg?H
@Pq?M @ȮI9?nGű?c>??3{?+S-?NI??u5:u?N?}y:?w\U?CR5?J5?CPѰ??B%?jˇ?LVRJ˒~ؿ^ "O9oR1KſY0Nտqk |k=>o@g?8r~*ֿΉX?6jU+di;@x8BwHUڿ#@&ڹd"Y@
B,@6@0ߜyil@(7Au-F?!2%v@N.o(b~	N@t rG IB.\*W?#5GRtW	@C@<N@JR_o@U8ܢ?)^v_:@      ?^k@l]>K׿K=?@o@k~g@TO͋f?ԭ! @P?Yi?t$5?N5<Ro?)RuAh?"a~Õ[tbḧ́T_^ӿe
`-ͿqyQh?6Q}Z??J?Gd2@~?Q_ 2f?wrz?ܐe)-@}ZZ{?U+@.yW?UB@9]5?y(]kb?w욿b?i-%v\X?*W?JPƘ B?z)d?ʡˆ	C?k1d?`??úeY?|}/Z~vwj2.tzjHq5JvA^hwP_G^V(7>Ͽ翍osI^u5Rs?sHJ^p?7k@{F??A94u?lAew[{?\K?Q^ӥB@Sq|?r|)&(@8?f@r~v?17av?g3m?p3@u"*@eɩy?\[ >>֖'	^?[''>'X}]?%$K>:F^?p45v?*g49^?kj'>ǡN@9e|?2-<0!dr#1jMJ n9d=2CrVL__3ھV#!>Kdn2@JѕiR?                                                                                                                                                                                                                                                                                                                                                                ư>                                                                                                                                                                                                                                                                                                                                                                                                                                                                                                                                                                                                                                                                                                                                                                                                                                                                                                                                                                                                                                        ư>                                                                                                                                                                                                                                                                                                                                                                                                                                                                                                                                                                                                                                                        eF5]|3@آ t4p}~	@:+\fnOm?WhC@U=Bؙ@'48@z@U<;(?>U 8@+o\"rѧBKwʿTȅy@׎)[$\yN @^] y?JM-?(.ifϯ]'P^@B7 @ۡYg@Կsϱ%r?      ?K	Bzq@Tݿ@Le?~M^?}ߞH@kk???;i?aT?"?W\5u?.Z6*?]z,eֿMnI*@˅=kпzҊk?2AY|?޾=7>?ߩ $I@Z̙?9J?b?Fпָl$@62H?Wl@$gdP?t	H@?C=m#?v;?R5q?P?L??Hw?R?=4?1y?3-c?0gotuW:kwYɿ3!.iwzȕN@|!3$!tx пn=VSꕿ#5|_>=,@lmH+?#C? 2!"? ٲ?E4?֌-6@tY?L8>q@Ho?ܱ@ ?n|??"0@٧@	H}?lp+u;?+r_?f:4U?^?z_o
Y?#Pۑ??P8m|?b!h?`p?c@@GV`?#I7DB_%Pÿ{Uz/@:1VKp.3X(R+5(9	eK+@8nm?>x\s?bj}BWvFԿ/l*@ZqTcF	B)?Xj@΃lL7P @攉#t
@x?DFK?<ML{@Rv"?E=q?@Fr2'J<i@:mP>K?7?}5zM9Q{ܳ3@uf@2~޵S@Ӓq?7,BD܀@      ?2 @"f<g?Lk3Y}@.ÞgP@뷏?D@wF|?./}
{?Ad?P??F^繯+L ?߿Hiݰ_տ@ V}?(Z.?v([B?, a@na?U:I{?f?o [S}ѿ>@;/@ܹ?{7@ʰ@?|V@?P~I? Eq ?r|V(?$瓴˓?b9 J?p.S?v]??z?;,?*WGR䔈8
[{6ſ:)Xu HC>;2-5	̎yҝ!zBK4^ܿW?WT{=%4	ݤ@e(?R
r?܎v9C?!v&ù?qK" k?zkD@oC?Cxd+@X??Z @ޭщ?<`<H?Yќ?vk@Tz@`Q?Ͼ$E?TO?VlZ?%l?lP0S?`?-@?!?`g?ϕ\T@ݱ?!4п0	-_يE02PBO,X>ZK,$ZG@NLf @N|D߿)۞?ۆ^.O8u?߸^g{→?R:?sFO3@c8@%[7sl"$@Ԉ
xopf
g?8ܿq>2?(`@?{0	&V-?Ln?%m Cx`Lf7?;{[3 @~C?gG?3BQٚ|fC      ?ʶ?8Twsb<?O?]7>@ڬ?)?|{
ȋ?RglB?їb?%Y<?mRn84^ղ{@鷿/$Y)fh?6:(?|DH?Ilr@sF+|m??B:?[0բ?fғh-G@Hpߡ?fe?s9?-Uu?AGm?םd?*N?T ?ie?"A^?U,?`?&_?}`2?[Cۧ?t6ſ-	 FEпiyE22Ŀ'!k?*>rek3yFݛIt~7Gj@,r7UfQ,Z,(?O?Twz?sx?Kv?z]n?UapH @Ӂ??3/@z63?U{?3zB}?w?ve-?%[?Kb!?W0;s?qu?\k?Ps?POl vߚ?9Nr$t?2 l٣?f?={?~?E>+?+S!?5[ҿ>qƿ-ʿ9uw?j}&lE[${HZi'^?Y?                                                                                                                                                                                                                                                                                                                                                                                                        ư>                                                                                                                                                                                                                                                                                                                                                                                                                                                                                                                                                                                                                        v 8dxZ?S)hKq~Co"@X4;uy o %d\*@Z2fν@մw"(@4h^YRȼ
@Ig}ghp/=V?#)W:bi?,=?MA`?%2출?s3r.4k?4yr?G$Je+?	S?KfPA?      ?B?|>	?w?U aO? +N@?I!\?b^?.IE?79OQ?- ?Aؙwƿ4e*w}KCv4ƛnG?<pǧ?0Z?2@"%؆?YlN?F6=R?tDL\@lwZ?o84:?/f]?)A?mj?ze@?d ?Uxfڢ?f?u߂;m?
?!mB?Ç'9?v~?x짦?b[Aҿv [¿}Tÿ#l<JA?<gUߺr(WJ{#}q_뭴f쩿s7`?ޞ³?M;*~?C?kl??J?I@[?%Ag@T?6l%?H?~;д?^H?ŔU?GM?fb^?H??`r?~NH.?0*4Of?Ԥ4?1x_w?Ȳ?fS?HD[?Q]ҋ?B?߅+?BԶ߿'Zaujο81ɿ6FM?(㒿1wU Pſp!*ubKO=?e?7CC[Gfx@Ґ\i
)rL}ӁDz@<&We?0(l?1bs~?t@аU[΂?[M@5 Uvg\@PzςZ iyi?
?[V\*&a/@0H5]jV51H.g, @rK?iO7L8?#ƿb(V$?qM<      ?" @Sֿpr2?&6;U?G@aAl?[I?N,c
?RoUx?XO?+ ?	,ѿXqп<6ǿdäʿ(	7?Dbqu?V?GQY@bYm/h?d?`SЯ?t̿6j
 @i?\ߖ@)?BG~??\]'?Cd?F5w?vU,?hm?@y?KP?B&fwZ?&r7*?غ?p?~2tjouS|\;׿ҢY&oȿ^罿ȿ[6cQ:^R˶ǿR+߿Obpȿ3.!]@;@-z?|~*\?`k?ӡ?w"8?v0@u\?Iɕ@
V??H[@?@G?U?W^P.{?
bp2?ԍ2%?e+?
{B?&6?IaA?Í?g2ȇ?OOa?Ogg?rG??.z{?>M:v?CwG&^-y4|_qͿmؿm(2￥ayH	c\|ƹ;@@7
o?H7N̿1(1?	1?Q%P
@KBYЪ7J @ur?M&t!?C
|`@$3}Y=B\y@ď&u@56GUf [%ſ	Y*$?A]]~c<?V˱bxg/5?*__@`XC@ך	+{lou?W?1@dt      ?ujO/>@JܥۿFFR?G?a7@:Wl?Ax?ѬϾ|?h9j>?t?DG?b!ſ'ֿQaM¿יZпdQQ?xvm?5|9?@??$dt?CaM)ͿuC$@q*eߦ?3Ir@`qD ?r@LAF?P.+?>@??0?%QpL? ?"?fR	C?H?>}??² ;iֿˇ%	ԿbB0 bݾ9@$Rkѿlp
~pXmݰ3@5z? gn·?<B?7o!?]aI?P+ߔ5@Av$9}?Ts@ؕ?{L@ >o?iCFS?<ofE?v+q@a^@y1? 斳?c	H?r&u?NY:8ų?.M?,Xш?zw? r@?G?SN<qE@^պ?TIǊ+8ocVxĿKkο!zߤ\=`	\>?@?H@%ӿ;?GbIdv`I@bf-e-L]t@9k!Ew#
@JUs@)R|@ޡ?^@{Pg}Q?(Jl?߆e(?я]K <?Up>}&3^࿏H.~?Jm5wr&yP @E.b@Q( lk?l|(?z5"?      ?g𠨀 @a4J˿l@:?@A@![@
Cf?;;0?!Fp?!p#?ն֫?zu!ϓ?Iu%ܿ
Q	akt eƿs<:󁼅<GĿmo?Wx_8HjY?R@L3E?.d?;?nSP? 尿;:!@x(,K?fN@?[?-9?7(;?ތ?Mq>ݷz?wT?X-?I#oҷ?$6'Q?G
=?֟? ?>优?|dl
׿Kk5 I?>=hL;n8xgu[J)ID?!a¿5Կ1t#G\蜶03
|&C]?]ٓL|?k?
n ?~L?i9)G?Nd2@	6?l*@q.9}?e6Ja@6 
 ?<'ǝ?v$?E+J@+@Т?M
8H?8=/]?_)-5I??-c|?<IG?$}?u}?`Lv|?ce.M?j?|Z@B7?ԐJ96+-ȗYUs"yeZ?}20P:ԅlS5`ѿhCּ@=g?膍qƿ9b/@
EJ}v?=N8p@g؋IlIXM@>hp?<⺸tb،b?P؅@-BD
\ ?EY@$DF^V`@>b1m+@??ɼӇ_?<L_v&ش%?X=­ʿn~?"#;@IU?|W )??5?I?V      ?f@aAݿ~p?V"?\/@?,؟3?X0ĳZ?"6?:?[؋? ?E-0(u)˿ֿnBPȿZ)ѿvRe?	/ױT?]V?YjC^@<_?6H߁?+$?\ƕXҿXkYc#@;ޓW?dwL
@]sX?́*@	.T??<?.2v?5KY?Ty?>a?Ŷ1&?	Ѭ6?.}?|گJ?U	 }@brܿc !KvٿLz3¿]97/VJ/4:Hп=+.k_5l¿1̻dhm?@: B?#&n?m	?S.Ocd?v;ո?C!4@|G+?
@gaQs?bzHM@DG?b1#?f
?)
]-@n;Z@r37nI?7( ߏ?aJP?E|t?K[$.?KAɑ?I#??03?Х~?gYwow?j@,?x:n(0ҡ'i!th=:뤿ɿnRҿ"$D>"!WB.RQ@e?AuB?Fﭫ;{O @2?Y6鿽
+0 @K>d2"~@v5@QY--;?q
@Ӷ/~?|
#?I>C̿Tdl?蜀+w/mo?Ӧh?S֎A^,@)#?Hk@d\5J?8?]O̓o "eNQ?      ?̳?鱴74Ŀ2Sh?Jm`? @k*M@Qi?R]f5?@|?Z?M3?\I?ҿW쩚ɖ+XiMi	hֽf;(?bz?!VR?H9]*@֣O'#?6nK-?BuT?uj ѥpCf@od9*?x@wl%?o?l?(7?1>?9?7?DOP?Lg?ZZz?d??pG&?r&{y?etDnH7= 21/vпdzjMӪ1@Ľ^P8ӅgCG;0]/ݪin[Z Z_ȿN_#z(ZM3 ?q-?/(?? /V?YD?Jcx?Sړ'@S?噍@QWj?%_ˍiv@w@X?_qZ|?:߿oz?O|GC?CS?#gӬ?i?-U?P1nr?3Ď?-d?pR2??><ϖ?`OOl?zW?E?=)|iݿf@EEq!CQiYֿ&*0Ue+#w' i?	D⩵?xs?\y-2]¿;%Bh~?l*UiW@&4IF?l? x.8T5K?8?" ' A.@㼮=#?<՘񿮔OAU@/expP B3̿˟jk?S5`Y4pLr?,?6;8ц[?L?]n]뿇QN?      ?)-Ժx?/B-a8?jk?ݜiy?/?nRox?.]?N%Z?$Üt?pF?en/nBüy+.3ct:rW?#?DU?y%Je?Y.g+k?R ?6'0?%q?#АbU@?ɟ ?	4?EFW?byo?"5OY?S3I'??vA?a׵??>"?Sr
?ӚcN? o?~ǿlZмj72H\`1SG_;NՇ	mz[Z"Uos_Ao09̼梿
Qqb5?@^?-}^?j*)?i?7ہ?"	@W7?>W:?\?&?`	]g?438b?Gd<?|M?]HD?/{|?Pm?q+?<9o?Fժ?~??|=?j19?JQ?m?
H?,4п#Uÿ*^FKLfWrxBЪ(\hdn.j܍5vo?K?SuZG(j @Kw?=f&cL|?W5@\lQ@(p_Z?=o- @d2ڕ?.C?|\ix?fX\@LshyeT
@2uWn:l?EE追yD	Vz?+OF?WE:Zt\@&V=?/(%p=?      ?s`?4nտ
})?n.y?n}j
@#OT?n9?ѯޤ2?N?~d?.?&b4oX>ފ}u58-˿KbYF2ƿ&J#?χd?B=j?7@n~q?V~5)?d6G?س@p?W^T/r @_?T`?;<Y?UqIGc?9?t<?l<X$?Fu?5>7c?|/8? G(2?x;Z?	2?">D<va^&f?Nؿ;3E߃OWqw;thtg?oiϽa+
Hxs 5'hؿ*dX)]࠿Næ$?hS?`J?9&Zh?9No$6?6!\?JB̥=%@x,r?D˱@.e}L?&Bpm@@Am?zF?su?-?f{?QQѽ?YXk=?&?˝JQn?KJό0?48,2?rMơ?oH?~?݌?(s[P?+I?H>c9F-$!̗Z=m)vTۓpߴQHi9Z?c?`/99`@nxy(Ԟ5R*&@N`?Bi@EXZ^|?ߗV@x0SJ?pj?Z/6ih<q`?E	@
,̵\b	@si
QtED?!ې?Zy ?j>OÍ	@a.D7p @2+f|@BѺ+vlx=3m@      ??,BF@9g|= t0?5k@T	@$?R @P X O?;]MA?ܲf?OݿŪ?ͽ0[p⿆Z3fxڿM?Ol?{+{$?
g@QR2?Mҡ?0nR%?,ڿ>6&-@!
?J@CyP?zP	@=?N?x?c ?(q?	?FJ˻?rG?j!$?,Z-#?	.1?ҙ&j=ܸ(rU,-iVĵΑ䆿pͷ%g*;j袿a VfnJ<UޔM5l톦Pz@udw?(?8~8?=2ĵ?lYB?8R4A@.#?3zY(@2T?l״@/5??g&S&=?X@㕔@n
?Kt?';?{#-B?6?`0o?|ө?D<tq?g7?/
@lw?+@mr9?#@LY#uԿp+Ewv¿	QEw
v_-tkF	"d"@Uqc@mְWĦ?ΕG5^?v"H[i@"O[n搝?^p?R9?φ2V% 3?Rl?TjTkqK?RdH@Q1 yDS!  u!@8ƚqrN?8ρR?MҤ"Ɋ%7 }''?h]L?8d2?Z;?}i]?      ?Uw3&?8  ѿtyx??1!?l?9́?_{:8q?@?vT.4	?W+8!R?5lYw?Ca׿ Tl'ymtF6嶿>^;j,M??=H?e؃?ڤ] @U?;@?`%?CI38c 8@_4`?RjXL?rߥ?t?\KL?k)?|ݷR?{ȶ6]?wF?!G?^?0Wr?QN?J?8&ڸ?%-i࿧yſ8F|ſ9g} _}˱sS¶ Kݬ+Ж^y⬿/IſR ga*X}?nEK?Y?)XE_a?k<I?d1s?3h{b`@XCt?^5-,?xq?!A+?.J?[348?;dk?>?m0?-:t?gR?AP߷?-ר??`Ou?k|.?Y,N?l?	<?rd-?fpqk?U\N]jaο4jQ$a#ο!*AA;ſQ u$Jοf/d*쫿EZ!?]K?΢ۑy?[$TTT?4 O?(Jo@g߫?~?*Ntcs;+~?v^@E2@sti@Z^q4?)*@^SWͿI9?=
 n4?ep?0IvT|p[@@ƫ"?=^AGZ?G˲?O8@N?      ?·@Pۿs&?io? @2-@n?!?9y1?,?%YAd?%)?&5W`}¿e#S׿]Ճ=t'ٰIWпP?`̰?%l?9@p?R~=t?ݻ?]89˿ ߚ_#@0[?_CB@/a? a@,@dp9?#>OV?);Zb?ƙ3we?9L~ϱ?R?ݰMn?W`?W5
F?)?1%Ƭ?GOS7ӿ[xοGp2>~^s@t3
_HN@ӿCL$^Zyzɳ%@@\3:?ݲ?0g M?PS?5S$?>ڼ04@?^K@Ȩ4|?>EEM@aGZ?dz?`\?"{@TH&N@Vۛ?$?N?IT͖?u g]?u3?nwI?J?%1?d(R?6VGq@2DO?T7h!r{V5ZheY+d;Co>ȿ{~aQ"m1"@(NJt?3f%r.G@0ɣr	\c ?grL
@Я{ΕER	@)yT?$es֨?.1)@<B\AE^^>Ŀ@)QPtz63?;3\M@gvZlSֽp@ (6* 9:?B?!Y?b9]*Z@KMC0?D/r:x-i	@qԄE?׮$Zӛ      ?!(''@f	νh#i!?Qt?cAb@Q@5?ڮ N@^p>:?)u?畷?,?CPWX=):׶lͻw(ܿ^Ϯ??qLv?:9F].@?p?b?S׿2/@5a?{@m(h?n@
?۲?e$0V?ZF;)?uũ?*i?⢏mIC?,MS?N!?z%?W6ߤ?RKr9̿=q46&VƿA}zv$ĴЫTkXbוw}V2"SP_Ԧ{Y@&c?h$?h=8?#@|?/S?h^"D@%:?Xt+@E)?տp!@B?ؕ[?+,?@@E?Zp?T?	L-~?%?gNŀDk?+?Zm?p7}?H-My?@Y@!9l?V9m$\yG⿂{: '̦`y%r	ݏȿwmLӫ	~D9Z0#@큦P@,(zk@U"lDi@2Q3}*?/:
?TAq;w?-P@|,
?ߤZc-o(@:KK5sX!v#V@pu'\1࿀Ҧ@">	)ld??B`(Cc:t@Qi+@l!@.*`/֐:KFl?      ?Kͳ@V$xO?ު^i?tur@VcŖ?,Q?$?̮~i?Tj?sZ?+2
ڡ2!<ſm*@߿Š㽿\{&ֿrx?u͍?p	??4ORQ@1r^?tnVh?w?cy)2ӿ)@l?{Qf@NO?I԰@	!
K?F^œ?ꫝ?©+-?o;t?NT_?^@ʯ?鱈?rO|?UD3g?4*wQ?&ېsl}{ؿp%C!6{wѿZ)dg6so˄n|lsÿꮠqg]ݿO>1N&k*5\DyFGa	@Vۜ1?
?x?}:=?<e?Iĉ=@Wz}?Ss$@# ?IL@c?Uy?x++n?@HK@@*+C;?:JWH?*93r?BD{?7<?@?h,L>S?FA?Ls?aD?KG@VXӣC?L;a-i4VǿY1{;}{Lп ֿÜ/M|+0@n?aoE><?Iz߿4Juqcaxvj?Td/ZJ v˿U"?ϹWhΡq?j@c8:RzjD[CB@g
fl\ڈMֿw~^ʿ#1y? LʿB3Bcs9?D09ʿ@yU?;|x?ޢcE\,{?Iɲ5?2gI$      ?S?Iͮ!?-o[t?0?0L@?y.g?Ũ*Ʉ?f?ޢ:C?]&k!?SW&?ѼN?,{,\!?8.	u?-*̿?')?=dñ{?{5h?ѿ?z&9ڒ?Ҧp	@'?&{sO?fѳ?/js?4ᖨ?v(0fK?{ҡ?ӗ;?#zц"?m?7!z?bO?q-?̉3?i.ץ?(S-?qg㼿Uձ?m:K=r-<?'m'Isvi??_v:(Ղ?==6?d0`1ֆ?k(Mږ?ٷF?Iq[?Z_yy蒴@ЂC?Cu?	???Q#?a딴?,|b?{Rz?zF?VDx?8P;(~?3^E??`?I\_D?.?M@ٲ?Qj?$Ԇ?atR?t%	?Wr ?_R~=ſ{L?xˍ{lUg?e.,~#ݶ?7_tu//0q?8jA?E<%-?п&ժl?
BJ<D]-E3@M:@I!ؔ?
5@B7V?x?H=R1@T{hui(@0iqc_<	@}ݺ*%J${OU$?DyczDɇ?=<CS?eR!IWпNOЅ@Kv@@s	s?zJ?ݔ]hۿNa?      ?;@i3vpڿ,FA?O)?'?a/@pnkд?΅G?-?VcT?'EY#?[Y?{8Fyտe/bҿN?$H,?|?}@ăPN?C?_T?OWDͿ`Wc#@"0?emBt
@#Ѧ?G@ :4?܂?]vߩ?5_S?qw?Bؚ?430@??T㷌?A1H?T ??Q]PEÿJ}CK('ǿ^o&}y0j<
TzO7dh8]>Vҿܫ@me(hUU-@@f5cf?,-?7]@ֶ?d'5I0??o(4@[c?@m?53H@9:ͻ?,2E?}^>d?H5S@0m@;e+?$Fö|?>e?~bK{?l?4'd6?H<?emf[q?[H?G{?5@S?VdC4Կ6(ZqU?FJ)"w7G%Mٖ@r27? }a?tj+?,k_?
/G7G@:xG
tSQ?Y,x@L|XV#,zӤ@ԘD{@gp@7_Ov2￘	RN@3qs;ǔ!?=^HjԿqŬT?bvE iRU?Z,Q?sAN׶D{ ?1IJO@U7jL~-?N6?%B9=3B      ?5N([:?nO'JĿNV%?e??SlWՍ@@º\?Ex?]qet?y/}?H&F??_ӿh#ȿtEATL̿nw9?pz?Gɳg&?)l@9XI?W
?:3it?Pvƅ(hk
@o Ű?k:%OV@	ҫ?4"mV?Z6Q?*ߑ??<i?(o6@?B]?3_?	At?,`?@6?0
?)RЇ?'L#gb5[,7׿d?䡿4B0b?30ev?$[8yƈ;laLvǿ.q:U=ʿM	ӷr_2?[V?h?@91ը?jά4T?3On?Yz)@@}?-D@U fH?s	@3ZQ?8PL,?v^?YD+?4On?4?TE?@?/<|S?i҂?l
B??bA?.# w?| .WP?0?hP?XxI37㴿40gq?#~(?g|Yؿ(8mI3tf7@oL'u? B`?Ҁ8?>&}04>?>`{?uٵXָ?~h8?O-!:
噶@
f@
TzMѿƿYDH@rԃ
`C,/bp	XwP?.iٿ@>p?tФ?5\n<ۿVTܧ?sLCĿH?U6ՙ T??j@	Uy	mWeG?^?:ꣽSf>i      ?Ii?b	/?"?S&	@sA
?_q2G?(f	5о?9?K^?,z?!;	Kÿ\C7ReU]{)?
C^&H?GmAL?E	?-L@#{?5%?2[rF?#;:@`|?h @,<R?=?> ?؋2?J3Ϧ?'l?J?FƣN?q`*}_)?Tǯ?.Q?椵 ?G?}ٛ˻ѿEUVOǿHU`)Djy:
uRo@CXx7m%)Vbju6:CX?n*>?i9?:UO??瘱?aR+p?Is&@ƞz?t@p 6|?;
)@=b?b?̆?/௺?ǎ֡0?
P?Q.yd?f?dp?O[<?齺wp?]?7{gS?c<?!jys~?hG C?J|?L(XĿ=3T).˿Mcx2gW6J=x;ƿ=_hh $Y/i_"?rҕC?P@^KʿtA;?bL*\G ]?N_P?>컵> 
ɠ]Pߏ @Ś׿*'py?^ʁ@6B _10"M@J), iA

?EI񿂋vY?|бqRk?	9yp#?iQ)=?Q ? B+'U?rЧ?ȿofٰ      ?JjwW?eÿ8k2?M ??MeS	@_߸?Ր{?y[[?ŭQ?w?lǢ0?͢KDѿjǿJeĿӠ
!ƕĿ6[?|Ѱ0?):?HӰ?	5r?(Vn?rв?E 1yG!;@:z?Nz??(I?>?3z?9޳t׮?0Vµ?1h@? Fv?`06)?~j6?H5a?.W? r?3ظl߿`7iyԿ(naҿ,=Ϳ2Ejc\[ڇRZf0'%J=m$Dƿ"aoE8齟*?~?S?M䦥?l*?
ߒ?67#@-?oC@F$?B@j7N?%?R@&E?sD?׍0r?WT[?rt?R7?U'핡?9÷?B|Ϗ?h?:;%?p_?#uܴ@?G?nyE?qp|{}ʅP"4`KG࿓JB	2`ɇEOο2ӿF"#璊_s;/Ym@xV-?]HPTm0J?p?YVCcY5@NJ`*
}ƿ-Ro@z%c7;χ @W@<!{vM@U4r鿒}j(?@)]܂?t+Z?fF<?K?O]4Fg?>m @,[#?YYiT4?@Spu8hX)      ?Tyv?"S[iĿV;TY?b#E??@MZ?ja?7vt?2?тH?yMC'?$:ҿ-8x䦺K2=_rθL&ｽ]k?Yx7?z&?-z.1@V!e
?v?kֆ?2Avݠ@B{?#tk[@%b(F?K]??R\?b<ۍ?#?[tU?jcb?vH\?	nyA$??+rs?<J2?H<)MῙ"ZȿN̿ƿxSO?U(%jҘ3ŃZƈBfȿۅ?Ӓ*ra. ?A	 hK?Aӷe?c1E<C?F{?iy ?0&@˙&X?t@T3E?d@Lʇ?Cf
?j,?>Js?]ۂB&?	Q,E~?=G;Z/k?G8 Q?&?Ʊ);?Уur?T,A?p?£?P?caS?h97?KgIg?tjCGֿՈzڿed_]?Jձ~~3pXN=%ֿ}=P!$! @A`?}@	
@֣]?[@PT05첨@)ؽٿ1?dbfc@O^%'epߤ\X@=+c6c鿇C~@lrީ?e3?KvuPK?*ֿ͝GS5?n^еs @*TUi?e
 vS?+P	?ިp?U      ?WZ ?[sڿݙe$?Z6?YeG@$??VG,?~ZV?ن?q/?36i?/i鿘Γ˿QXӿJ!fƿJY1ο?dqY\?(a?%@n+S?H?Z2*?JYșϿht@v?[n@4d??k%?L$?!	>?$e?{?6m蕪?жF?g?:pY?B#Ľ?82FNJ?]{?c/)wSڿ
1.CտwL#Iu O	¿fCMh¿M)%Ϳf%sDc¿;Vuwmw@l?3(C?%?GJZ	? i?3Ѣ{~,@C-[?	K@.one?aS
@;f?=1Zi?|O?$?՗?˧ rb?E?[J*??}	9?"6p?k{n?CM!?FI#?v;m?Z,??zOc١tՃwEM9Pj%kƿ1ˢѿ/8W꨿VO㮿ĝy@j;?.? Ʉi߿Q;?:ӑswC@կoa'B ݿR_: @lE?@ͨl@J;TJ̿q @`sB8zO!Fj?*Krp~~w85п?M1Fz(^?l^
r?;1ؿ!=0t^e_l?, @wګ}m?Cv?/o~F?      ?wX$k?olAYƿ!G ?Zt߮?!<	@0Zc?
?5?%?3++]?S/?A8ӿԲ~ب_Jÿ;K3&8l?lyi/|?@>gd?@we7?56&?:X	?ɎI&Ti@X>O?tt=?ǂ?+%??f?6Ñ팟?wo?H􀔓??>k*`?l@?9M/?=׬?cR??C;o@l$YYVѿ2֮J?r)Gy(B様d>b4Ыc$[h"ɿ.hIĳE!a:=?H?CA?G?oö"?Gby?`#@Tz?!@b@O$U7?*af@)lv?)#?ĠRv?R?3Cnz?5\?ib?O_I2?Lh?/٫pF?j<7b?m;i?QsI̅?{#?"E:t?8<?E?P~Ns8],;VCn5޿ћ-SWGädb8$Ӆ8CRֿIu!3`ϡ<s 2 @S$y?!ҿk?s0?^Rh?@S3By%ו?h ſ Ԭ5U?МX@;J}EɿUwAr@mr#	V *'?U@Iq$.#>i࿜	^H?`Ҝ$I?Ze+ÿ;?@Vqr;}@`9Z?^.a?TOG?K|J 㿝0WV      ?Ф^ @`(ܿݬ?$1?iU@`X?côz?Tgm?}Z
?$r?k?m~IbH<3ֿJN!@ӿDӮ??f!?^Ru@.?*"F?l	jTL?ߴϿI:"@)}e?JrH	@b?_{@Cb?9z9?VG?l7)`E?pCAѣ?}-G?&叽?ho\?d_q?gb?ӆժ?`+ '=gpſ+1@οÞfyJLY[t+X<\Ȫ,mHѿ_J$h]@$*秿BI~@a/kԿ?fws?څ?;"?jX?Fp3@y4?LX@Q#x?/D{@mFս?x3~ռ?N.98m?7H@fŮK"@2עӽ?kEh?5/?FL(9pt? (;H#?[o?ޤ?2?	{7?<}?(N@&dc<?D4&aKֿVPz/HYJetBh(gHvd'R2@KZ@?                                                                                                                                                                                                                                                                                                                                                                                                                                                                                                                                        ư>                                                                                                                                                                                                                                                                                                                                                                                                                                                                                        fr ?_[i?l;y 
^@FޘR4d^I?3 I@q!t0%V?+∑2߿ k;P,P_.<?eNѿƓM*Oګ@NbN \=mh`@<L+E;?!ޝ ?Gܯc̓!\?[="?ZwfS]9++??&b^ֹ?|NQ+pg?      ?C*~#I?q9'Vοӳl$?:`
?5'?$tњ?7~2?tmL?Vh?G\{A?l?R /;ӿA2  04v<6jq$5?߭D7?0eW?;??`r¬?r␝?F?x4%	M @PJ41?ܟ?x1Tw?Klު?>m?iy?msۚ?7S$A?e避?]0?b?ro=?7JF?R!a)=?O?raؿR-J'$z{xfInzID ]HXrjQ'u)
M:eQPMUǎŨwKK(;:0?ck7?f*?Xh
7C;?` ?c?O@a1}e?"uqԤ?2` ?a P,?r9~F?y?z6-?y_Y?1W?h/??{?5I?q]C?	?LɜM?y?A	e?0DV?[?)X{?G	?u3޿K[:"ƿt,Ŀ#׵KhġFS׀Ŀ澵NaiD.A?j?O ;]@EP?Z(6@j&s'cd:A
@L4V?'/#?95@֗xHWڿ*7L@Վ.Zg׿F+VR@Ym5@!+ݿ04@J"5?DWJѿ'f?T(K_QQL	@j @pI@$Y?Lz@?      ?a}o )@D_nB?Lod?8@=9?4B,?%yY?^A?1~1?Qb?W`ê)/f&ÿk|Tۿ-H:QNֿT@?Щ?L;Mo? y@Й^?Q.Z?&u?!Eҿ%wuz+@bh
?7p+^@v*'?$<UB@cz?뭠j?K^?򲧵%?!+~?^ؠ?!,2x?tT
?.j?~7B?eJ9?s> pֿM 2ǚ)zϿ,#b
[A\Ʊ%w+;"lEֿ 9R		R]S7	@#)6?tk?yI¸J?QvV?	ҧ?nt@@F=(?= 
%@?r @?*E?\$?{n@T%|@ـ@n
?tdώ?Uƻ?pia6ޞ?4{R?$vK?¤t?F	M?5'}yۻ?[Y _b?m5ϳh@R;T?#Gogv*l8"h<?̿a_	ѿLfROWCȲ<*Q.2@L?T"o?ߺ?G m 9C?9h7@ʟEoDy??KͲW?8s]+[?jؽA@d`b(<}2Է8M@Y, tojV}_?-ܷ_._^GC?+2?F.񿽗ym\?ڞp˿֥x21L(igy?( @
C-?`?:
¿      ?S ?9Reſjt?3pdM?ʬa7m@.CӾ?]Xg6?ii?p?dgO?N?D?Կǒ`⺿"
ǿL9η6MÿMM?g=? Sd?g|]Y@5u?Jݬ+?TM!?Ih_*'d@?e@Hr^ߖ?.?} 2? ?9I'?.t~?<zm\?PmN_?v3*'?8?9bI?\?Z?Ys~$>mtȿ̌/Eտ֪	ƿ|BdVxLxs+pK+is}yſSJ2˿E瞆F`Pڒ/Ev?PV8ļ?
l?@( ?*2?oi`?|6'@3k?)~R@
j?ڑW*tH@j%$w?N{vg?Ue{a?0FD?cS{?aƝ??у*Ђ?U?ə)?Wz?y΁?tY?b8x?\ak/?|l?Z?3?.Z#X
׿Up
Bb׽%59YC\ٿ@i7承0R6DƬ@pI򞠹?.࿕}7??J&3nY(	@1rE2`p޿)z @`CZ!rR@
h@_>	8x3?)jΉ@ iu`J??Ir@X3EFl~$?ICwbD슉?#;($F@@ r=@#F}`ܯ @ٌӿ6?k= ڈ>s?      ?:/@]%:ѿ	T4?M@0ĎjD@K{?o?ؿ???dyj-?":P?!w>u+oʿ+3:/\ǿy?(ߦC?費?rC"H}@-}v,?"T{?bt	?@/,Ƅ#@*?C$2
@r>nt?.9&@o_w? Y8?M?=N\?kW+?G5|?xb}fe?Sg?
9v?N24?~ ?~<aFjLw 0ܿ3w1
K u}BjI|Rh쁿gAZnLzq,cĿ+XZۿs=꓿tDV➒2&?ցʗ?_tM?wmG?ΰ:?e$7?,Ñ4@n$W?id@dI6?mFS@~x?ʫ?W`8?!e@s@P?T+?`sff@ޒ?萙!P?liO!͓?=15,??ɏ??ȩ]?Ҽ>`?gݍ@ݪ#?kaߞqFa@>Tap
&B⧿"O:nL+E#|pYI@WP?uut2f5@Z;s orxyƢ@4o,Mw+~OY?d`ҿ(!#?n7_Ja@
}؛w?J=?5/W ~
p?y@@c1S}^D6b%r@$h_llvRZ?Nc?b$YhK"f$@[vz!?\X6	cFӞ@B2~p4d Tf?      ?pm`&M@c?ԃ?3;G @;hث@Hq9N?&Y:?	
)?"3WU?vhq>??N-vq0ꉬX?n>࿭b܈a*	(B6ֿM5aY?F$?"R?<@Ge)?4G?u]T?d*ֿ =,'@SN1?Y$Ў@UM?\@Q?_p2?&Bj1ݧ?FNK?~?GMG?nе?UJ?@\?klz?_%씢?J|'^	[WR9~?v+xĿWTρ:yoL¡]vL[FqU|ۿɩ2LdN)8l@WIg?'c?2gJ?qF?1J?BIc;@&t,?X20v"@55o?7w@ J?3UړK?a^f?u
@oٗ@l+?+5V?cڪXM?ˋ=]j??
YuJ`?u(?e?aTy^?wrMq?ԮSM
@㎞?c,حJҿc`)A_NOP(ϝyWP?'#jgT?B@>ؽ?mU뿍fY?&J#ʬ\ֿQ@syƹ0f?u
?-o:c?ه3@ ,P:4W1M@NԵ>x0pM?YSi.f? =?lFUQp @s?Gz콛4qjF?iQZ @B9 ?>?m,*I      ?g?1֤ſ<3àb?e?{:lU
@1&?ݘ?%?pc	?%`?)Z?m	+P?HcӿQ_ο.;r.avſ;WzG]w?XFǼ?mf?Ȑ}@GftTG?f/?)[?o1߂@R{n?d= @,=?U1O:?7mb?cD?-r'?\Ub?=2f?n??00@?3ɞέ?x?|-?!|H?NPۿ NI̿a@xӿƺ]Oȡȇÿol&	A˱ĿAu3[-/6*7ȿ*3ÿw85I??\(0?vj?JӦZ0?]T?Y9r%@u?HB1w@
tm?@טS?,X<٦?9Lx?K.?bj?:M"?߃r ?(7?[k^h?/@Qտ? G?LE;?yY`?wKF?"ub?9Mk:?Bu? [(q8vxٿ>~!B"[haAҿTh\0տi7J?CtrO@$k?^ÿ>?$r>?ԿB5SҤY?JUC|п1UC?tg%!? @s?@$;-;m?d@a 4؁RӿvA:ؿ*f?[z?FpRCпP¿xecb?Fyʙ0tԿ՟6sNpc?c@#
]CS?tJ @BVNu?      ?cNY V?AK=? ?t&#@	@)lÏ?WiE?:tiK?b%??Z?y?ؠ_?!?e鋿P4~P`x./Z?%cG?%or?LT?u! Y@WY?ˑ??  ،?wÖfn?<8@L+ ?_'?^?Zx?H| ?怀?3 "?Yw8w? qapy?Oe~{fC?=8?62#b?z7G?0	??Ŭ?=pP򊓓_uKwŞV_R?kJDΦ`D?KxUȝ{2ƻˑܶ#A?,뇬DeTO?`_?]"?VW?`f?ҍƢ?QܧA<nz#@?zbPD@fM;?9A=@>0`:?+	?@?m޶?qNF?Ul6?2Rm>(ź^s?X߷/?/`Bg_q?@jH?5Akz?qPu?jt?q&X8?Vx	W?~??%⥿Z?Uo{;Z`?sMQ?́J[t-F޴?H+b'4?p?zt?7!$EW?G=
0<ɿِ=`R@50|"woS?ޕQ?0y;Lc8?_@Wa.?kyd7Q
@0+?ךj	@3AOSx޿k?ĄDY3?x?Qr]Ɠſ@&w0ٰ@`!@=Z-;N	a@tՔ? JfnKTl?      ?cv@V@pÌUؿw?}??e5@̂?j?0DB?~Բ?@fƼ?D	?Ԁ2(e8Կ윸zϿmO??^ J?0(@L/?ˏ@?Fz?k|Ŀ\$@k?͑状@ hu?@!$?.
l+?xt6?yz nI?Mv8L:?gt2?^?BWt>?fڷe?sa,?rCժ?fHFyοL]rſҀ3Ij赿0h=` ÷;a&5,|пZR㿮b8(MiٳU؂[U?'?\%K?#A6?q¹?V٥?g?6@2=v?&:@+?8@Z%-X? $?4»?6$@hSa@9N?	2I3?4W,?A@W? |?sc~?!^?]]_o?~?<,j?-1ho@{X?ɈW0ё࿣ߘKO{tx?X>ɿu҉H\CP5@P?%IBHs
eOE?"`8\+{N~\%@I8,{o}@E9RF^E3@u@=(>d|?ç=@<~)Yz
쿑Q@}@.S߿$q|t? @j?h2<k?c={Xev ʜچ@}/4~F@}lqq?>ݡ(?aL?      ?<J` @gkԿ̖=?:R @eT@H6`?'1?C(u?Wy?Ø?109q?UZs忎C('MSп!h"ɿjR?Q+xu?\ ?p]@D^\?|r?PS6?d#ޔ"@N?2y@Q^ ?삎' @a?hF?_AHڭ?ǀ,&`v?t(?&H?B4?w)%t?|'?g?sǵ?<d3SҺQȿ?6b5J֪{ C~xS<qyU_d~ʿ8߿Z%̯=!?Sb?&?[ֱڟ?{F?rR[?8(j2@NC?tP@?V@??89?sA? 0@ҙ)@qwu?>l]j?O?u"}?/fx?.6߸g?pZWO?ԸPG?H^>?E:V v?ho<@\yf?\FG_Jٿ1j?be;`^ڭؓ0(>;HWiߨ|,y@ ?,g-@`Vn!y;j?I=eØ@3>Ԯ"y@J8O0ƨZc)?7]@EJ
Aɶ?Z@^<}?
@;ۙ
рO:QC @;yr?JUڥ?O&?#`8x@
WJU?|ݓ@c	-
tXR9啦wſ      ?GC@42 +H[?h?!!@Gq?l~\dF?,1?=L?\ #3?d?J(
Z.IҒ3࿊%㧴9穞ٿ? B1??7"o]@}21?? ? UٿR50)@X?׍@_Qk?}@󹮛?<.g?NiǖJ?7Gs?G?F%?zL?[B?|[?@F0Yޱ?X?};ǥѧ?aV3cĿ71\;ʿMV{8C4o
vgn2TVlQ<q3/ _(ݿl^"&<;O=n_: @ض	/?O?*?**?[#??3EgE>@p1L?lx$@9]D?xH@YA	>?	
%?5o)?Q@#@n~g?zۈc?t࠼զ?wew?6j?Og?e	ʤ?4et0?]?>Qy|? @f4?֢+u LK\ DؿFICiMIࡿ*G`A ZG,COd5O2|Upu*RxKXӸk @Kxl
@                                                                                                                                                                                                                                                                                                                                                                                                                                        ư>                                                                                                                                                                                                                                                                                                                                                                                                                                                                                                                                                                                        עh4=@dnrW?K׿c4~3@PC"0?Q?xaT*1?ߍd@^0D˿ XP@:\[14zJ?ZY@Xg8a^wܿ]k	N?^1/fW?ߑp1օm?M.xH@)8Ƕ?$ؠ1:/wH?
nֿZտ|ܞ-f?      ?Xt̕4@Um*῝v.|?!t??!
&k@
?"? s?-?P7R!?(?wXpYٿ-/x1+ӿaEa?aJ<?xGD?.l&
@md?`.?\y?ֿ#/m@#@s],@?s|
@Khb>?Fe@ zs?DG,l??M?s7G;s?"0?;HK 
?y@J?Ƴ$?R\%?a#?cy~y̮?7T[/^X.ο(#ѿյxB#$^WȘ~$AQ"ӿDA*?d>.߶@3't3?:=޴?^?7Lo?#=?xd5@#_5?@<H?ף)@o4?9]?d?f@,~@/?Y˽V?-r( ?:?Ngf?P)?BrqC?&?'?I?2rY@v]»?$s:
'w`ܣQ¿<	ÿߊu X$-UGJ.8@#$l?ܙ0oV8x?qC3P!!1p@gͯGIQ0?t> @o'۽.Cg@Mn
@:{m?(U@}x`4Ϩ}=CR9@[uF~_ɽ@a'A0ָ?K?N9r&"(VJhm@A@먅6]
@]Þ^w?-'iTWF0?      ?>8g@Pס?IF<@7$@z|?np8?Ϡ?]vJ?z?& ?kȈY?5"A49WmH凟ۿium\ԿJ]&m?WT{?#@*?Ĕs@Qi8?6?"/?]P(Ͽ#*@}?m/re@7?+ܱ@t;?u?la\vr?l/q?uf?xҤ?2SPYD?Ǿ	%?Sه?; $?'aL?A#sGIv4ܗl-w\?!\KDr{Ä fnJ5~@zWL-mI7ֿ'6{l.ݑyѼ,䐿ߎD̀@RM?dj?5,?xf?*jSu?v>@`?q$@
,9;?"Md@=-J?qꕷ?ys?+'l:@xhGh@UOj۬?!?>0W0sp?Ǯ_ 
?Bpp?VBK?Uf? ?X*k?N?<'-?_@_?YܫbU#ɯt97gK`qPၿXPx_M_Sh៚fG߀@02Wz?m ׏g@z{`-BC@`N	* @ JY	@՛|.?"f@y$Wx`8g@?hط
F;c[sy]@'wT}z6`㿦D0́@F+:w1n@+nDԿ&V뿽~~ު|{	@ye@4r<sw @ldQa0T?      ?Βj9@4㿆#Z y?Lĩ?Ѕ^@lZ?)kY*?{D}J	?8JE?i0Y"&?h
aW?|#u¿~8η߿$0!wUKֿ)V?!9?]`s?((3@Op?jy?PI@? LMٿuU+@*?;r7@o?D?L-/<w@.cA?&Pz?֮? r±?	?dIݧ?<J)ѹ?c۾?N?֚d7mf?\J?dۊ(I*ֿͲ+ʖӿ`.;D]
fڎruӕ]Dٿ1f4fMEIOѳ%M@DZ?4?6\?a?Iy?$;o@@ 
e?jGF&@%?2O1@丿?%gO?TuV?ZR@Rx6@9@n;?$N?oRz?pҒ?DU	k?''%h?ʾ'?Jּ?>[?Hqd?\BN(@Mw|e?Q\%!L7zjtIX0%ӳszuɿlҿJپUA?4z<F!@fR @ciFT(@jo8(aӿO,Ze@%0I^2@Yκ
t?TJҁ#I?OF	@x$'?GsC@v&c<=@<@hT-B``0H|A@D
?Iǭ?7Y *m6~~7@9R?-X\{T0@;$޿'qIB'tK?      ?>?]F@!
&T0m?(U*<E@V@F搰?(D @$5?2۸f?^N
	?M̉?KZFMh6ݵwk#d⿓NG籿)])LڿcqRS?p
#?X_3Y?y@?xln?(B?е;ڿs/@x ?+3@,~?y\
@oj\z? 9vC?7iRִ?-bt̬?L\E?6؊?!?ޯ?N?`R{k	?xF½?f?%EGB˿*\|RƿV]w B1 tM'찿oղHnDؙ"l#޿z{JIMPyb);T@jB?GE?t?M0e:?V?UC@o0?sSQ)@?u?/ڢ @ֹ3?a?=YW?54/C@y%ߦH@jq?H"{?v (?YpM?0#JP?ۧ^v?CO?@nU?5y?X r<}?@@N1$+?#dC%{\kfԱiv>ſ*9L{ǿv۝gjp3݀.>'l"@rH#b@t{}]O--?P%f66WY1oT
@:hBOʳ/-a@v}
 L"⬖@SSM@iї2<1>+?,<h0@W
tq?JP`?"迸Tt? ?B~=s`I??%Av~?X!F _̰# ?kaK@FLdA0l2?R#?<;RfY.?      ?adYc?%D`Ŀot?G=~ @*(ƴJ@}N?W[L@?ߦ?VH?t[?Y1?%X5ӿSTK%+gmZY@:Ժg+Ǵ?@d{?<ó5?l??.;!v@`D#	?1M&~?Ŷۯ?gǨI4@{Ýɵ?>y& @M?*L?Uj+u?i?.?`e?^~??>V?_صy?@`?55H8?Pi$cɦ?z7W&̿Gi8ȿM0ÿDn NಿM6@2򑉮x,U^.╰9عǿ.F9TvgΣlA?B??`xI?J()??!B?SuwF'@"0'?4*"@[?)Gr@<yN
?o^&L?ɚ2?/!?Ύ?-nN?%G?V#fy?=^v?a?&Z ?=4ª?P?G]?A`K?YF??e>aR+ڿ,*a^ֿSޮ琿$Z1Dr[@տS95X&60?R?l!:o&"?§ݿgU:`?Ū+KElOxvJ91?%^i# P& @tf"]@}c5 q@tvTrXv9ּ$鿘w.1?{ռ+]X^=x?1K?oi%/h]
 Ku7P?a= @cA|T Gx|?Q_H	Y?pN߿#g      ?/$?sY
q$?m?XX?6J @5?-t?tb?eĭ$-?a?k䎤?tmU&8?2%RqK?#I0xI`s?ۭ9Q?J~W^?8?< @)I?c;]?YͰT?F_?@o2'}I?7hwc?1v?/CKD?s҂o?`Dj?w6?tC9^FJ?EJ%q>?Ј,?LfV"?0e?|b?mN=?PI?Mz*?vk\?t8'?	эL! ?**VM95?ur?oС?:!O_#
g;?[}M?8ӫ?}gr?-nao?ҿEn?"^HH;C@u̻?֮ł?$%?474?#gE? i?,p?T?/6%?fF?warw?0>E?{zs?8?jd$Jw?+TbD?G?ҽ!?X#?bK?B?YRA?[ȿZ?6?P|u?w⠰%?{>3-F:Pz?Y,?gw}T?l
Hs^?E?la?@
VOc@p~
 H.1`U@8f#q.?D @;CýN?+(A!?]9TvST?/3z@̙1	:( @_w؀濘?s&_? Qv?^4p2?Dv_a?t?      ?nhl5?#0ο	P[k?aTzm<?3*s@&tk?h}?V?F=qj?F昽?dM/q?ܐ"ؿ`FRର,5@_ioiż?
ߕ?%l?Ȱޒ@Y{?BK 1.?DaO\?zM	fAY@p$ ?-#?tK?{c?Y?tlͱ?RMwJ?Iϫ?l??>ik?i?ˊWu?π?\ncv?WKBy?Ѣ\yy̿v) 傿eb& tcrߠ˄II􊿩,D#˿doz=%á,7?sLc|?cY4Ks?spY+Ŷ?/&Y?ݏu4v?dS=o$@?{ b@00?<U-?ydX??m?+T;?]h6m?nQ?3Q?Ag*x?}jd?O+?8c3E?Ęy?w-?կpr?ܳQ@?n-,O?Pzm?/{5?!x(P*#Oֿ;*6Ҁ02տj{uw@Sb?]64?xiȢ;(@$ތN"b1	&@أe?@Qa?8y=7?[*@D'{jД"3ٰ@ gwhad?)t
@U۽꾔
ξOb?%dca?݉P?%ܿ,~XelIl2@R?*.gk?|IqX?Ulo⿃٦?      ?e;⥥?<U*޿3?7P?\JL@LK?k?Sl??_/?:\CC?iq?
cU-r¿0.x0տ={WF:]пT?@y??5x@z:p?.%Z?x?{Vѿ*@8i?2mu.@{Dc??WR?k?~H?u?Fڱ?3<? ޸?y!?=H?M\u?f:?Tr4'Pp>ҿ mv.cпJ&p\>>C&0N嶿.t䪛_6cοro'A0俬Sl42457f@<Iys?Tu؆ܶ?R5x?\?F	ؓc?f2.@?'6@]m?&k@Xv?d:R?c+b5?<B:?je-b?$}4?:?KgnH?`E?($k?"2{?'}9c?t;?XQ4?PQsw?%ǯЫ?g-?]-k
FRֹ1M6u0i	ƿ"?BIv]V@T?v&Yp,5?0%>>zz`7y兪`@tPڑ?+2Q@SK,@Q@XL.?hp@b<E:@U.R?m1+@{&܃Zl. J.,@60#/?aI?*|t Ʉp$@@<i:?G@[	E%ڣyq\s@      ?0@}l@~?B<L}@4
˹@锊?v?X@8ݱe p?	'P?	jt?d?C߻^v'AIrph6#ۿ}+?AgoHq?ݡ?L@:<jE?ތ虫w?KRGB?&uӿdV3B4@mlS?9@V?_LvU@@(F'd?vխvt?(-Ht?#ㄻj?
li?		@"ۻǶn?Iw
@'<rn?>? *e? >*W}($)cV
LuSkEctg(l'txSFG7c?:ActYReLģ@j^?\kGae?w?cpx?^~Pl?+Z.K@s}1窤?l(Hk2@t/M?3 '@hCe~??х7?_-@G*@׌ ?ڢ>-Hr?|(>yr?eDa>?qr?}ꒋ?vr?|ctm>VcS@;wl @)ӿǤ9[%"m.j0réV 1Wi'Mw#@X@~+Љ@^BOd: Fg$ey@,v?r[a
@\:XR}6%?U>/g@Q yzϡ@T9- p~i?}EV@ZW"Q.v@G~h&TZ:?ǳϥ-?Mˬm\;/cd@5	@j#@`ϿT0ʩ@?      ?¹@-be-w?Sus@*Bc@uo ?Fm~|?R_?Li]?*+<c7?;"$?R/a(yIĿnUܿa#6pK%ӿM"vp?0+ ?g^?l@p?|ͯ2?
E)?V{afӿ )@ekC?-u`LBV@d!T?~@e:> ?s㇣l?++@g?D̡?uǵ?|v˗?Z?6x?Bڰ?dkBx?|c4R`?|NleWܵ>ؿWmMwZпd#s)!/ŻI*ּPUxd ~׿FtX/9㽿`iK+ӥG@1o?
BNK?yN?kY ?gȂM?x(>@p?C?6'SJ$@9:6?$(@{~_d?sE#?e,Q?`@-@/?&[d?i-?F_?ڔd?=~?!ZW?U5tM&?'T=?[w2&?nn@},-.M?0|		`LY pwQ@пFпAF/OIbZH$\@0%	??)SL?%A<MQ?8Z/@Zv>ې|8?PZ?2NEO?bNX@\Jf329I@N4U?hQm8ן@O$񿸯,kf?8hܶ`ԿA0)_G?H<=?{IyڙU8@ZU<?^T=Al=h)?cd;?a7ֿ6C      ?jzz}?YzՅgӿyF?m?B6@X?b6?#C ?X?] s?6i?Fcdl㿇R}QbZFֿЀ@#Aտ6mh?R@v0;t?t\A@@-~{?jpE|?{ d3?5u¿:m}@\$_Ӡ?^TLg@R<ZsK?b?pە?VE?[4￁?o8рt?r6n?m?Ҽ<܇?`8?;Z?nV!j?2}mw?$[#VX6x>?0Fe|1	?@KIg\+tأ.b؋#?ܕ.\׿"F~&ܿNupj|&>zi?	b5?VIR0(?i ы?l{b?O .@	Ꮀ?|y@uP?kB"/@:ӣ?:]]Nw?C,?$4X@埇C@
ne?`쳣0?w?©F2?pMCv?h0?o0xu?ZVϘ?GXs?`!7?U @;^x?O}%ޜ@pvġ?40~Ohv=qck)fiVwL8z@On?%DQY"b/]-@*4!Qeթ@uH޽
Rѿ(0S@P9r%bb?nu@S	Mmrr? al?),v?+W@xfN2TU?IJdTBip?BbbD?vL}
b @@4& @W:&?wxAJ WzQY:u?      ?0M?-qڿb? M?nr`@ S߱?Lo3+?c+/?byf?Pt-s?J4EeB?]ZIvl+nB@/)Կ,LKпswm?-?>r~PA?)`|
@7Q?u|/?+`2?"|?{пIyP@@k8۲?j՗@X2D?v?Cme@?NĆԢ?'c?abx?gߘ?դ:/^?ĭ?I~jۜ?k-ϰ?v*V?>2a2?diȉ4.AG͌cvÿ3$c'*7M۝h
T1/Yϣ{2I5οXB8+&⿲9c{T<Y+ZY@*28?2?<?sJq?>#/?uol9.@>g?XxN@p
s?5w5@0;?e,c[?lWW?ϥ*?JP$?&Υ?r2`?0j۳?qs?}ZTs]?.Jmi?/nN?qdzF?16S?2e~?&?\  ?ՋG	RٲǿזiN`rs4/p9e kasZ(@=]?mST	O?޷ֳ- !ٿjr@Jj?=?rOHP4@k 7Ϝ;@݋w-W׿.@̫@) iX3п^>(@F!0;0Fe?H:Yw?^,\MRJ?ڗҿ>)/SVf+U@=P4d@u	ĦN:?͈$?8bs*|J1XM?      ?&m?W%!ӿ
?2?Z@(8?ue?|[?8̹?MX?uz?ww 㿇6ؔĿ
J)ʿzk}JĿÈ	?joͲ??:~f?@ܚ@f^޶?'״?.= ?g*g@0;<h?E}p)e@b-tZ?5Ѹ?)^I?|䭾?s?t=?sֻ??ԫ}0?~#aS?Z{B?w9?˘⳰?.-.ԿcS@ڿuJXο9fQKܚHl	Eèy-i댃$k[c3J42ٿ+}>6'4?U]ұ?̃k?B2.??5,ߨ?wu/@U?CCd@3n#^Z?lLշ@.uͬ?r2m?:T?jE?N?vx*z?Tuv3?Sm?mĆ"?(aՊ?$ƃ8?tK?&w?(jz?.~?	?5N6R?93alP:%jW۪&7/x%2Ľ˿eB5I-Q᝿"" WZ@+^?׽֎"|j@<dUWyx򿺿.'@ln=R$D?2}B@6kRA?bm@XcRq7D$&@c#?wK$-,	0@ĩ?IV;'?pPݼ/@-gQ9?Szâ\z?7?D-X #?fXگFDҿ
?HJN      ?G`?s+ԿqLV?8q>?O%@Svg?n"1?~_ip?㠏?i?WH'?T,C2UAɿ{_W˿ÿȿ ?*-?R4]?{zè]@}AlA?N??/?a?mǿ$e@uoG|?g̟@?=S?*e?j{;?$k?eE}6Ҳ?:N9Tk?"%?_4qH?ʕ0	l	?b$m'v?@`?.#?!m!׿{*ٿҿK#Mt 	6xZ2qbMT2/ÿ`ؿ᷇93͡1GEР @\?k{LH_?nx?&7Z?=7*E?(@'5?aSp;@?@[9kZ?q[F?	檦?q+~56?@z?I?ʛ<?P仴?h?9Y?b;?&?RA?ኆ?̞?nI?6^s?x{Ҿ Ǳ[61@1kaB	
ER	Vdȿs$濄d(54X0@Y/6?*Oao?`c(WX?_o"[ pA@fpMv d? kvƨ? A5av?+_h@&X\lfV @{	Rտ͕)qzKɫ)?RKj׿bS|"y?	@#? dX5]?#,эP?g"궿JH0ȜcL?ln<?g Hܿ?x#?K'L=6      ?y8?W?_K?3
Jx@#zV?< ?P=?*\?xj?rx?=Mſw:`⢿NbAm*7ſoK]YSƿ%:=? E'?n?XdP@d%ZRL?5?q,??P晼Zvm$@굣hu?oʎ?9@յ?q;M?5B?}tl?0ɞ?dKs?ބ4}?.k3?ylc?(%&?J3dw?	?E@X?Pѿ+ӯpIѿ<O5v}0;^T<)tRYpE{oW3DTƿ"cGOֺ,nHw\١[MtܗG?,3k	?ߥ\?;Ԍ?T?Wm?9?! @5IE?b+Q@\e?'B @6f=?'j0?>M?A?}.Y? E?HitYZ?fA|?od?uI9ę?%Z?ӝ|?ނԼ?:wzm?<$]d?Dx@U?	rU?7IݿRкJ޿75Un5ƿ\(}`^wj|km?؇?l0@fW&Zо@<o1?WۏU?ܗ8Jȭ?n0@>R=݅7Zl׸@ 6	|/T&?mJov@vR#ʯv˺d#)@נoDаR7F@X7>XmWuux>@;?Td.@v5@qJݿ1"L|ߧ?      ?KF}@*Ѐ⿳\O&?z?mVM^@ou?nk?_9N?efi?zG҇? F"? 7TKsͿgb0߿Ґ&BĿۿ8b;ֿ)q?{>OI?(e?k{G@+l1oE?c?vљ ٙ?/zؿi0(@w?
ut@I?za`Km@	 xh|?S()?0z ?|?(]+Q?/ ?gJ?sԏ@?@]lt?[!#L?&=:?dlK-6	M[Dݩj׿\dKmƿ(^0DſN
;!ǿZםSqTڿ$x$OY[}ƿ0wFGIvp9?@Ztݸ4?gXS?Я?F!-n?Gv_?)ML<@)*?N!&h#@Jxl?h2@	i8d?;?_d[2?xο[
@'l}
@4|S?&]p?op?rN?Y'5?oʤ?rj@?9ȃ^?up?B ý?mZd
@K=?AW"q>4k cX¿}A"ؿMJ=ڿ{PA:~L		 uR @gh?6iZg^g@B6)":b7@D}CF2?e}[S?;).m<?_A @StB.%:$?t,#	M@n92N)te?@'/vGT;:񿤕RW@si󻐞?@`J?߭qￋ䊬
]q@B?>GIܷ-@XN^ۿ(rx JL??      ?n{~V@$0#8@Ӌ?H?C2p@ Vſ?&-?̻ͦW?f7?q5?V1B`?3+tw~nGB~<3qٿ'?%1?WZs?2@!h7?FM??>b,ؿ+d>(@Gܫ/?3Q@Zc?B%aZt@"l?緓Q?h|hrQ?.!fҼ?!<^,?rtB?E\
?r8A?1+֝?(7?$d9?եv	"&ݮ55kE2KGΜCLڝ}OڙC%wbH`&؅8ݿ
K-=u2jys	@EH?89?lG?V]?׿ٓ?;@?p19N"@4@w!?VdS>@~h]r?Bg?ٳ??Gy/
@E
@Im?5!2H?1U?dG[?+)h,?.Α:H?vg^
?D-~?"/AϚ?a00X?M5	@ ݰ%K@? =׺1yoпE A<F!Y#7==V:<qa`"{3۳@v?Ryp 6?^+bgclpR#@I_{?%@,Ӝb&Y?d@]P"3X5ɿ.~@"[s3~'S@)nn 4"@mly2JE]?ʓ?Q.\W{`w)D@n3@#,X@R`?z9=Єaq?      ?I#]@] ܿ!?q{x?	NF @'Z@MPU?3?!>>?^?'-?!zI?^vWEC
ؿz籊ݝN'ҿFA .5?
?Hay4?'1r@J_B?#!?*tcں?>*<ʿz2(@ ,@{t?^8<x@DW$?X^@Q%3w?u?$HY?B=;?h逮?Q%&I?
s#?Nb(!?R驲?$&?Se?> r [п јBx>ǿ` Bg䔿XcZ,-8!#(b׵kyԿȌjx;ELl/Շ@j?(ЀM?q`d ?t&?}Z~?~Z;@HEnh?pq"@ӅpD?*u@3Y?4V?Ag%"Z?0
@ȃ
@((l:_l?bXW?rЦw?+_M?ŘR޲?pu-p?;Bc??|%J?"^o?J&5	@Z~?xѕ, sz~d%kJgz7y׵ɿkr6-jlDR~0@Xf$?dVnӿ"?v^ڿa @t8r<j?&NT.?Juzb@PL?s@@- ?+a3l@E(2@g^@	'w	a?z?f?m%}?g=_t￬Jьjp֢u=@^+Z@񶐃񨻇@unu?Ei%Љ L?      ?Pz&f@{>Կs??9@%@(s?Wׄ?-=y?4% ??`h?	Mtпb%mg^ǿA̎?qũ?19?@߀N?tJ?rG?y}V_M^#$@JV%ռ?]r7"@7?gL0@]);?U%ֲ?Ѯ(??pn?/$2V??dmcƴ?v,[N?Rb?'<?#e?m W2Γɿ⾽xῌQcȿ4a}}klo3ClTÞ8&iItTeɿ#Ql!ǮJ`@/I[ ?YLQ?o?IH<?1?1Ao?1_6@rV?uQIf@ XuN|>?Œ@B|?I?¬UF?m7Xa@oKӂ@W?re?ydG?p?dW?:G?ف?0P???' 6ƫ?G++k?cg@1Vg?e=
@	!DۿW\ K!ț\!~ÿ }Y@[PUyA@<?Jh0]@a3M$5fn@?	FL?-Sv@k_ec?(mK@g%b~ĿnKj@1}oY@<fq`; jP9-@gr?
-x}?Lt)U!m؁@!U" @3RUmg~@[lLYv+6?      ?
]{'@Fh'`?'?2pHw%@f؞?-$J?s)?Q>?@{*?#+x+?-	{cQJ}tMܿOl.:׿b?Hi?R/f6W?ZA@OPD>?xFr?=Ԟ?otAտ>q*@<m%?GG @ tǾ?5@u?*k?y ?ؐ?<z8?|qR??Tp8?;?kF8?<Mʔ?&h֪\]myTC 1?uv{R3@[ǐy4D\Dq~׿/dk?~TZ
k#v[
@W0?5?8}4H?XoB?G(T?ͨ>@RY? #F$@qJ?OE@
*к?M8j?kaѣ?{¢@;-@A?~B?@!7?dkimM?ԏAK?\7@!D?F05?sʬ?jNe?7Y?P@,ae?Y$:ſE&4sp
}o*v4穫dh1)N6O'_S@J7?U/Gտ\ݰ?~TQ/j߿\2ށ@9
-WD{Œ?ئ@JuK?3)@ԟձ$ޢS8ݦ@:`#f1=: [5'@lodj~(¿x_zj_i?'_s/?5Y?6*:wZ 1@_u@T-h_ṛ?? E?Jj@=?      ? @S!ӿ?,>?-;@ț&?$L%U?mg7?z?""ņT?e%|?ߗ:ĿGb\SοT(bǿ2Ӓ~?zb<?+G?@A*׷?eu?MXک?&BM"@^x?4klʻ	@V~?MgV @o}4PY?D϶?J?=?~MG?]?u|t???8(9Sb?|Enf?V'[>?vxn	տp,࿛-A%ҿ"_+8!µiLYA꺿Wzj|Z5(ȿ#ݿ{@1 VL1?3Zbذ?.?oC7?D<?e7%?ٿ4@#yì?#8F7@8.N*?3ZZjG@^0*?IB?XD6D?6d}@у@cZs?fċ?R!`ԏ? ?$ ԩ?Eatd????H@y?ƾg?Cw@)eŢ?!Ucu)5	߫siK^[F;GUIv̿5iCiKg~x~@-%G?;[z@jV/Tx0M@t(Uv?-?^zAP` ?:[@.G6q ߹sX@+Pڿs+Ǒ@?nfV_ْ?/I]?yu	kKa@YN? #	aA;x@黕r?hg8w_?ַۘă?kѿ      ?J @*׿!	Z?$(f?{ջH0@9}G^?m DB??Qp?1?@V?ϟ *Ͽ4пdQi	ȿ`4ɿa9?n?ZL`X?l@7z? ?Tȭ?Hk˿+KNI @3.?j">K@7*?S(?{v??=HCw?M'?%;?2}?C,7?j;be??\A	?~a?@x$@࿠Zįc¨-ؿMhB`!ſ"wOڏ1;ſFBD=aǿ<@fſ֛k@@6?OH?H?,c?3ר?Pb0@D,?``_@3(??q2@RC>?]r?c5.@?kk?Zo_f?6?C?˨_n?%NxG׸?	UРq1?"ژ?@:?Ăt?e?<2w?az$?,ZV?niO-քO)gͿ[տU,BD볿fDGbZ@TM?@Ϳ?(ŊO?K<!N?.{|?ϙlK@ Dtё&~@+}V ?z»8@kmK忐P@GQigȚM?: -5t?
A];?zc|Bmd\?^pm?yIFPkT,?lgXY?ik! X(+?(}Xh@Ѧ"m:/_V      ?4Ľ?xm&Uſ=UZ?4'?3@ Z@^Oq9?}T?jA9g?O6?ny?\~I=-?'ӿ |¿roYA&Rd;~]55?޹ڲ?"`?[r@:Jq?~h? bU?i"fް@QG?c@Ae?¡2U?!'h@?2_?ڱUŷ?.m ̮? ?x~ S?ٟ?l!`?;	?qW?=]ת?6hm⿵9sѿ׹-Ͽ%?̿Hn0jR'	M@f\2'b>đm[8p%_ɿڤ(ԕQ-m?C?>R/?UTWo?gv?*o?R53'@%|?GtF@ВS?<tS@@Dճe?-^?l?Wc???ЫW?m.e?$?,Ô?9?E](U?L$3ko?pLxv?w++? N|-?TPe/??(n 񿜽=7u|ZݿF[.u핦s"}ƿ|^X׿"`HcU+'!W @ȇ!Y?Tz$7~?MTU?)arxb?@jx5׿x&(g@W!3!86T?gφͨ	@o(6EI?5/T@%"ϣ͕pV@uz?֊ ,A_'C/S?s忚".VտLZ0Ex?a7><ujţD$B~t?q/S?Oڍ'??}MS/<:?      ?*?>~""|w?-7'?@(?6diA?Xyϼ?b<?"f^?G? K	{O '4g$I}X؛-6zY?HN}{?ZiEa?Ж@ <d3b?{?lb?TKXtr$.6@0?m&??)?9^u?>9"?oKw?^μb?ə>M?g]2?} 4`?Gp	?F?.d?ɝF#?-H~Ѡ?>n,z5Aꝿ!<ZxrqLM׻ddȡp[#븍n\ͣdgȃX2iu??d?ze!? hk?jIƻ?oTP?3@<?)9b?5c?smxN?2e&?]t8?,G#_)?cF?	U?ף\Nse?So9Ց?=]?O͈ћ?u?Ƌ^ ?*d?|ZO?iht?>x?)Њ?l,?ſܱCHhB+̮#gd*Hƍbl{qɋrn&eD|1{kmHGg&pG
?'Tqu?7/ψF	@~8C	F;B'@r=TmBt?_Ry?^ξ e?_@4O{"[7
ff@tMY^P>F\q@#u9ǜK?aA?NiyP!	@ǃ
տߕ9$N 
b\@Ҥh$3?CMέ7g?V>c\b@?ֺk
ݿ      ?fk+^@#T$1|$f?~}Z?ԲY@@DGYc?Ļ?X?%-ł?`T?o''m?/ؿD+ѿZ䄤hUܿǪǿ|-[ԿiYeQ? J?~y}3?SD@s(?һ
FQ?|O6*6?wٿox$@?ު@jno1n?pN]X@0?C#?vu?Δ??"9/jt?aEO?B~?ՠySr?:Is?_D6?ug}pA	pC2MbSٿgjChzmɿÜ1Jǿ_(ǿV!ם[ ֿ`یcwRvɿWXSҾ$ʍ	e
@%փO?M$?D|t?˵r?wf,?H96@'y?*v@*$"5?sti@lEv??	)k?!t@>%5{@ ??*FR?;s,?m?kȼՆ?*V ]?5nnp?d>E?yqꢱ?4@wk%?HFLh"B &rCٿOsḉٿ ۤbe۾ ̌@w`5`?2xFfW?9/@ȿC:@K+JXݦj(^
@7TV O	@Wbh@L+*rEg:b?r"@ }j(_?0|9?ܵl8I8֚B?L=㳕`Re63?HH~&Y:.pI@U!`@32um X@\]&?Ɓyo+l?      ?#1?8e	ο")?ʬ@Q^@HCn4?K?wn?yMkSn?' 2?_g?f!?#n޿/2`f?#DĿ41,l`d%¿?!'X c?[w%@3t"?
Ƃ?g?y`E%tɺ:H@^B=:D?m@[^VO?}L?W!?P[ge'?=?Vշ0;)i^:{ ?NKl~?>Q?G\}?\՛j?9HZ`?d!Xc(v?!kޑӿp[?#]@,\?P/_ןi/AY?mHj0*f5jyCԿE
|5?tJfL<-?	失g!W?M}];?څc*D?vг~Ef}.@^KT?Շ@=B\p?*߈@'*7?o}@?ƭR@=d@?OƋD
?`c?`-m>j_?=Az>O/K?+9>['"K&v:?]g'>J|ه>Df?Xni$?x̥|?@mY2$n#}o\_i?#a)>,>5y̋$GA]?>CV?P|ɨ+.?iN?Ctx1 s˜@CϦ5xeN@z}&NHu@mbN@,cyW̋E?g@<;??lpTi߿PH"?%ٿpve?	0xɿ_of>;7?>?۠	";?3?2BviJ;?      ?Ԛ?z;¿o<E?oz< @~1^@@{?qQ?\/BT0?,h:~T?d+?&'[?:|+GпNb?xy﷓(^U[}7eU?z}/egU4?;W@kq?R;ρ?XӠ?4;瓿սW~BD@櫺?D돭?_7?EV }?[ֹ?Zuz?+,+5?v%?z8g&/[?A?>/?,3?7gכ?y"?C+[?Fmܿg)?ſfd'SC8|?zqu*յk?uOAɯwd#Ŀ
Nk?'7Bw?ی}rλ~?.TЈ? ͫ]?耓T<m	"@	}0s?Ġ(	@z?U@=;å?2Ո?n d?o0Y?CbQ?	2L?:7wi?^@Խ?Z/D!*k?b^t?σJi?	>+m?yJjU?H
t;?|dl?2/R@?լ?.C۷/O}Ϛ?meeҿ<^Oa;x
3tEx?=ѿ؎c'7@?QZk|mZ~cW?*(?7pSigE?|6yVmK[!0<!{r@.ߐ<??Z?Mq|&B?eK}@FPI+R%"}@^Ę"ɿPʠ)"Q?wfsޗim @d-?g8!;,m?zuܿ`E?	%?5s#:?G5$ 1H4?S4?ud[?	Y      ?WE?˿pLQ?ka?+,n@*jN?\&?XnF?UF??@y?S}X?"ujؿ7J8ſ9")Ŀ4^?E?0N?M	*@D?vyyާ?R?h;z?P|/qR@9O3?*?
ء? r?gjɈ?HnL?j݅?)]o?H2Ò?M?3A(?sSc?[~?Tjn?;Ȧ?GX-忠<KͿK')ӿcYG7ſj!gxJ觿1ߨqdVdο`৿@E,S,y?ֻ?ݵ?>jb?6JFּ?h?Nޅ~#@P RҲ?Vw@/3}i?	ګg&@^iE.x?&]lu?>Q{L%?<j?Y?	 %?g.?HT?VF?y?C9֜?ai?OVˡ?G*jT?Un?I#F؃?0JX?,Na:b? HU	̿f=p)+􅿳cƑzirڿKZ)v3zW$9@~:*H?G7{}$?׿O&gz$?%/@(R_Y'޿)9<?ր"=@=lb@\p^+?p22@QtGDEtOW?:q͵?S}F?~<yf0裍YyyK?A.@0k/
9?k? 4 H }      ?rr?]rg?M:?drx?3#b.0@pCP§?&?Ӭ?承?]]>~D?ё8?u?"%Đ\񙿊7w-aңbejU?:ݵ?#a?զ@o->U+	v?u?(Ya9A?b.@f?eq@x:_9?^m ?8?:?fX?>t%?8a˔??C#?̜A?VATd?<ņ<4?峺C;?ݳ?5$iM`駿WW9[rb?>~<cPh!?*\xᒿ5LC4%ӷe  k?dݼꙿ,%%??w2<?[?>!V?GK7Ж'@3s /?WO@1e}?-G@.H?
d}? ?Up?a7G?~X?Y}Q?Aq2Ht?4a?b?يQ?w}Γ?Lݠ?׮?h2+ge?isc?~7m?>z\?>z\'-Bh
Sc q?bi0?UgΊ!y?.]s?>_D?S$Y1>                                                                                                                                                                                                                                                                                                                                                                                                                                                                                                                                                                                                                                                                                                                                                                                                                                        ư>                                                                                                                                                                                        Fr<|?-ῃꚒQv@? o6A?i!@s*%?\W@ZW<C_M?;a?9["z~bO?\<@u@u$aRުJ@ݶl}VF+r?·X@FN˗4[-@?l/8:@吊kP~I	\T@      ?aS @ stVwB?#iQ@C@)Н5?KEa?BG4??ka9?4i?=aj?(R+? w#<ڿUP{fm30yӿϞ?*?PY)?ץ@+?	"9>@?%&ʿ|YE'@pXW?Q\	T@eԴ ?.e@6G?$B?Mp?kqu?x[$r?7?Kzr?X2K?U`?Y(?:13>?2K&-ϦQQ|%%(["MpBe?"O} \O;G[%'տ8uhg6l>x6 @;l}&Dv?j7@?"`?f6	0?E|R^:@n?>Et!@Ä3x!?$!5e@<|?ę<I?dd K?l&k=
@(d=!@MS涧?V}>轈T?<>(?w7x݄?^<m?EN}(|?ls_?yߡ?`/8?	7%@~b?DF,rVbdǳ
mv*x#uZɐNjmt fs+	B۾m|yǰ^@˰T?%׬lܿ9wZ?@YIyfгW@AgM@㓴2J~9@|kBl@d=S˹V4?ҎD@~L# Zb??sn;Q@i0aEp;?ĻL?6c/.$?d*
?᪏bJS2+@@$Yu8@4ŞkcY@.wst?4t^	?      ?VA @p`ӿX}?nR@.(@x?-?zy}ձ?YO?qѳ?dn?"[DH	XS[:ϓϿ9FﭩZȿ?	pa?qYa?m/@E ??vIR?_?K}Zy廿50hW"@YReH?@6
@ki?KP @?xcJ-?L#?\d+?g?$qP?-J1?9?WMTSW?@R?G1hOi?bpV@^PoÿS-࿼0lf3`f+$7a3=fz(Aɿ qޟ޿ugO=A
6?;ۤ??'}a?]԰?s	FŖ?{Oxk4@ƤR?XHn@}?@.$̕?j)?7=?ded@^5:@tӧ?åy?P7?e?[?i]t?d_A?{g?6)?<{?Un+'@.?|A|݆Կq=-i'qm_ygM-ܵdohB3U|v"nT&Zƃ
@h?[ҐgM㿊lr?r͘]·U@ZyO^=?9 'k,	@x]wL-'ZN?'$
@v1? ?(u@5_
髑͓ڿ[of@nGCu:OM@>\uR"??y椭hn,@h@n;oU_@OԿhQcp|?      ?[Z@˃H;>?<@ZS	O@h\ G?M @{ymͲ?(X\?K<n?aG??0󪥿࿀oplؿMA|?lt?&+?g%[G>@䪁=?ܼ¤?vY?hVտCs-@X`?Tbsy@x-?6gqAT
@Z^.?*PS:?Q?>8Yə?ܣּg2?5?E`|+ ?V 01?XE_ƭ?%?FrU?2eK}$*7FĿ~oiTtI7^C<~;/1_
퀿ڿB'U-,xwB<W!@e&?k?wT?ˋ(?'rV4?LGwB@J
0q?^  (@ï?nM : @@<?ho?}ȯ?@[~D@O#Y?1Z)G?\:{?Uhlb?|{Ry?T?li?9?պ8?zvEl?s
8ݜ@hO,?A:"8Yuп?6jhMI%=@?$8++p`hh,kVݵ!@L@4ֿ@"K?WeiɆg;o!z@4s򿰑+'@9^^g?C^1@w$;DVf4]IiF@kpaǿEi; b^?㜠T(;F?3l?=87[$?F.?%/ԎbfT;?@3 @oe
(?=?H;u?|R
fe3?      ??űV|>q?rzҒ[??<@GFO*1??2CT%y?&cE?~x?ubB?j¿{{`ƿ܎g41jw1UnҶnNy?h?h^,?.@@)|?nSW?oX|?~ 84D@@ -?P^ݬ? u-*~?~Ц,? ^?[߁?xӏ?zٵ?o]`?Z0<?V):<?pQ]?V2?l2?4O!?1G+*п# b ӿ,sݼaw˿n9N ]~.LPwmF[-k%|&=r퟿pW?iWs-kZA?>?^?|9?f?t?I/8"@Yw?^XΦZ:@bn^?8ڇu?Ȅ^??(T?L99?#A?<M?g}?x$?Nrkg?Z<?t/׊?0ts?2Sc?!?[?˚%(4?jj8^?3
ܿ7Aÿ$om*mſ)¿w~!񂂇w7}`??ejC0U6TQ?,߁ $п,R@4k! {|?n{?Iu?8x5@qW&vj%@}W69?Ph E!>?r\}n#]he@!!<̮>
IZG?*n)@tҘsh^G?̪7Xg?B տXT&      ?Ӣ0o?2LSߦMJ~2?BZ}9f?0@pyc?CKr5?М"S?(?cKS?FX陖?(pUǿ78u%s9⺰ !"??~]?ss@)Y`?f}?|H܆?&?LMtLs@#_?")[?˺67?KqS?>]J?PHO?9bB&e?oơ?|\)?BRH?4n?L?Bd?D?P?$Ȅ#ԿμȲ|οed86/nlҽ\h'RwVOkŻ. ,%9}VS<?D/??Q&?/*l?#`z??="@KYS?$ýn	@ޑ@?<Cԁ @qب?ZǓr?*T?b7Z?`y[?R9?x0
H?o3]?=5x=̂?t#?r?3%-y?F/ĥ?bL?ix?퉞)9:?;2u?sο,+_*odsE{b<tߑʿ7]Ŵk%ؔ-`X8yPk?#ty?t3
I&Ir@{ʰ
lWB?[q?}Zj?2p?>Cr1?Rk @_bDuڻ?&K@vW^첨T?(J<@֯  v;?7A̸ ?{;
p?,	}?gi~ǂ@P!h?(dE-@?TV':?\h [?      ?)`(t@$'0ܿ3Q@?\&?;3@"fOL?3?,H?I?|l??PϝTSBTÿp/1_տfD_,οT"?_*?sb?Ys/@?LO ?5/)3?z=g̿m6#@w -?y}'
@B ڬ?tH @Dɳ?lq3?Lӷ?:>;?!+?%6
? /c|?]&y])?&?P??v?{&ԿR3` '濽HcQп).!.+L^o,6hsп,OS忬Uf긨T6@"c?>U?ce?ߘHfb?2a<C?[NOJk4@^Z?b{p@)q5?T%@;?<\TS?p/?@C@רM@Ld_6?4:Ȑ?ãݰ?W4Q?hA7?vF)?jL-?8v%Q?PD? i'?Rə@5fQ?*l"濤lμ$
?
̿~+3
/.~	OQ@[@[	j?8B/Ga۝?niT6|ڿIB8@ʁ[{HZ`Um?gؖ@N o6?[w@ڋǒi@Ү޿?@ea)NGMCyA?4#!"[fH?f\?0"4_Kn?|Q|P)t@Ԁ?qeJv?g>oُ?Wz ȸi      ?xc @wA*ؿ10?l5e?'"I@?!"?>>"?vQ?~${!?|w~?P$0-}j׿Ǖԩ;GԿTX?w]Hb?-4I?bX	@
?5x?&LL?* ɿ }!@47?5
@в?}(@Tit-?2l9? ea!?]R?vP+?0
C?=kCa?)jl?s?χ[g?0
O?> +pň6ѡEkoiVbB9+kVgtxNP4o CZQ>/S~%(տHi4WN/8⿔@\-Їs?f3?d%?"P?H5y?uVHĶ2@ř!]?K@)@?{t-@@T '?(+Ρ?z."?T@-˞@5!?pB3?S[?GËH?=?1c%=?/W? Ww?+Cc?O?Tԭ!@62?5(G
e<Pl-L zxwmD*~aKS>x]Pq|`eM@6A}?ٿ?0j׿5~㿉qc+w?<^8⿊[~:Ŵݿl:?{~a {m@a~P@<೶K:CjdD>Q@sV_,Z( i!/b.	(?I7ҿj޿u2+?Qҿmp3tq?Nrs@s6dyzNN?(X?̿      ?ԭiy? ov?epP?L,?.T@<}Т(??>eД?nq%?,9?61lKs??X[݆1- ?'N^P0voX?J+(?7O>U?]n@4?sR';?I?"AY?&)zM@y,?L?yP0?D:?]iҴ?gţ?h?%Ӷc?<Ʊo?]p?Hpn?m6R?LK?OU~:?K?A?LϪ,?F'0lQ`<Il\|?/t{I1,G?{N|.$KA·?4 ρvGbu?5?Zދ?u6?ٓPϫ?
c#k?(P`o+&{|@lrX??a4?&Q?= 7??SE?yZ+E?vo?-ћ1?{1?Kbd?+%tV7?iլQp?ss?u`?c*?]wͪ?%%S?˕Mg?cMz?Z	?NL?:ځfA?m4ПFio ?aU5"V ,?NaaNq?ljY?O ? ՕȠ?ʌ"?D>RкQO2U¿HH@P-,!i7?| 4V@~㪣Xd-?଄@nX@7hu.{@:jc W&ߎ?<FappX?V[|?@e7=^?߲oJAW+Gd(GBF5@ VR@SY
tN,e?qU?XDYko      ?2'?MY/ȿ3s?oP]?Cs@YY?ޚ@?wTo7?'G?9 ?xfN?^qؿhz?ÿCfȿGbj.=sDÿ5e?\UMH??GR@Vp?EEt?cZ$(?hƓ3@*p?#t@ڐ1?Y	?\NQ?uN?W? ,O u?A[?ECi?l?6?I0P;?_2q?p[(? Oҿ|\ؿ?"Ϳ?Ř8){A)IH[Oz'3rEƿ?n\ѿaP30+E*?^??wڬ?aji? 30m?MX-ڧ?A/@qd?--@(\?b@X3|?.)[W?Om?Ib @  X@<۸e2?<֐?wJ,r
?߿T?z?pM?$}?Oй_?^?='I?1I @|3x?n6,v⿛j~SҸIZp όPͿəaėK_䓘&>S@ma?}]~kbuQ@B2/-xYys࿫MT@]Vfn@Xp'?O7QV_οŏ@Q:o:/O@;I<连k@o[		Ewu@#E糩[j"'@F\(?elw!t]@f6F?CWcJg[	@J o0*?i)Ș?      ?hF@c7ʴmN mNz?$E?$w@r22dz?m@,?<:E?AVWS?'?xn7ÿ2Kluw8i忿sni߿Kr$ @C24昹??w[.@wJ?P?>!d?Dx]syjH0@=?j?E@<?*L@稟7}?r9?t?[ʹ?{S?,r>?x0-??Bz?2
?vY?,PBBqtZؿ&15Կ}Tԡ&\R*)1SI6^=~`	)+v!/QIU vLkVH̷1Au@V8?ɶ-}l?``M?B	]? W?J<=D@=xȬ?Ts<"+@E0)?nVd"@~?xm?¡?R')@	GS@%?l
> ?Ao?
W?9h?dL
@?#ո?? ?1} f˹? ?ق@D8*?e((+J:3S~CѿzԿ==h1};$)@M@W꿀ND:?`R?L&IW?S?Y*aE0?z31
"i+@+Ц@~XKPƄ|w@ͻhs3xNmտ(
]}tf	?$?~%'9#?!;?Կ5,ڛ9"
ة{sA? b @]by?˷?y4^ɄA22?      ?%Z??,f	!?;_?녻+H@؀yo?35?[F?Bq?d?C¡?,`?p|%?ҏcu/ſWU?AY?᱗Ie?^ ?r?U@OQ/?~y?
&o?#*?p,7@J|w?0?A@>͇?S4?_Zbz?3 ^5``?h~o`? ۨ Z?y ѺX?i.?#
~o?ᥖ˦2?䜾o?_Z?^a?Deq?'y&x³?W$BeG\`	?
4#a/|9?}aZK2X`?&ܻ:? 6=?l=nlayRI??X^.3p?%qr8?Sa^?hR?ov;bG|y@R_;?cIg?4QZ?Hj.?#Lh?R3^h?d
H-uRd?B?{*?OOц-?)B-x?2
@>JP?J]6>9C:Q?*eHE >0sNP?LcCXh?	MP?;q>Ѭ%?/'䟰?bݟ?Hח=zo?TW!SV%?S}eC?&0=E4jIټQ?IU@խmI*?dw?O1N?I|B@_@0@$In@F%#T@6	N?ڻ?7]?f6cW%@<_@5l@4Zی}۬G`^>.=L$ԓ<b࿜ U)@y'"z0@yap2@nm-@F\-@q[)@x@`B=?                |Io?rHw?iTs @fA	@/?	s( tjX@zZeXRK@?        @Yd;Mq@yxKpb!mbhޗi)@"~v                /-e@_/]zgL        LAc  #@~=wJ>ߧ9@I$W@@RpR@	=@vZtF;@VHVM{ +-2
S@3Z{@-07+{h@ YEe=B^YTA.䝹n@󃥾#@5.\^KlYQ@;}f@KP@$36@Ί&"UUgE@߷/?9r8jEXH@( /I@68J@XZ`&WE7*NC-`5`1α8@s)3@WՌ\FĚUv@@FbF@ t* (@@odd@OtgG./N4Z,>icOg|M@	.<˖YFC=R"9_@KIب:C^q0@BƉiP@@@SmՙQ@0Nd@0zW7,UZqxJ@N#%g腕C8@,:r%@A6@e*|0@'\.mN@e'W\0@h.\uG] K@#:@?KX?h?(3Ao?<e0?oe8?G',x?VY?`<''2?CRxa'F	klAJ099ZOѿ)C?gE@vD61&? J@뿕rͅnm?++h?                aa
@zoa@Ve޸ýOσ?Mʸ'@vg?sq"<GFA|)a@+B] "@:?        2ZR"nzr5@"<AU^ǛW:Tm                NgǢa"uVY@PK?@@        xb!Y@K\H,@=*R=js1 Z8@
D@'0%Ur;7OhT-j(3U@Fhu@1o$TR@M@
i0T&}gtxB=

NɌEzyL[@!l2f`ӄ%t@AbMs)uJ@❻G,N0GIX@j>2c@pJE6x@3+@H@,E
G@81I@nL?bCfdk@\9n#&I8F3fFr~(57x8WPĜ+<@,/pc;?!7@^>yŅaPRHL8@-eq3<TA@^@(mIfpa+-$?M2)P=d b- #xC56s!Ү0@1?ڱ9^6@3lM+@?T޿>A@&DkA=P*@pɠ3E@&*8;@0@\@ˈtq!@r2ADZ9dg;W(<K@>?OPl@J-AeS@]b$`Bk |j s; ?S>S&ʻaIY(;.8e?%A@T?HbT?3e~2?J@v9)rM? ^O6Lo0p=_M<,k6Cy                v?</b?U=Խzh ??)?K0N0ONo(W[@Ӳ$J(\@        Y5|d@(+@W|Uc@
E#u@1y6!+@                Jh3Cf@we{!^9@s5@        `G;Դ1@L V=c1uR1lgN|FYXE̠AN`U UlOP7@
8@+M~[gtVr0@LQ?p>HnKs@@̰(=c:xkL@JKU@33w?oG8HSP-GP@fJN<LDA?@WFOBPQ/b]+rfׁ]?ql0@%@K)@LJwd_kA@b*_Y@'"t/r_@\v`j`@ax@}'}$s39@ PAg(AdV
C@&ې	A!9@"X9sFc@}K<@8H@mEF@	,K ."G(Igh=N"2b
D@e(!;zEA쳉@@Q]/H.|fPRkFp5@/ra;S@y"@@OhWv-8I@Re.@X~j.oX~"IL@} qԪ2@<yDO@'#P DBZ;f4H-y#@ұ!#@O+)O @1g8K@Q@B|Ul? 9螌?hL?'Zd9=m ʷ76
ǐ?x?9@/@^+?6t?+;@k'DV@\#
Bbڿ_,VR#QX|0[c                ןI8?4$$濝q׽i=hɸ-1plS	Y/N\#G@w5QR?        QY*	S@T@Y+Q@M"Xe@o[N@d#U]1@                xЄb@|8N$<@        /;3C@Ҕ(@{=M#r㽖qkz#@aW[ڎ =2Ӯ4@,yU!}s[z@ِYoViu9^p1@<ZY0@9'UȔOc@Cd0?̽>y'qM@q-R@)(x=@./S8`{P	GSDN1\C\@x6k!3@jWdCX@V'J@ #V]Y8!-bS|kI@z.P@93@ˍÇCe{k{6zAp{X""޷@@{-Ŝ5 PL.<s<A1@>u&-x$@0*As<:!~=@ȨD20ȟ
(Ow?a@ρ6N<=p1sC@@?E@"qDW@fh@@ $XHRBO3@]5,N6\2{}(hV7GR*@V2 )@PE'~dHV00]'mID@М^Bv݇7@sO,@q7ܙ)D0J;r')ኲs@qR*'֛t?fml+Fa#(
Lp3aN)ma	M"|kLtȿG$+"bUzgC/
?
pVӿW,$vż#1ֿZF{@O"@"2@ke@b}>{@p]ԥ@Ş5?|'g)?                9Lz@{0?X)D=m^_?k?ٸ-/I@g4V4I@ t'@}C݉        ⟣!@w3dzcOh'I_@%TH@iݎH@ڶjH@                yoƒ5@Ⱦ75%7        =AwG2;7tm
=p>!kP h?eA@.A58&+=~o\a@Wi?`D@@XasV]SmjL@JaEC]Qjtqit@(rg[@CkgQZ*
$x赼^@[q*S5U}bXSWhݱAA@z)X=@+EAK^T@55a+m'lU`
)QޜJ@k^/O`@A&|$cPnD7`l|Ek&}@%ܧ@.W A@2(6F@hв%@Zy"0@Jg$8@#!\InEAav4@YN@%
iE}We@@V4N@rk#Gk͉&b@bI+@9@&rG@6h8?i-P]VJR@o協@k!K:Y?T?,\DA@vnc3C~r@@Ohq+eQ<Ċ?0 9@gHP@]5sP~0dS&@C)dMM&@<ͧ&Ko@4&@GS0Y""@jq@@@vp@byǫ?̯g?<){(@K	o"@h@OKu8@zu`j\gtտOS5ѿXT?U}z<=')*qު_@)5@GXa#@?                +#+/^_J!m޽2?[O$q kcr@v $csrDbdAW-@j	`@E2?        k~dCǍIct@gc<biz,_KK@jn3                A(M(X@>/E&<        U)A@%3@LUFG>cE>W`.~èa:}p`@#"e@홱uD3@gl{]@@=E?`Y%r'ro6}>-8n6A7Qss$Rb@Z܋0YK9u)[@AT@FΦ{SmL@p9
gmHsV@@5Kda@<3i_@ý\Y:*?d5\e+@H @MLB@P0򿮬-!-DSr!?]}[B@}r+><Xw>;
DQ@!L%@>sNh*BGlQ@'=L@v2K\@Em/@\w=dETo	A3C#b><~3!@FnM2@;U5@9n;#4@K6S@EOm822@qFe8@}NV@E>8x@!,@d\8@^q.
_@i^rOSxgiQOwP@[:J@@)D@$N5M6@[:}oy2d*bmWPvᏋƳUr >濿:o#f-0ϣn$F2:K 5 ^y[
G܊E!$@Y.}f3@7!0@Z)G/@af*@ӡF@@s!?                g.F @6J/@2[]I=
RX8
O@<?D@Z; A@-=@2rm1wg        9B|E7VM"zjGo`@5%USOPZͰ@                3F nsQt*:@RN@        K@QzAOe@*o=BG_I cP~XR%@F$0@QE{.P@'|@c	+@>X^[6@tgӴ,B@a\m@[FS-ɽK!N@uxdq6@ bI:@Or/@oѹpK(!@˓D wd_פGS@
er@83+>T@G36@ ;	-Nrg}[@B@]W_f@'3F[]bG(gg:J[,Shb[3@ĤI
?ܠɨ8@`U{j?5].B8ΤA_?B" K@zIPfH33@0mSVѽcza@45	-@?ѪC@"͝r<@Wbm;OU/^A#@t`J@~9YFlc@u3Y_CEoPs w1rE@TF}MlSC=׸@ouR[@ITxڟ0@Hڛ>ct<s@r&o[ƣ+ZvB	%(^3!z%
Ĭ8[ֿJǿP(# ؛1KADLV'Q0p"-q1#Z$Mpf??ŌH?^7$&@TԹ%@Ң-%@p"@Z켞@d@s(W?                YK%@K#,@j:=
7!M4Ŀm@6ĭ?0RC{d@5o
B7CcSk>Gӕ        T.T]"@]܏s@A&/8(n8Z@4^6@/;'                *`@p=P5,-$O@        L;@]HB%y=6T>z3:@ 8PMe\6&u`@ڋ'9a,x/h@Z@RSޤb,h>K,@/Mop@HEjm=Ѫ	>2'$gN'bevj1(@OO\a@yjt5M`S@|*@ɤ-^C@YL9Q@6I2wtbcg@@.I@j>K5@4문E^=7;ezs3@YLC)!hc@"-('@JI3m-@R] j>Kj22ht*@ucB Y\(@cR@F wE8h(@NE	@MZC$t @?I@lxRɱ\d@XtI@H@@[J<@A5@X.9IT
p̆4@m)h/ZV\t@eN@@[}逃QRߋ)ADZ<aG@̙O{89]~F`.@A;,W@C?@/3T@5a?/_-@M%?+(G?a!n3?,{?rMmJN?5ww?Jd&?Ρ?~,u
@T!?\M4@AoLz@1;/u?{zn?Li#?Y4)@:fS@G3
