elements: [W]
E0: [0]
deltaSplineBins: 0.001
embeddings:
  0: {ndensity: 8, FS_parameters: [1, 1, 1, 0.5, 1, 0.75, 1, 0.25, 1, 0.125, 1, 0.375, 1, 0.875, 1, 2], npoti: FinnisSinclairShiftedScaled, rho_core_cutoff: 1, drho_core_cutoff: 1}
bonds:
  [0, 0]: {nradmax: 3, lmax: 4, nradbasemax: 15, radbasename: SBessel, radparameters: [5.25], radcoefficients: [[[1.1809745179377962, -0.11128529813871396, -0.21199543464735429, 0.19230563225505604, 0.086452535060900851, -0.14400469183591019, 0.11985487198134895, 0.048616445421085556, -0.11619523451652192, 0.076103407352928185, -0.028295285094244008, -0.015527741146824989, -0.0046234525213373666, 0.009922019870595709, -0.016400902640448505], [1.2778081121025113, 0.2902459022635534, -0.069068104558929144, -0.16997676563669711, 0.08020748513184002, 0.088573983875481418, -0.099971003323424193, -0.06627395964200028, 0.0065610189818209128, -0.020697132285680833, 0.0083657064707290327, -0.011608770114893113, 0.033829087415948665, -0.028053004254409018, 0.02102320523680324], [0.67139893327107014, -0.26961121558825957, -0.092054912959798202, -0.12468960787853713, 0.088253388835852112, 0.16884080524820658, -0.098446609747599972, 0.019530520841327011, 0.09691386150481926, -0.1257216739022172, 0.064549869205257238, -0.0045808828945153087, -0.034772604975727449, 0.026229081620279621, -0.015186114336015265], [1.1834861122919447, 0.2721805162866297, 0.14710890724599707, -0.00010183953366528603, -0.16883480113108021, -0.40329523480348828, -0.35031789127225571, -0.0093118942330621193, 0.062966907077748172, -0.077733868993266092, -0.061445745970981673, -0.053538904706821253, 0.0095162059750396287, -0.07268196470702902, 0.041716964219452292], [1.2582904970500457, 0.41236869301446, 0.30395758820799068, 0.23555845260877853, 0.26815043942612399, 0.09937094325912546, -0.11993804943417845, -0.030702681230002703, 0.056561368898843528, -0.11034249987180214, -0.064774732854586042, 0.091450528673496595, -0.097115512575526988, 0.055144709458038149, -0.0050753819430950668]], [[0.6365249036791476, 1.1900300081951811, -0.71501248688748753, -0.28352291051204803, 0.3059762714141378, -0.093084094056259614, -0.13948732643004449, 0.2303374905181417, 0.0088792848377813004, -0.11322089785845059, 0.10477151164407263, -0.036770106837042481, -0.059699186592112319, 0.060542138828372796, -0.038424395986979241], [0.16036867516598366, 1.2831718188772201, 0.21235368728596829, 0.10167821770555036, 0.12377783196736566, 0.12985620461897968, 0.0040594581746038125, -0.057380589778871595, -0.009281588942634502, -0.043617933773737176, -0.020468434719518824, 0.10831451691736194, -0.087894182295429141, 0.045323001213282192, 0.008689126820254009], [0.14651091166695077, 1.158266487600718, 0.082309265578020999, 0.11455827903564519, 0.083941730706704548, -0.036205254611447066, -0.016667379315021037, 0.00037979831528068869, -0.083820174331388234, -0.016627801791504856, 0.049823284245050711, -0.043062340307642555, 0.059401259673805412, -0.031335025475914546, 0.036434000073220715], [-0.13375703978460943, 0.5165370144516922, -0.82138083871769607, -0.73078769662603704, -0.24071667569676322, 0.21171498382981563, 0.34815209177700179, 0.16093603763372721, -0.059537917779749552, 0.066886109025213802, 0.20481785506500713, -0.044010242487628949, -0.01787721749691026, 0.085641300000661835, -0.060212017255034583], [0.27134653860830699, 1.0634760641529175, -0.44257185121283432, -0.27064558586745996, 0.25760827175620038, 0.1893887455978546, -0.09701485844630689, -0.0027223818945882432, 0.06568382842682173, -0.079808431467968927, -0.049438233835068304, 0.085827659216559923, -0.090604573368674321, 0.05736241096035169, -0.017731610418739694]], [[0.093300035944496151, 0.11238833847084093, 0.97902359830319374, -0.13656871790842251, -0.15388075672824961, -0.15193274564141146, -0.044057526352178696, 0.11549836075372628, 0.02809970050626398, -0.082304409495193867, 0.041052140301680445, -0.058980448772787408, -0.091224829519899922, 0.10517944565861899, -0.057124646426498921], [-0.28575459111542134, -0.31694638668229846, 1.020692551801452, 0.062481866124981363, -0.25135319825701291, -0.20665446299256759, 0.0022737297047935234, -0.21559051193797332, -0.22976998451743863, 0.21908669984277493, 0.060766193705744168, -0.27883940432865367, 0.30315841855254699, -0.17845880268511544, 0.053203102097185047], [-0.20830529108002865, -0.26921291360145022, 0.78225364195697389, -0.42696957918526518, -0.60745013930699499, -0.22839908191497946, 0.25478004000395094, 0.17368473010355445, -0.07529607760842047, -0.0025599333126264745, 0.040677064131546627, -0.0091892109601332209, 0.11356300643731575, -0.080145560797441992, 0.098982525879667008], [-0.25988126585690252, -0.45224691065579947, 0.54698155648244939, -0.52577980198729701, -0.5746028962253027, -0.24558499321800342, 0.098333778603950234, 0.016706368582399943, -0.032271965096356887, 0.15482292667809339, 0.074885654766736587, -0.070577628453731833, 0.051915701029767128, -0.030534711649484313, -0.0069205807460117827], [0.27820985886457161, 0.42907870523972752, 1.1947892682749484, -0.065541139285137898, -0.039379427419376022, 0.014647479179128882, -0.039880835174711617, 0.0040745853269212448, 0.044179154628215082, -0.051361959187420626, -0.039373637222992856, 0.022477015738828151, 0.015755019258159069, 0.0087741069591227346, 0.012077222706854818]]], prehc: 1, lambdahc: 1, rcut: 5, dcut: 0.01, rcut_in: 2.0531195613991891, dcut_in: 0.10000000000000001, inner_cutoff_type: zbl}
functions:
  0:
    - {mu0: 0, rank: 1, ndensity: 8, num_ms_combs: 1, mus: [0], ns: [1], ls: [0], ms_combs: [0], ctildes: [-0.49478392910696756, -0.59036974345445781, -0.66446899210526544, -0.31178934038171502, -0.21125693788003527, -0.32614783912157441, -0.63537170996786108, -0.074887116552695504]}
    - {mu0: 0, rank: 1, ndensity: 8, num_ms_combs: 1, mus: [0], ns: [2], ls: [0], ms_combs: [0], ctildes: [-0.99177527813178146, -0.84008957101580783, -0.98883990531405819, -0.36631882895092321, -0.20369287909651212, -0.42139721876122149, -1.1917557027291992, 0.19891327741394221]}
    - {mu0: 0, rank: 1, ndensity: 8, num_ms_combs: 1, mus: [0], ns: [3], ls: [0], ms_combs: [0], ctildes: [-0.58840713034307601, -0.28761023077593728, -0.37292694232582585, 0.050175529444171557, 0.034962549873559567, -0.05705279312506787, -0.70651144627965323, 0.60728769869333754]}
    - {mu0: 0, rank: 1, ndensity: 8, num_ms_combs: 1, mus: [0], ns: [4], ls: [0], ms_combs: [0], ctildes: [0.3383375639763872, 0.15240796643817431, 0.14561824106394092, 0.24552092918809529, -0.043097406318441819, 0.16076581328648062, 0.19367710496049961, 0.26843445243002717]}
    - {mu0: 0, rank: 1, ndensity: 8, num_ms_combs: 1, mus: [0], ns: [5], ls: [0], ms_combs: [0], ctildes: [0.5274731896905871, -0.018422774541548913, -0.12994240439645138, -0.053860328346421085, -0.33766409302678485, 0.01795151767993524, 0.10911995325653945, -0.32645892973528379]}
    - {mu0: 0, rank: 1, ndensity: 8, num_ms_combs: 1, mus: [0], ns: [6], ls: [0], ms_combs: [0], ctildes: [0.056589156466420723, -0.086875507111494263, -0.25176731106168854, -0.26092521925065998, -0.19022386196301888, -0.091980037255261257, -0.51441389579500396, -0.052220283679288888]}
    - {mu0: 0, rank: 1, ndensity: 8, num_ms_combs: 1, mus: [0], ns: [7], ls: [0], ms_combs: [0], ctildes: [-0.17836251164321737, 0.13501476987511926, 0.15871087666636099, -0.065209904275304584, 0.26350715158906413, -0.11121896571178913, -0.40857285227571488, 0.28665154994018177]}
    - {mu0: 0, rank: 1, ndensity: 8, num_ms_combs: 1, mus: [0], ns: [8], ls: [0], ms_combs: [0], ctildes: [-0.20592118257492067, 0.025943617383614691, 0.26082896606207701, -0.010216038616664173, 0.28214908389103543, -0.37030523210851762, 0.10700661564491669, -0.08790665332083003]}
    - {mu0: 0, rank: 1, ndensity: 8, num_ms_combs: 1, mus: [0], ns: [9], ls: [0], ms_combs: [0], ctildes: [-0.054516234561223849, -0.22885505563892342, 0.046817784941432912, -0.17610783234950519, 0.0019518924754045137, -0.50743495859902044, 0.13790411846300094, -0.077572912446866052]}
    - {mu0: 0, rank: 1, ndensity: 8, num_ms_combs: 1, mus: [0], ns: [10], ls: [0], ms_combs: [0], ctildes: [0.25566180278012879, -0.099463112358914987, 0.08091923495434486, -0.19986343007894447, 0.0075074706797629946, -0.16476302570561072, -0.23445152147126661, 0.14973430672188215]}
    - {mu0: 0, rank: 1, ndensity: 8, num_ms_combs: 1, mus: [0], ns: [11], ls: [0], ms_combs: [0], ctildes: [0.31697343079210755, 0.032882818995733934, 0.051012483906893162, -0.12548971945937398, 0.067660845048654231, 0.14245214225869113, -0.44085214655839633, -0.15799706523284995]}
    - {mu0: 0, rank: 1, ndensity: 8, num_ms_combs: 1, mus: [0], ns: [12], ls: [0], ms_combs: [0], ctildes: [0.24195847585572916, -0.15848053358166725, -0.11441358987540831, -0.1879283158595183, -0.12567237721615926, 0.040155508060885171, -0.060405520438625696, 0.010923286065760389]}
    - {mu0: 0, rank: 1, ndensity: 8, num_ms_combs: 1, mus: [0], ns: [13], ls: [0], ms_combs: [0], ctildes: [0.022941672192354139, -0.13010342932437385, -0.023600142113444512, -0.15877564662505608, -0.12476083593569773, -0.10115272555584845, 0.25333950343382944, -0.025122087983332271]}
    - {mu0: 0, rank: 1, ndensity: 8, num_ms_combs: 1, mus: [0], ns: [14], ls: [0], ms_combs: [0], ctildes: [-0.20415960799027025, 0.1664717792237202, 0.086891976925623574, 0.05358245938001626, 0.18015678156971876, -0.071977943039358172, -0.046101700921878264, 0.026109485625432697]}
    - {mu0: 0, rank: 1, ndensity: 8, num_ms_combs: 1, mus: [0], ns: [15], ls: [0], ms_combs: [0], ctildes: [0.24966012465739557, -0.22629659012276815, -0.12427982064845618, -0.15768698408023213, -0.14957897036583814, -0.019193614823996012, -0.0018623543962807299, -0.019604843970599573]}
    - {mu0: 0, rank: 2, ndensity: 8, num_ms_combs: 1, mus: [0, 0], ns: [1, 1], ls: [0, 0], ms_combs: [0, 0], ctildes: [0.23681563737407021, 0.0047732001872832731, 0.009168159954451624, 0.0070504953511436735, -0.038827363140767797, 0.058198320991632468, 0.21949766987607086, 0.13578804486735285]}
    - {mu0: 0, rank: 2, ndensity: 8, num_ms_combs: 2, mus: [0, 0], ns: [1, 1], ls: [1, 1], ms_combs: [0, 0, 1, -1], ctildes: [0.36887920972392346, -0.018710842593166164, -0.14479701903898431, -0.083070627310620426, -0.14788559169690096, -0.049172595292718412, -0.025447224453699738, -0.33278266271122442, -0.73775841944784681, 0.037421685186332321, 0.28959403807796857, 0.1661412546212408, 0.29577118339380187, 0.098345190585436809, 0.05089444890739947, 0.66556532542244873]}
    - {mu0: 0, rank: 2, ndensity: 8, num_ms_combs: 3, mus: [0, 0], ns: [1, 1], ls: [2, 2], ms_combs: [0, 0, 1, -1, 2, -2], ctildes: [0.023799650032095047, -0.061127803020555427, -0.029006387802368867, -0.04389010547847387, -0.043753178519891314, -0.037572539985394331, 0.013601074773559998, -0.061467562987002518, -0.047599300064190102, 0.12225560604111087, 0.058012775604737742, 0.087780210956947755, 0.087506357039782642, 0.075145079970788661, -0.02720214954712, 0.12293512597400505, 0.047599300064190109, -0.1222556060411109, -0.058012775604737755, -0.087780210956947768, -0.087506357039782656, -0.075145079970788689, 0.027202149547120007, -0.12293512597400508]}
    - {mu0: 0, rank: 2, ndensity: 8, num_ms_combs: 4, mus: [0, 0], ns: [1, 1], ls: [3, 3], ms_combs: [0, 0, 1, -1, 2, -2, 3, -3], ctildes: [-0.0065421822103728863, -0.045276037559514315, 0.024814293067319949, -0.094655813075836412, -0.069659851610245779, -0.095068168567297634, -0.038744289330370586, 0.01187516612293747, 0.013084364420745773, 0.09055207511902863, -0.049628586134639899, 0.18931162615167282, 0.13931970322049156, 0.19013633713459527, 0.077488578660741173, -0.023750332245874941, -0.013084364420745771, -0.090552075119028616, 0.049628586134639892, -0.1893116261516728, -0.13931970322049153, -0.19013633713459524, -0.077488578660741159, 0.023750332245874937, 0.013084364420745771, 0.090552075119028616, -0.049628586134639892, 0.1893116261516728, 0.13931970322049153, 0.19013633713459524, 0.077488578660741159, -0.023750332245874937]}
    - {mu0: 0, rank: 2, ndensity: 8, num_ms_combs: 5, mus: [0, 0], ns: [1, 1], ls: [4, 4], ms_combs: [0, 0, 1, -1, 2, -2, 3, -3, 4, -4], ctildes: [0.12514272126631629, -0.13056835185462845, 0.02994085525071636, -0.041778421515613409, 0.047050355882796373, -0.061676196096295835, -0.086803850548869493, -0.015556728486801858, -0.25028544253263246, 0.26113670370925679, -0.059881710501432692, 0.083556843031226777, -0.094100711765592704, 0.12335239219259161, 0.1736077010977389, 0.031113456973603702, 0.25028544253263246, -0.26113670370925679, 0.059881710501432692, -0.083556843031226777, 0.094100711765592704, -0.12335239219259161, -0.1736077010977389, -0.031113456973603702, -0.25028544253263246, 0.26113670370925679, -0.059881710501432692, 0.083556843031226777, -0.094100711765592704, 0.12335239219259161, 0.1736077010977389, 0.031113456973603702, 0.25028544253263252, -0.26113670370925679, 0.059881710501432706, -0.083556843031226791, 0.094100711765592718, -0.12335239219259164, -0.17360770109773893, -0.031113456973603709]}
    - {mu0: 0, rank: 2, ndensity: 8, num_ms_combs: 1, mus: [0, 0], ns: [1, 2], ls: [0, 0], ms_combs: [0, 0], ctildes: [0.47079351050050572, -0.021777010300314099, -0.086055505194532617, -0.13254510947160239, -0.10959651034608303, 0.028457312745628717, 0.32494088138046179, 0.42610679277127844]}
    - {mu0: 0, rank: 2, ndensity: 8, num_ms_combs: 2, mus: [0, 0], ns: [1, 2], ls: [1, 1], ms_combs: [0, 0, 1, -1], ctildes: [0.18142327939016062, -0.041769645261093405, -0.047340740308676521, -0.0018471373153427814, -0.077315116697533479, -0.016601202363300552, -0.044139695829733899, 0.20475128811333523, -0.36284655878032118, 0.083539290522186796, 0.094681480617353014, 0.0036942746306855624, 0.15463023339506693, 0.033202404726601097, 0.088279391659467785, -0.40950257622667036]}
    - {mu0: 0, rank: 2, ndensity: 8, num_ms_combs: 3, mus: [0, 0], ns: [1, 2], ls: [2, 2], ms_combs: [0, 0, 1, -1, 2, -2], ctildes: [-0.00042917717112411812, -0.058682803251127028, 0.041359046303182649, -0.0061863926152824463, 0.023037050291701788, -0.008693579415303113, 0.034415073830698549, 0.17118097362847501, 0.00085835434224823634, 0.11736560650225407, -0.082718092606365312, 0.012372785230564894, -0.046074100583403582, 0.017387158830606229, -0.068830147661397112, -0.34236194725695007, -0.00085835434224823656, -0.1173656065022541, 0.082718092606365326, -0.012372785230564896, 0.046074100583403596, -0.017387158830606233, 0.068830147661397126, 0.34236194725695013]}
    - {mu0: 0, rank: 2, ndensity: 8, num_ms_combs: 4, mus: [0, 0], ns: [1, 2], ls: [3, 3], ms_combs: [0, 0, 1, -1, 2, -2, 3, -3], ctildes: [-0.040610370764871354, 0.08219569932454468, 0.18942395555070785, -0.07448588869808509, -0.080331624677634494, -0.023479311157137916, -0.16268887448784444, 0.0053541875704547007, 0.081220741529742707, -0.16439139864908936, -0.37884791110141569, 0.14897177739617018, 0.16066324935526899, 0.046958622314275833, 0.32537774897568889, -0.010708375140909401, -0.081220741529742693, 0.16439139864908936, 0.37884791110141564, -0.14897177739617015, -0.16066324935526896, -0.046958622314275826, -0.32537774897568883, 0.0107083751409094, 0.081220741529742693, -0.16439139864908936, -0.37884791110141564, 0.14897177739617015, 0.16066324935526896, 0.046958622314275826, 0.32537774897568883, -0.0107083751409094]}
    - {mu0: 0, rank: 2, ndensity: 8, num_ms_combs: 5, mus: [0, 0], ns: [1, 2], ls: [4, 4], ms_combs: [0, 0, 1, -1, 2, -2, 3, -3, 4, -4], ctildes: [-0.040847901439957986, -0.24598161628603069, -0.1043409192410493, -0.057373101577502764, 0.074591128497677725, -0.14337384555912674, -0.10218323364384758, 0.10246500255692834, 0.08169580287991593, 0.49196323257206115, 0.20868183848209848, 0.11474620315500547, -0.14918225699535539, 0.28674769111825338, 0.20436646728769506, -0.20493000511385656, -0.08169580287991593, -0.49196323257206115, -0.20868183848209848, -0.11474620315500547, 0.14918225699535539, -0.28674769111825338, -0.20436646728769506, 0.20493000511385656, 0.08169580287991593, 0.49196323257206115, 0.20868183848209848, 0.11474620315500547, -0.14918225699535539, 0.28674769111825338, 0.20436646728769506, -0.20493000511385656, -0.081695802879915944, -0.4919632325720612, -0.20868183848209854, -0.1147462031550055, 0.14918225699535542, -0.28674769111825338, -0.20436646728769509, 0.20493000511385662]}
    - {mu0: 0, rank: 2, ndensity: 8, num_ms_combs: 1, mus: [0, 0], ns: [1, 3], ls: [0, 0], ms_combs: [0, 0], ctildes: [0.77444569740931724, 0.32055973605381255, -0.056847708834384988, -0.011644040016501385, 0.036847345596899728, -0.026057247055116965, 0.18126333982025444, -0.3338495484423688]}
    - {mu0: 0, rank: 2, ndensity: 8, num_ms_combs: 2, mus: [0, 0], ns: [1, 3], ls: [1, 1], ms_combs: [0, 0, 1, -1], ctildes: [0.084026214281338191, 0.19174125475734841, 0.021985993588133204, 0.072090463592895435, -0.042834122516319371, 0.010763254515061963, 0.029901266528372526, 0.018977613926729021, -0.16805242856267633, -0.38348250951469676, -0.043971987176266401, -0.14418092718579084, 0.085668245032638729, -0.021526509030123923, -0.059802533056745037, -0.037955227853458035]}
    - {mu0: 0, rank: 2, ndensity: 8, num_ms_combs: 3, mus: [0, 0], ns: [1, 3], ls: [2, 2], ms_combs: [0, 0, 1, -1, 2, -2], ctildes: [-0.1801857117175614, 0.055228864253471725, 0.19463571544999433, 0.059251121797324953, 0.067340670146258372, 0.083355732514463945, 0.1044785622738562, -0.053019956015300108, 0.36037142343512285, -0.11045772850694346, -0.38927143089998872, -0.11850224359464992, -0.13468134029251674, -0.16671146502892792, -0.20895712454771243, 0.10603991203060023, -0.36037142343512296, 0.11045772850694349, 0.38927143089998878, 0.11850224359464995, 0.1346813402925168, 0.16671146502892795, 0.20895712454771248, -0.10603991203060026]}
    - {mu0: 0, rank: 2, ndensity: 8, num_ms_combs: 4, mus: [0, 0], ns: [1, 3], ls: [3, 3], ms_combs: [0, 0, 1, -1, 2, -2, 3, -3], ctildes: [0.14120240005216983, 0.097581884814450362, 0.0087283287348860986, -0.022188425188332035, 0.0029422289627000333, 0.0082788040873844927, -0.070218935494205853, -0.035218548391172715, -0.28240480010433966, -0.19516376962890072, -0.017456657469772197, 0.04437685037666407, -0.0058844579254000665, -0.016557608174768985, 0.14043787098841171, 0.070437096782345429, 0.28240480010433966, 0.1951637696289007, 0.017456657469772194, -0.044376850376664063, 0.0058844579254000657, 0.016557608174768982, -0.14043787098841171, -0.070437096782345415, -0.28240480010433966, -0.1951637696289007, -0.017456657469772194, 0.044376850376664063, -0.0058844579254000657, -0.016557608174768982, 0.14043787098841171, 0.070437096782345415]}
    - {mu0: 0, rank: 2, ndensity: 8, num_ms_combs: 5, mus: [0, 0], ns: [1, 3], ls: [4, 4], ms_combs: [0, 0, 1, -1, 2, -2, 3, -3, 4, -4], ctildes: [-0.073488309591383499, -0.07939837622339993, 0.10399469653983036, -0.0049716455490494867, 0.0012034126982297558, 0.02545017792321402, -0.080417420042894011, 0.024834112424421149, 0.14697661918276692, 0.15879675244679978, -0.20798939307966061, 0.0099432910980989681, -0.0024068253964595102, -0.050900355846428019, 0.16083484008578794, -0.049668224848842271, -0.14697661918276692, -0.15879675244679978, 0.20798939307966061, -0.0099432910980989681, 0.0024068253964595102, 0.050900355846428019, -0.16083484008578794, 0.049668224848842271, 0.14697661918276692, 0.15879675244679978, -0.20798939307966061, 0.0099432910980989681, -0.0024068253964595102, -0.050900355846428019, 0.16083484008578794, -0.049668224848842271, -0.14697661918276694, -0.1587967524467998, 0.20798939307966063, -0.0099432910980989699, 0.0024068253964595106, 0.050900355846428026, -0.16083484008578797, 0.049668224848842285]}
    - {mu0: 0, rank: 2, ndensity: 8, num_ms_combs: 1, mus: [0, 0], ns: [2, 2], ls: [0, 0], ms_combs: [0, 0], ctildes: [0.39562479706531034, -0.23172851422156676, -0.44514056414326963, -0.62111932808675574, -0.25284857169538105, -0.20202992155405619, 0.19385319899741807, 0.032978235732751847]}
    - {mu0: 0, rank: 2, ndensity: 8, num_ms_combs: 2, mus: [0, 0], ns: [2, 2], ls: [1, 1], ms_combs: [0, 0, 1, -1], ctildes: [0.11854303371196841, -0.1547029167863537, -0.16630944458637989, 0.010029227642497619, -0.073830905575328065, -0.085693987788389769, -0.13060110210653195, 0.11277741757663415, -0.23708606742393676, 0.30940583357270734, 0.33261888917275967, -0.020058455284995235, 0.1476618111506561, 0.17138797557677951, 0.26120220421306384, -0.22555483515326824]}
    - {mu0: 0, rank: 2, ndensity: 8, num_ms_combs: 3, mus: [0, 0], ns: [2, 2], ls: [2, 2], ms_combs: [0, 0, 1, -1, 2, -2], ctildes: [-0.0074913031156678585, -0.037010571486785833, -0.0081642631227376011, 0.041293746861539374, 0.024352129276985612, -0.011021961034744426, -0.13523333850959529, 0.10282210608436206, 0.014982606231335719, 0.074021142973571666, 0.016328526245475206, -0.082587493723078748, -0.04870425855397123, 0.022043922069488856, 0.27046667701919064, -0.20564421216872414, -0.014982606231335722, -0.074021142973571694, -0.016328526245475209, 0.082587493723078775, 0.048704258553971237, -0.02204392206948886, -0.27046667701919069, 0.20564421216872417]}
    - {mu0: 0, rank: 2, ndensity: 8, num_ms_combs: 4, mus: [0, 0], ns: [2, 2], ls: [3, 3], ms_combs: [0, 0, 1, -1, 2, -2, 3, -3], ctildes: [-0.1192348318523604, 0.034039857201712743, 0.091397650164706329, -0.035266326944177029, -0.0088275740481444029, -0.10424355172093837, 0.075376606966723617, 0.0014546760291291134, 0.23846966370472081, -0.068079714403425487, -0.18279530032941266, 0.070532653888354058, 0.017655148096288806, 0.20848710344187674, -0.15075321393344723, -0.0029093520582582268, -0.23846966370472078, 0.068079714403425473, 0.18279530032941263, -0.070532653888354044, -0.017655148096288802, -0.20848710344187671, 0.15075321393344721, 0.0029093520582582264, 0.23846966370472078, -0.068079714403425473, -0.18279530032941263, 0.070532653888354044, 0.017655148096288802, 0.20848710344187671, -0.15075321393344721, -0.0029093520582582264]}
    - {mu0: 0, rank: 2, ndensity: 8, num_ms_combs: 5, mus: [0, 0], ns: [2, 2], ls: [4, 4], ms_combs: [0, 0, 1, -1, 2, -2, 3, -3, 4, -4], ctildes: [0.0045518644599727414, -0.16750852168910013, 0.0059169061464495144, -0.075987906568599717, 0.01615801423118109, -0.10142134540992444, 0.090403332961807664, -0.039954219189290471, -0.0091037289199454793, 0.3350170433782001, -0.011833812292899024, 0.15197581313719935, -0.032316028462362166, 0.20284269081984876, -0.18080666592361525, 0.079908438378580901, 0.0091037289199454793, -0.3350170433782001, 0.011833812292899024, -0.15197581313719935, 0.032316028462362166, -0.20284269081984876, 0.18080666592361525, -0.079908438378580901, -0.0091037289199454793, 0.3350170433782001, -0.011833812292899024, 0.15197581313719935, -0.032316028462362166, 0.20284269081984876, -0.18080666592361525, 0.079908438378580901, 0.0091037289199454793, -0.33501704337820015, 0.011833812292899025, -0.15197581313719938, 0.032316028462362173, -0.20284269081984879, 0.18080666592361527, -0.079908438378580915]}
    - {mu0: 0, rank: 2, ndensity: 8, num_ms_combs: 1, mus: [0, 0], ns: [2, 3], ls: [0, 0], ms_combs: [0, 0], ctildes: [0.56128180228577962, 0.35129885498337371, -0.4542052708484447, -0.17334168698039099, 0.15936711728137209, -0.24233233192373463, -0.48054149056571821, -0.031580203760871693]}
    - {mu0: 0, rank: 2, ndensity: 8, num_ms_combs: 2, mus: [0, 0], ns: [2, 3], ls: [1, 1], ms_combs: [0, 0, 1, -1], ctildes: [0.0048508838715941175, -0.020522184545881998, -0.072605268734953987, 0.032166504009445443, -0.064690187148336908, -0.030558366221594045, -0.0045230919594705489, -0.0096929941529355496, -0.0097017677431882332, 0.041044369091763983, 0.14521053746990795, -0.064333008018890872, 0.12938037429667379, 0.061116732443188077, 0.0090461839189410961, 0.019385988305871096]}
    - {mu0: 0, rank: 2, ndensity: 8, num_ms_combs: 3, mus: [0, 0], ns: [2, 3], ls: [2, 2], ms_combs: [0, 0, 1, -1, 2, -2], ctildes: [-0.047905891469983933, 0.059269721235147926, 0.12292869746438352, 0.055011100533065273, 0.013240665939812057, 0.025486965773251751, -0.064876140395509457, 0.00025418505006607513, 0.095811782939967866, -0.11853944247029587, -0.24585739492876707, -0.11002220106613056, -0.026481331879624117, -0.050973931546503509, 0.12975228079101894, -0.00050837010013215036, -0.095811782939967893, 0.11853944247029591, 0.24585739492876713, 0.11002220106613059, 0.02648133187962412, 0.050973931546503516, -0.12975228079101897, 0.00050837010013215047]}
    - {mu0: 0, rank: 2, ndensity: 8, num_ms_combs: 4, mus: [0, 0], ns: [2, 3], ls: [3, 3], ms_combs: [0, 0, 1, -1, 2, -2, 3, -3], ctildes: [0.26034882136618021, -0.035548280107223024, -0.029270589633335072, 0.035377420857887365, 0.074319607609770175, -0.02516572104215075, -0.2023148337699836, -0.027185962665401547, -0.52069764273236041, 0.071096560214446047, 0.058541179266670143, -0.07075484171577473, -0.14863921521954035, 0.0503314420843015, 0.40462966753996721, 0.054371925330803095, 0.5206976427323603, -0.071096560214446033, -0.058541179266670136, 0.070754841715774716, 0.14863921521954035, -0.050331442084301493, -0.40462966753996715, -0.054371925330803088, -0.5206976427323603, 0.071096560214446033, 0.058541179266670136, -0.070754841715774716, -0.14863921521954035, 0.050331442084301493, 0.40462966753996715, 0.054371925330803088]}
    - {mu0: 0, rank: 2, ndensity: 8, num_ms_combs: 5, mus: [0, 0], ns: [2, 3], ls: [4, 4], ms_combs: [0, 0, 1, -1, 2, -2, 3, -3, 4, -4], ctildes: [0.035821841049200151, 0.27727790220325099, 0.13878810268259942, -0.087318199086938206, -0.16804086185233558, 0.066493658501035571, -0.0044464724742508703, -0.050964462081872934, -0.071643682098400274, -0.55455580440650176, -0.27757620536519867, 0.17463639817387633, 0.33608172370467099, -0.13298731700207106, 0.0088929449485017353, 0.10192892416374583, 0.071643682098400274, 0.55455580440650176, 0.27757620536519867, -0.17463639817387633, -0.33608172370467099, 0.13298731700207106, -0.0088929449485017353, -0.10192892416374583, -0.071643682098400274, -0.55455580440650176, -0.27757620536519867, 0.17463639817387633, 0.33608172370467099, -0.13298731700207106, 0.0088929449485017353, 0.10192892416374583, 0.071643682098400274, 0.55455580440650176, 0.27757620536519872, -0.17463639817387636, -0.33608172370467104, 0.13298731700207109, -0.0088929449485017371, -0.10192892416374584]}
    - {mu0: 0, rank: 2, ndensity: 8, num_ms_combs: 1, mus: [0, 0], ns: [3, 3], ls: [0, 0], ms_combs: [0, 0], ctildes: [0.39751433259194935, -0.15498739541103168, -0.44505586995714119, -0.030627973496326847, -0.13040600630415788, -0.43027846462344627, -0.41509085002388169, -0.0080650293432167949]}
    - {mu0: 0, rank: 2, ndensity: 8, num_ms_combs: 2, mus: [0, 0], ns: [3, 3], ls: [1, 1], ms_combs: [0, 0, 1, -1], ctildes: [-0.21344356770990452, -0.43482025563107674, 0.14546812402877349, -0.0014067646695127723, 0.053657972672965883, -0.0032967255976464795, 0.19354403123616865, 0.024187014189208971, 0.42688713541980899, 0.86964051126215336, -0.29093624805754692, 0.0028135293390255441, -0.10731594534593175, 0.0065934511952929573, -0.38708806247233718, -0.048374028378417935]}
    - {mu0: 0, rank: 2, ndensity: 8, num_ms_combs: 3, mus: [0, 0], ns: [3, 3], ls: [2, 2], ms_combs: [0, 0, 1, -1, 2, -2], ctildes: [0.16668313662944709, -0.10369254665375642, 0.0053196334914864443, -0.013988631404420266, 0.048404999880574694, -0.10323304532866891, -0.21455583485715018, -0.0049615809988250801, -0.33336627325889417, 0.20738509330751284, -0.01063926698297289, 0.027977262808840535, -0.096809999761149401, 0.20646609065733784, 0.42911166971430043, 0.0099231619976501619, 0.33336627325889429, -0.2073850933075129, 0.010639266982972894, -0.027977262808840542, 0.096809999761149429, -0.20646609065733787, -0.42911166971430054, -0.0099231619976501637]}
    - {mu0: 0, rank: 2, ndensity: 8, num_ms_combs: 4, mus: [0, 0], ns: [3, 3], ls: [3, 3], ms_combs: [0, 0, 1, -1, 2, -2, 3, -3], ctildes: [-0.021388052425514146, -0.042093305742407515, -0.040595432289727493, -0.10947080849394845, -0.04753255840067927, 0.0043322959893160474, -0.010478231773811965, 0.020666365487757354, 0.042776104851028292, 0.08418661148481503, 0.081190864579454985, 0.21894161698789691, 0.09506511680135854, -0.0086645919786320948, 0.02095646354762393, -0.041332730975514709, -0.042776104851028285, -0.084186611484815016, -0.081190864579454985, -0.21894161698789688, -0.095065116801358526, 0.008664591978632093, -0.020956463547623927, 0.041332730975514702, 0.042776104851028285, 0.084186611484815016, 0.081190864579454985, 0.21894161698789688, 0.095065116801358526, -0.008664591978632093, 0.020956463547623927, -0.041332730975514702]}
    - {mu0: 0, rank: 2, ndensity: 8, num_ms_combs: 5, mus: [0, 0], ns: [3, 3], ls: [4, 4], ms_combs: [0, 0, 1, -1, 2, -2, 3, -3, 4, -4], ctildes: [0.013652430398138061, 0.030970030293620048, 0.23374288104765178, -0.028117085689351069, -0.073946365713046636, -0.1180668279553285, -0.18835497597429671, 0.012324621308994999, -0.027304860796276108, -0.061940060587240067, -0.46748576209530335, 0.056234171378702111, 0.14789273142609319, 0.23613365591065688, 0.37670995194859325, -0.024649242617989984, 0.027304860796276108, 0.061940060587240067, 0.46748576209530335, -0.056234171378702111, -0.14789273142609319, -0.23613365591065688, -0.37670995194859325, 0.024649242617989984, -0.027304860796276108, -0.061940060587240067, -0.46748576209530335, 0.056234171378702111, 0.14789273142609319, 0.23613365591065688, 0.37670995194859325, -0.024649242617989984, 0.027304860796276115, 0.061940060587240081, 0.46748576209530346, -0.056234171378702125, -0.14789273142609322, -0.23613365591065694, -0.3767099519485933, 0.024649242617989987]}
    - {mu0: 0, rank: 3, ndensity: 8, num_ms_combs: 1, mus: [0, 0, 0], ns: [1, 1, 1], ls: [0, 0, 0], ms_combs: [0, 0, 0], ctildes: [-0.099170971201160432, -0.029522045622136863, 0.054527561757082073, 0.2101692964461081, 0.088581428634364592, 0.17478515707470532, 0.13236385258769101, -0.14018188715008187]}
    - {mu0: 0, rank: 3, ndensity: 8, num_ms_combs: 2, mus: [0, 0, 0], ns: [1, 1, 1], ls: [0, 1, 1], ms_combs: [0, 0, 0, 0, 1, -1], ctildes: [-0.12921978469538772, 0.030746092153268418, -0.025848107952860813, 0.017122946996112748, -0.031998118145319887, 0.061495910838879619, -0.074121939836414491, 0.070190929600707788, 0.25843956939077539, -0.061492184306536822, 0.051696215905721619, -0.034245893992225489, 0.063996236290639774, -0.12299182167775921, 0.14824387967282895, -0.14038185920141555]}
    - {mu0: 0, rank: 3, ndensity: 8, num_ms_combs: 3, mus: [0, 0, 0], ns: [1, 1, 1], ls: [0, 2, 2], ms_combs: [0, 0, 0, 0, 1, -1, 0, 2, -2], ctildes: [-0.04239385472600693, -0.038518803466711021, 0.049167128708837084, -0.012302215491010638, -0.01836069356687068, -0.0015613478561042695, 0.087357613762700417, -0.24260531856784784, 0.084787709452013874, 0.077037606933422043, -0.098334257417674181, 0.02460443098202128, 0.036721387133741366, 0.0031226957122085395, -0.17471522752540086, 0.48521063713569573, -0.084787709452013901, -0.07703760693342207, 0.098334257417674209, -0.024604430982021284, -0.036721387133741373, -0.00312269571220854, 0.17471522752540089, -0.48521063713569584]}
    - {mu0: 0, rank: 3, ndensity: 8, num_ms_combs: 4, mus: [0, 0, 0], ns: [1, 1, 1], ls: [1, 1, 2], ms_combs: [-1, 1, 0, 0, 0, 0, 0, 1, -1, 1, 1, -2], ctildes: [-0.0068153058083241271, 0.026543857123253516, -0.030647196671850337, -0.022398549707105898, -0.032874226854699276, -0.0066954031923349179, -0.04502437351237791, 0.075333297476811514, -0.0068153058083241253, 0.026543857123253512, -0.03064719667185033, -0.022398549707105895, -0.032874226854699269, -0.006695403192334917, -0.045024373512377903, 0.0753332974768115, 0.023608911858273331, -0.09195061833264831, 0.10616500349040119, 0.077590852217128831, 0.11387966234376873, 0.023193557012565872, 0.15596900500479388, -0.2609621974630757, -0.016694021671420568, 0.065018905757311701, -0.075069993892756176, -0.05486501776077507, -0.080525081482513194, -0.016400321443422131, -0.11028674109380833, 0.18452813945948371]}
    - {mu0: 0, rank: 3, ndensity: 8, num_ms_combs: 5, mus: [0, 0, 0], ns: [1, 1, 1], ls: [2, 2, 2], ms_combs: [-2, 0, 2, -2, 1, 1, -1, -1, 2, -1, 0, 1, 0, 0, 0], ctildes: [0.23546396970580102, 0.18815959493917453, -0.049770163184992187, 0.054497569454611546, 0.071689278420303246, 0.062336507194407635, 0.016894216221714029, -0.067722471254368755, -0.19225552619645619, -0.15363166593658184, 0.040637168072761097, -0.044497079128561601, -0.0585340507193534, -0.050897544991210422, -0.013794069782483228, 0.055295166231168293, -0.096127763098228097, -0.07681583296829092, 0.020318584036380549, -0.0222485395642808, -0.0292670253596767, -0.025448772495605211, -0.0068970348912416142, 0.027647583115584146, 0.11773198485290048, 0.094079797469587237, -0.024885081592496083, 0.027248784727305766, 0.035844639210151609, 0.031168253597203807, 0.0084471081108570111, -0.03386123562718437, -0.039243994950966823, -0.031359932489862408, 0.0082950271974986944, -0.0090829282424352547, -0.011948213070050536, -0.010389417865734602, -0.0028157027036190036, 0.011287078542394788]}
    - {mu0: 0, rank: 3, ndensity: 8, num_ms_combs: 1, mus: [0, 0, 0], ns: [1, 1, 2], ls: [0, 0, 0], ms_combs: [0, 0, 0], ctildes: [-0.14268050862323142, -0.052014976679988618, -0.030661407785131274, 0.2820683622038464, 0.074604644393446412, 0.23483415586387349, 0.088005027620815135, -0.40587654076316382]}
    - {mu0: 0, rank: 3, ndensity: 8, num_ms_combs: 2, mus: [0, 0, 0], ns: [1, 1, 2], ls: [0, 1, 1], ms_combs: [0, 0, 0, 0, 1, -1], ctildes: [-0.051736978913698037, 0.0041575189294955394, 0.0061400696502365579, 0.0015034045420883064, -0.012692513580887214, -0.0026577122790483079, -0.14244754142434435, -0.0035707820716155184, 0.10347395782739605, -0.008315037858991077, -0.012280139300473114, -0.0030068090841766119, 0.025385027161774421, 0.0053154245580966149, 0.28489508284868864, 0.0071415641432310351]}
    - {mu0: 0, rank: 3, ndensity: 8, num_ms_combs: 3, mus: [0, 0, 0], ns: [1, 1, 2], ls: [0, 2, 2], ms_combs: [0, 0, 0, 0, 1, -1, 0, 2, -2], ctildes: [-0.0057144187751657473, -0.014294547109348301, 0.013277195761447664, -0.00562873542124483, 0.0071813775797191642, -0.0044812814713138015, -1.9633715930974457e-05, -0.030503541909089982, 0.011428837550331496, 0.028589094218696605, -0.026554391522895331, 0.011257470842489662, -0.01436275515943833, 0.008962562942627603, 3.9267431861948921e-05, 0.061007083818179972, -0.011428837550331498, -0.028589094218696612, 0.026554391522895338, -0.011257470842489665, 0.014362755159438334, -0.0089625629426276065, -3.9267431861948934e-05, -0.061007083818179986]}
    - {mu0: 0, rank: 3, ndensity: 8, num_ms_combs: 2, mus: [0, 0, 0], ns: [1, 1, 2], ls: [1, 1, 0], ms_combs: [0, 0, 0, 1, -1, 0], ctildes: [-0.052973602244497819, 0.15155044555393196, 0.046571170997573498, 0.040154677143863705, -0.069449365136842259, 0.18684108663353075, -0.014697622431059848, 0.056582434571657715, 0.10594720448899562, -0.30310089110786387, -0.093142341995146982, -0.080309354287727397, 0.13889873027368449, -0.37368217326706138, 0.029395244862119689, -0.1131648691433154]}
    - {mu0: 0, rank: 3, ndensity: 8, num_ms_combs: 4, mus: [0, 0, 0], ns: [1, 1, 2], ls: [1, 1, 2], ms_combs: [-1, 1, 0, 0, 0, 0, 0, 1, -1, 1, 1, -2], ctildes: [-0.24257558979582641, -0.15051729738061023, 0.058602243722670241, 0.014578473253020233, -0.0015250167289561087, -0.0089251014512369293, 0.05270952386065287, 0.098668182862280226, -0.24257558979582639, -0.1505172973806102, 0.058602243722670228, 0.014578473253020231, -0.0015250167289561085, -0.0089251014512369276, 0.052709523860652863, 0.098668182862280213, 0.84030649240471578, 0.52140721296234172, -0.20300412713039834, -0.050501312742029951, 0.0052828129138889528, 0.030917458352498168, -0.18259114673882965, -0.34179661161593228, -0.59418641905445668, -0.36869057604525018, 0.14354559490276067, 0.03570982069871198, -0.0037355128351507436, -0.021861944458104122, 0.12911143804365441, 0.24168670186021043]}
    - {mu0: 0, rank: 3, ndensity: 8, num_ms_combs: 5, mus: [0, 0, 0], ns: [1, 1, 2], ls: [1, 2, 1], ms_combs: [0, 0, 0, 0, 1, -1, 1, -2, 1, 1, -1, 0, 1, 0, -1], ctildes: [-0.14200678982508322, 0.0026349921619477218, -0.056853812108631809, -0.00092553563073268755, -0.0048909899185316961, -0.00037873357457728226, -0.13387600107842917, 0.063681878054581059, 0.2459629749967992, -0.0045639403020392138, 0.09847369117612495, 0.0016030747366443218, 0.0084714430382040618, 0.00065598579370002941, 0.23188003578198516, -0.11030024831193989, -0.34784417508210785, 0.0064543862730050156, -0.13926282959821565, -0.0022670900340600771, -0.01198042963749932, -0.00092770400617466072, -0.32792789144644191, 0.15598810709586547, 0.2459629749967992, -0.0045639403020392138, 0.09847369117612495, 0.0016030747366443218, 0.0084714430382040618, 0.00065598579370002941, 0.23188003578198516, -0.11030024831193989, -0.14200678982508319, 0.0026349921619477218, -0.056853812108631802, -0.00092553563073268744, -0.0048909899185316952, -0.0003787335745772822, -0.13387600107842915, 0.063681878054581045]}
    - {mu0: 0, rank: 3, ndensity: 8, num_ms_combs: 3, mus: [0, 0, 0], ns: [1, 1, 2], ls: [2, 2, 0], ms_combs: [0, 0, 0, 1, -1, 0, 2, -2, 0], ctildes: [-0.19421397983864666, -0.074059141851459009, 0.024964983465140318, -0.03963485877290078, -0.045825362052548085, -0.018448181967964761, 0.092357662518197506, 0.084264449482328765, 0.38842795967729332, 0.14811828370291805, -0.049929966930280643, 0.079269717545801574, 0.091650724105096185, 0.036896363935929523, -0.18471532503639504, -0.16852889896465756, -0.38842795967729343, -0.14811828370291807, 0.049929966930280657, -0.079269717545801588, -0.091650724105096212, -0.036896363935929537, 0.18471532503639507, 0.16852889896465759]}
    - {mu0: 0, rank: 3, ndensity: 8, num_ms_combs: 8, mus: [0, 0, 0], ns: [1, 1, 2], ls: [2, 2, 2], ms_combs: [-2, 1, 1, -2, 2, 0, -1, 1, 0, -1, 2, -1, 0, 0, 0, 0, 1, -1, 0, 2, -2, 1, 1, -2], ctildes: [0.0084319723352357448, 0.024062750239145118, 0.0034215956394361355, 0.0020605868913695247, -0.00291052796336834, 0.0074484543607496118, -0.0021191574591157263, -0.03610508481414855, -0.006884676582197157, -0.019647153297979805, -0.0027937211409168202, -0.0016824621515077083, 0.0023764361307847871, -0.0060816375187482674, 0.0017302848198154773, 0.029479678304857846, -0.0034423382910985785, -0.0098235766489899023, -0.0013968605704584101, -0.00084123107575385415, 0.0011882180653923935, -0.0030408187593741337, 0.00086514240990773867, 0.014739839152428923, 0.0084319723352357448, 0.024062750239145118, 0.0034215956394361355, 0.0020605868913695247, -0.00291052796336834, 0.0074484543607496118, -0.0021191574591157263, -0.03610508481414855, 0.0034423382910985785, 0.0098235766489899023, 0.0013968605704584101, 0.00084123107575385415, -0.0011882180653923935, 0.0030408187593741337, -0.00086514240990773867, -0.014739839152428923, -0.006884676582197157, -0.019647153297979805, -0.0027937211409168202, -0.0016824621515077083, 0.0023764361307847871, -0.0060816375187482674, 0.0017302848198154773, 0.029479678304857846, -0.013769353164394323, -0.039294306595959637, -0.0055874422818336439, -0.0033649243030154184, 0.0047528722615695768, -0.012163275037496543, 0.0034605696396309569, 0.058959356609715727, 0.0084319723352357448, 0.024062750239145118, 0.0034215956394361355, 0.0020605868913695247, -0.00291052796336834, 0.0074484543607496118, -0.0021191574591157263, -0.03610508481414855]}
    - {mu0: 0, rank: 3, ndensity: 8, num_ms_combs: 1, mus: [0, 0, 0], ns: [1, 2, 2], ls: [0, 0, 0], ms_combs: [0, 0, 0], ctildes: [0.21809973677916239, 0.010579150484977696, -0.0018330635400245056, 0.27048659891096377, 0.0092017069744599975, 0.23995614410628791, 0.19300111691516791, 0.042837714356893243]}
    - {mu0: 0, rank: 3, ndensity: 8, num_ms_combs: 2, mus: [0, 0, 0], ns: [1, 2, 2], ls: [0, 1, 1], ms_combs: [0, 0, 0, 0, 1, -1], ctildes: [0.0016582790464451447, -0.1061135930682543, 0.058645953075153683, 0.0030877269582411482, 0.0080407160366496068, -0.053762722519799654, 0.073928413470458434, -0.15661070306686095, -0.003316558092890289, 0.21222718613650854, -0.11729190615030735, -0.0061754539164822955, -0.01608143207329921, 0.10752544503959928, -0.14785682694091684, 0.31322140613372185]}
    - {mu0: 0, rank: 3, ndensity: 8, num_ms_combs: 3, mus: [0, 0, 0], ns: [1, 2, 2], ls: [0, 2, 2], ms_combs: [0, 0, 0, 0, 1, -1, 0, 2, -2], ctildes: [-0.056051798426340185, -0.05800181828316462, 0.032053222349285655, -0.0022868444589625677, -0.0054950876456329387, -0.045266839176942499, -0.098642785984911135, -0.018821112221572223, 0.11210359685268038, 0.11600363656632925, -0.06410644469857131, 0.0045736889179251363, 0.010990175291265877, 0.090533678353884997, 0.1972855719698223, 0.037642224443144447, -0.11210359685268041, -0.11600363656632928, 0.064106444698571324, -0.0045736889179251372, -0.010990175291265881, -0.090533678353885025, -0.19728557196982235, -0.037642224443144461]}
    - {mu0: 0, rank: 3, ndensity: 8, num_ms_combs: 2, mus: [0, 0, 0], ns: [1, 2, 2], ls: [1, 0, 1], ms_combs: [0, 0, 0, 1, 0, -1], ctildes: [0.12089548953558957, 0.04222944270227888, 0.043309009061291606, -0.016611823597384886, -0.017814729243315244, -0.022582183986994922, -0.24842080912577899, -0.027041186337710001, -0.24179097907117911, -0.084458885404557746, -0.086618018122583199, 0.033223647194769765, 0.035629458486630482, 0.04516436797398983, 0.49684161825155787, 0.054082372675419994]}
    - {mu0: 0, rank: 3, ndensity: 8, num_ms_combs: 5, mus: [0, 0, 0], ns: [1, 2, 2], ls: [1, 1, 2], ms_combs: [0, 0, 0, 0, 1, -1, 1, -1, 0, 1, 0, -1, 1, 1, -2], ctildes: [-0.068972289328587386, -0.082035420518311655, 0.14177701934243461, 0.02668368567747877, -0.012756275810371641, 0.01895879665587339, 0.15893541141421064, -0.04589354096204646, 0.11946350943145408, 0.14208951635799419, -0.24556500084677227, -0.046217499326591201, 0.02209451781892554, -0.032837599058339648, -0.27528420769127537, 0.079489944685507935, -0.068972289328587399, -0.082035420518311669, 0.14177701934243464, 0.026683685677478773, -0.012756275810371642, 0.018958796655873394, 0.15893541141421064, -0.045893540962046467, 0.11946350943145408, 0.14208951635799419, -0.24556500084677227, -0.046217499326591201, 0.02209451781892554, -0.032837599058339648, -0.27528420769127537, 0.079489944685507935, -0.16894691524664854, -0.20094492110450915, 0.34728135464166598, 0.065361414366634674, -0.031246366753618519, 0.046439377944073913, 0.38931066002413356, -0.11241575784653247]}
    - {mu0: 0, rank: 3, ndensity: 8, num_ms_combs: 3, mus: [0, 0, 0], ns: [1, 2, 2], ls: [2, 0, 2], ms_combs: [0, 0, 0, 1, 0, -1, 2, 0, -2], ctildes: [-0.082655055658396856, -0.038740929021235306, 0.047912596102750345, -0.012852761869695134, 0.02613504626265005, -0.0037074870326072448, 0.0045171813653307217, -0.016217534809871946, 0.16531011131679371, 0.077481858042470625, -0.095825192205500703, 0.025705523739390272, -0.052270092525300106, 0.0074149740652144904, -0.0090343627306614434, 0.032435069619743899, -0.16531011131679377, -0.077481858042470639, 0.095825192205500717, -0.025705523739390276, 0.05227009252530012, -0.0074149740652144922, 0.0090343627306614452, -0.032435069619743906]}
    - {mu0: 0, rank: 3, ndensity: 8, num_ms_combs: 4, mus: [0, 0, 0], ns: [1, 2, 2], ls: [2, 1, 1], ms_combs: [0, -1, 1, 0, 0, 0, 1, -1, 0, 2, -1, -1], ctildes: [0.11061944779649976, 0.062028461946865593, -0.021828825316942486, -0.0020596314816022539, -0.0093174586649910542, -0.0070919372127961977, 0.0072737152247262238, -0.052939503040016905, 0.11061944779649978, 0.0620284619468656, -0.021828825316942489, -0.0020596314816022543, -0.009317458664991056, -0.0070919372127961995, 0.0072737152247262246, -0.052939503040016919, -0.38319700777750143, -0.21487289521464789, 0.075617269036980378, 0.0071347727420069352, 0.03227662361037479, 0.024567191153302862, -0.025196888658026193, 0.18338781798551268, 0.2709612027298654, 0.15193808129946396, -0.053469483710856379, -0.0050450461880980416, -0.022823019428701834, -0.017371627459206611, 0.017816890834892726, -0.12967476968456029]}
    - {mu0: 0, rank: 3, ndensity: 8, num_ms_combs: 7, mus: [0, 0, 0], ns: [1, 2, 2], ls: [2, 2, 2], ms_combs: [0, -2, 2, 0, -1, 1, 0, 0, 0, 1, -2, 1, 1, -1, 0, 2, -2, 0, 2, -1, -1], ctildes: [0.0010568297645752295, 0.070642666756228586, 0.011127845157385172, 0.027352607606268686, 0.057316602415986365, 0.023341701319450896, 0.05036746634116579, 0.00042385981909959702, 0.00052841488228761455, 0.035321333378114272, 0.0055639225786925824, 0.013676303803134336, 0.028658301207993168, 0.011670850659725441, 0.025183733170582877, 0.00021192990954979838, -0.00052841488228761455, -0.035321333378114272, -0.0055639225786925824, -0.013676303803134336, -0.028658301207993168, -0.011670850659725441, -0.025183733170582877, -0.00021192990954979838, -0.002588693668194985, -0.17303848762223209, -0.02725754257229443, -0.066999931769928273, -0.1403964297091401, -0.057175257961103523, -0.12337459217266253, -0.0010382402792623959, 0.0010568297645752291, 0.070642666756228545, 0.011127845157385165, 0.027352607606268672, 0.057316602415986337, 0.023341701319450882, 0.050367466341165755, 0.00042385981909959675, 0.0021136595291504586, 0.14128533351245712, 0.022255690314770336, 0.054705215212537357, 0.11463320483197269, 0.046683402638901771, 0.10073493268233154, 0.00084771963819919372, -0.0012943468340974925, -0.086519243811116045, -0.013628771286147215, -0.033499965884964136, -0.070198214854570049, -0.028587628980551762, -0.061687296086331264, -0.00051912013963119796]}
    - {mu0: 0, rank: 3, ndensity: 8, num_ms_combs: 1, mus: [0, 0, 0], ns: [2, 2, 2], ls: [0, 0, 0], ms_combs: [0, 0, 0], ctildes: [-0.065767349862715915, 0.05980802509189212, 0.11071124592789902, -0.16922765968542505, -0.090249051096051344, -0.16986114027915869, -0.14446225375055402, -0.02193127712473384]}
    - {mu0: 0, rank: 3, ndensity: 8, num_ms_combs: 2, mus: [0, 0, 0], ns: [2, 2, 2], ls: [0, 1, 1], ms_combs: [0, 0, 0, 0, 1, -1], ctildes: [-0.11530766827441175, -0.22803337632526055, 0.12096698026018511, 0.000283367844741725, 0.063140819071594204, -0.13768000154211443, 0.16780873648008396, 0.027684683988851298, 0.23061533654882344, 0.45606675265052099, -0.24193396052037019, -0.00056673568948344989, -0.12628163814318838, 0.27536000308422881, -0.33561747296016786, -0.055369367977702581]}
    - {mu0: 0, rank: 3, ndensity: 8, num_ms_combs: 3, mus: [0, 0, 0], ns: [2, 2, 2], ls: [0, 2, 2], ms_combs: [0, 0, 0, 0, 1, -1, 0, 2, -2], ctildes: [0.076967771597551748, -0.11657973091056817, 0.17983044854284388, -0.017879904587527751, -0.0019070801820898994, -0.11678295071408533, -0.12759615041664871, -0.0023272103065790032, -0.15393554319510352, 0.23315946182113637, -0.35966089708568777, 0.035759809175055508, 0.0038141603641797992, 0.23356590142817071, 0.25519230083329741, 0.0046544206131580073, 0.15393554319510355, -0.23315946182113642, 0.35966089708568788, -0.035759809175055515, -0.0038141603641798001, -0.23356590142817077, -0.25519230083329747, -0.0046544206131580081]}
    - {mu0: 0, rank: 3, ndensity: 8, num_ms_combs: 4, mus: [0, 0, 0], ns: [2, 2, 2], ls: [1, 1, 2], ms_combs: [-1, 1, 0, 0, 0, 0, 0, 1, -1, 1, 1, -2], ctildes: [-0.16211475679095375, -0.041664291498933921, 0.13933130613911901, 0.043671302130961195, -0.026060396553937045, 0.053544488538552537, 0.065290537615442262, 0.014445755116299612, -0.16211475679095375, -0.041664291498933914, 0.13933130613911898, 0.043671302130961188, -0.026060396553937038, 0.05354448853855253, 0.065290537615442248, 0.014445755116299608, 0.56158199083720728, 0.14432933947502724, -0.48265780263577518, -0.15128182824703154, 0.090275861793623693, -0.18548354922812485, -0.22617305680686589, -0.050041563630257968, -0.39709843391323091, -0.10205625466696704, 0.34129060523635496, 0.10697240662377462, -0.063834674051730891, 0.13115667545775592, 0.15992850218982513, 0.035384728984133522]}
    - {mu0: 0, rank: 3, ndensity: 8, num_ms_combs: 5, mus: [0, 0, 0], ns: [2, 2, 2], ls: [2, 2, 2], ms_combs: [-2, 0, 2, -2, 1, 1, -1, -1, 2, -1, 0, 1, 0, 0, 0], ctildes: [0.30769653800475238, 0.39357391197703151, -0.22476315418064563, 0.0044414210578511328, 0.32721442047369864, -0.054679202808383065, -0.019995573186908266, -0.10109904208176711, -0.25123317124417843, -0.321351753471596, 0.18351834690702845, -0.0036264051081958538, -0.26716945554702226, 0.044645382140898485, 0.016326317140800711, 0.082547022194831121, -0.12561658562208922, -0.160675876735798, 0.091759173453514226, -0.0018132025540979269, -0.13358472777351113, 0.022322691070449242, 0.0081631585704003556, 0.041273511097415561, 0.15384826900237616, 0.1967869559885157, -0.11238157709032277, 0.002220710528925566, 0.16360721023684929, -0.027339601404191526, -0.0099977865934541294, -0.05054952104088354, -0.051282756334125379, -0.065595651996171886, 0.037460525696774258, -0.00074023684297518859, -0.054535736745616424, 0.0091132004680638413, 0.0033325955311513762, 0.01684984034696118]}
    - {mu0: 0, rank: 4, ndensity: 8, num_ms_combs: 1, mus: [0, 0, 0, 0], ns: [1, 1, 1, 1], ls: [0, 0, 0, 0], ms_combs: [0, 0, 0, 0], ctildes: [-0.30102880093353873, -0.81060595276814296, 0.11032161763588527, 0.53366074612466396, 0.3495363466469194, 0.12859016244164514, -0.0021558095627265653, 0.22692645459735039]}
